32 100
69_income_0.0_percentile -0.005087 -0.003347 -0.001784 -0.003067 0.000433 -0.000196 0.002977 -0.002939 0.001899 -0.003845 0.000980 -0.001168 -0.004945 -0.004035 0.002756 -0.000983 -0.000204 -0.004476 0.001331 0.006106 0.004514 0.001353 0.005790 0.004601 0.000646 -0.004894 -0.005567 -0.004677 -0.000738 -0.001446 0.005925 -0.004290 0.004634 0.003097 0.003937 0.002256 0.000732 0.000194 -0.006000 -0.001469 -0.000544 0.001982 -0.000819 -0.000073 -0.003357 -0.005144 0.003224 -0.002287 0.005327 -0.003045 -0.001544 0.000123 0.002952 0.000045 -0.003456 -0.002205 0.000638 0.002020 0.002757 -0.004267 -0.005219 -0.000016 0.003264 -0.005190 0.002913 0.002585 -0.000590 0.005610 0.001418 -0.004963 -0.000406 0.004198 0.003365 0.001468 0.002410 0.000781 -0.002855 0.000910 0.002537 -0.001452 0.003395 -0.004059 0.002638 -0.003133 0.002868 -0.000494 0.002966 -0.002654 -0.002345 0.003561 -0.002421 0.003762 0.002111 -0.002942 -0.003448 -0.003389 -0.003000 -0.000911 -0.005062 -0.004321
89_income_0.0_percentile 0.003718 -0.003887 0.001110 0.004652 -0.001190 0.005178 -0.002760 0.001459 0.001915 -0.003910 -0.005249 -0.000518 0.004554 -0.002779 0.003989 -0.004312 -0.002064 -0.004814 0.002871 0.002937 0.003148 -0.002441 0.002795 -0.002671 -0.001188 -0.001500 -0.002637 -0.005007 0.001329 0.002109 0.002013 0.000922 -0.003916 -0.003561 0.000547 0.004879 -0.004411 -0.000100 -0.001602 -0.000100 -0.004160 -0.002002 -0.002941 0.004041 0.003714 -0.000876 0.001690 -0.004229 0.000227 -0.002281 0.004189 0.001754 0.001777 -0.003840 0.000042 0.005247 0.005385 0.001781 -0.003960 0.001325 0.000568 -0.000525 -0.000758 0.000919 0.004771 0.003346 0.000899 0.005678 -0.004942 0.005594 -0.005005 -0.003049 -0.000925 -0.004458 0.001782 -0.005018 -0.002793 -0.004606 0.002839 0.001938 -0.001587 -0.004084 0.002855 -0.002493 0.003303 0.000022 0.000134 -0.006192 0.002094 -0.001060 -0.003359 0.000406 -0.001604 -0.000478 0.004865 -0.001771 0.003703 0.000852 0.004248 -0.001911
79_income_0.0_percentile -0.006009 -0.000819 0.001732 0.003885 -0.003890 0.004465 -0.001662 0.004392 -0.005095 -0.005478 0.005247 0.001498 -0.001252 -0.004663 0.002637 -0.005760 -0.002294 -0.002909 0.001745 0.002531 0.004815 0.004733 0.002491 0.001261 -0.001422 0.004762 -0.004950 0.004024 -0.002191 0.000333 0.002945 -0.003605 -0.003692 0.000383 0.003665 0.002960 -0.004978 0.004597 -0.001128 0.004674 0.000090 -0.004787 -0.003555 0.004029 0.002574 0.003995 -0.001282 -0.000102 0.001940 0.000802 -0.002745 -0.000932 -0.002290 0.004035 0.005452 -0.004755 0.002845 -0.001521 0.001234 -0.003059 0.001264 -0.001561 -0.002112 0.004073 0.005807 0.001854 -0.003116 0.005899 0.002580 0.002744 -0.003285 0.004039 -0.002668 0.001247 0.002910 0.002484 -0.001702 0.003030 0.004951 0.001014 -0.004595 -0.004814 -0.004044 -0.004360 -0.003864 0.003167 -0.005101 -0.003915 0.004548 0.005732 0.000673 0.006263 -0.005135 0.004640 -0.002507 0.002863 0.003898 0.004115 -0.000601 0.004124
89_income_10.0_percentile 0.000471 -0.001216 0.001056 0.004495 -0.000991 -0.001232 0.002954 0.001383 -0.001056 0.002097 -0.000995 -0.003672 -0.000489 -0.001468 -0.002981 0.004402 0.001980 0.001179 0.002403 0.000260 0.001824 0.004245 0.003489 -0.003356 -0.002318 -0.004303 0.005000 -0.002591 0.001595 -0.004096 -0.003042 0.000132 -0.003907 -0.001151 0.000267 -0.001760 0.000712 0.000312 -0.000947 0.001942 0.001851 0.001914 0.000706 -0.001518 0.001046 0.004373 0.000923 0.004908 -0.000655 0.002484 -0.004636 0.002669 0.000130 -0.004974 -0.002302 0.000378 0.002538 -0.004490 0.000483 0.003076 0.001549 0.004369 -0.004235 -0.002218 0.003986 0.002505 0.001043 0.003088 0.003983 0.004671 0.005079 -0.003638 -0.004270 -0.004233 -0.004962 0.004719 -0.003990 0.003399 0.001693 -0.000148 -0.001475 -0.001265 -0.002452 0.004237 0.002227 -0.004768 -0.000331 -0.001980 -0.004795 0.003733 0.002828 -0.001882 0.003055 -0.001777 -0.001887 0.004322 0.004635 0.000184 0.004514 0.003923
89_income_100.0_percentile 0.003036 -0.004579 -0.003159 0.004736 0.004718 0.000466 0.001507 -0.002333 0.004555 0.001854 0.001678 -0.004947 0.003577 0.002971 0.001717 0.002557 -0.003400 0.002368 -0.004152 0.001940 -0.005164 0.002738 -0.000230 -0.003010 0.002355 -0.001801 0.004020 -0.003149 0.004431 0.004731 -0.002104 0.003742 0.003509 -0.000780 -0.001459 -0.002294 0.005079 -0.002509 0.004339 -0.000725 0.004447 0.003467 -0.003375 0.000669 0.001686 -0.000935 -0.005067 -0.001701 0.003352 -0.004358 -0.003998 0.002013 0.000082 -0.000044 -0.001312 0.001043 0.003433 -0.002283 0.003475 -0.000798 0.000041 0.002327 -0.002434 0.004247 0.001858 0.001101 -0.002291 0.001775 -0.002400 0.003142 -0.004841 -0.003390 0.000607 0.002172 -0.000138 0.003817 0.004878 -0.000375 0.002584 -0.000057 0.001705 -0.002643 -0.003966 0.004938 0.003130 -0.002175 0.000865 -0.001024 -0.003297 -0.000918 -0.001978 -0.005018 -0.001085 0.004252 0.003331 0.000769 -0.001908 -0.002752 0.004568 0.000682
69_income_100.0_percentile -0.000797 0.002242 -0.005025 -0.002010 -0.003529 -0.004117 -0.003142 -0.001579 -0.001013 0.000427 -0.000811 0.001866 -0.002972 0.003812 -0.004782 0.001755 -0.000812 0.000604 -0.003629 -0.003060 0.002983 0.004677 -0.001887 0.001917 0.003785 0.003954 -0.004139 -0.004621 -0.003310 0.003800 -0.004069 -0.000770 0.004610 0.000338 0.001918 -0.001902 0.001909 0.003351 -0.004809 0.002487 0.004924 0.002534 -0.002165 0.002903 -0.004015 -0.000529 0.004109 -0.002052 -0.002138 -0.003734 -0.004798 0.001798 -0.002900 -0.002372 -0.000099 -0.004480 0.000714 -0.003548 0.000909 0.002032 -0.004003 -0.000874 0.001962 -0.000878 -0.004556 0.000343 0.001674 0.000095 0.004458 0.000826 0.004073 -0.003668 -0.003623 0.003084 -0.001060 -0.003358 0.004314 -0.001530 0.002494 0.002260 0.003879 0.001282 0.002542 -0.001487 -0.002298 0.003962 -0.000686 0.004712 0.001606 0.001191 -0.003862 0.004485 -0.000480 0.000748 -0.000918 -0.002635 0.004021 0.000732 -0.004990 0.001173
79_income_10.0_percentile 0.004439 0.002999 -0.004665 0.002096 -0.000416 0.004536 -0.002796 -0.002295 -0.004235 -0.000844 -0.003817 0.001386 0.002945 0.001831 0.002754 -0.001679 0.003417 -0.000817 0.003288 0.001365 -0.003430 -0.004137 -0.004718 -0.004250 -0.000440 -0.003839 -0.004879 0.002575 -0.001103 0.002438 -0.000355 -0.000621 -0.000221 -0.000198 0.003119 -0.000902 0.003952 -0.004559 0.002634 -0.003702 0.001163 -0.004940 0.000339 -0.004930 0.004516 0.004053 0.002996 0.004126 -0.003480 -0.003433 -0.003150 0.001198 0.004063 0.004984 0.002172 0.002218 0.004123 -0.000977 -0.002456 -0.003349 -0.003844 0.003088 -0.003516 -0.002365 0.003298 -0.001842 0.004786 -0.002198 0.000382 -0.001888 0.004083 -0.001225 -0.000664 0.000158 0.004458 -0.004644 0.002120 0.003979 -0.004637 0.000217 -0.001768 0.003490 0.000561 0.001789 -0.000506 0.001330 -0.002140 -0.004990 0.000837 -0.001764 0.000148 0.004329 -0.000791 -0.002509 -0.001386 0.004309 0.004410 0.003490 0.004127 -0.002720
79_income_40.0_percentile -0.003577 -0.002044 0.001151 -0.001794 -0.000463 -0.000620 0.003278 -0.000769 -0.001547 0.001794 -0.002818 -0.000301 -0.001897 0.001275 0.003717 -0.000498 0.002868 -0.000444 0.001576 -0.003711 -0.000650 0.004095 0.001077 0.002692 0.000060 -0.000064 0.003430 -0.004363 0.000703 0.004444 0.000147 -0.003067 0.003481 -0.002485 0.002014 0.000353 0.004536 0.001258 0.003363 -0.004963 0.004909 -0.004209 -0.001768 0.004487 -0.004960 0.003221 0.003679 -0.000574 -0.002463 0.003046 -0.000200 -0.003631 0.004280 0.003923 -0.000109 0.003574 -0.000845 0.001827 -0.001030 0.000092 -0.003123 0.004660 -0.002042 -0.004002 -0.003598 -0.004890 0.002227 0.000603 0.002956 0.000045 0.002981 0.001929 0.002763 -0.000921 0.001431 -0.003226 -0.001804 -0.003303 -0.000942 -0.002592 -0.000883 0.004834 -0.001737 0.004822 0.001370 -0.001224 0.003619 0.001220 -0.002532 0.002930 -0.000656 -0.001400 -0.001655 0.001910 -0.002329 0.003068 -0.002061 0.000459 -0.000126 0.003525
69_income_10.0_percentile -0.003559 0.001371 0.001624 -0.000697 -0.004357 -0.000143 -0.000310 0.003057 -0.002441 -0.001010 -0.002554 0.001842 0.004886 -0.003155 0.003136 -0.002619 -0.004383 -0.003510 0.004296 0.003826 -0.002196 0.004461 0.003428 -0.000657 -0.000308 0.001318 -0.003328 -0.004786 -0.002335 -0.004875 0.001693 0.000557 -0.001760 0.002817 -0.003579 -0.002619 -0.002016 -0.003065 -0.004063 0.003712 -0.004086 0.001864 -0.003748 -0.004949 0.000543 0.004079 0.003541 -0.001564 -0.004738 0.003050 0.003023 0.003678 0.001664 0.003084 0.003952 -0.000487 0.000506 0.000048 0.001955 0.001833 0.000231 0.003296 0.000068 0.003257 -0.002264 -0.003265 0.004664 0.002317 -0.002371 0.000770 0.004580 -0.004175 -0.004151 0.001227 -0.002791 0.002704 0.000719 0.001693 -0.003985 -0.004178 0.001256 -0.000839 -0.004161 -0.001235 0.001689 -0.003127 0.003957 0.004585 0.004567 0.002270 -0.000876 0.002353 -0.002093 -0.001841 0.001055 0.000971 0.003720 -0.002485 0.002641 0.004436
89_income_40.0_percentile -0.003042 -0.000516 0.003428 0.000885 -0.000293 0.000023 0.000799 -0.000634 -0.003038 -0.003695 -0.003494 -0.004511 0.000613 0.003625 -0.001556 -0.004117 -0.000693 0.001156 -0.000812 0.002975 0.004250 0.003641 0.001936 -0.000328 0.001863 -0.004852 0.004986 -0.003246 0.004076 0.003061 0.002879 -0.002204 -0.002766 -0.000732 0.003416 -0.000620 0.004482 -0.001519 0.001305 0.004811 0.001480 -0.004485 -0.000299 -0.001709 0.000266 -0.002142 -0.003825 0.001740 0.001783 0.003691 -0.003697 0.002996 0.003225 0.001424 -0.003003 -0.002366 -0.000894 0.000404 -0.000215 -0.000287 0.003426 0.003713 0.003164 0.003782 0.000561 0.004547 0.001064 0.000864 -0.001781 0.001764 -0.004443 -0.003684 -0.003684 0.001558 -0.003313 -0.001565 -0.004486 -0.002668 0.004530 0.000073 -0.003450 0.000342 0.004407 0.003756 -0.001084 -0.002195 0.002636 -0.002428 -0.002538 -0.004237 0.003700 -0.000694 0.000689 0.002374 0.003007 -0.000493 -0.003251 0.003226 -0.004676 0.004499
69_income_60.0_percentile 0.000413 0.003290 -0.004164 -0.003964 0.000362 0.001506 0.001989 -0.001899 -0.004605 -0.000724 -0.002745 -0.005022 0.001867 0.004653 -0.001193 -0.001889 0.000592 0.003650 0.002882 0.001744 -0.000807 0.001872 -0.002938 -0.002187 0.002814 0.004299 -0.002948 -0.002001 -0.004913 -0.000680 -0.002986 0.001492 0.002135 -0.003828 -0.004247 0.003975 -0.000992 0.000290 0.004730 0.002566 -0.001682 -0.004107 0.000418 -0.001701 -0.004826 0.002713 -0.001218 0.000769 0.002520 0.004453 0.001097 -0.001854 -0.003928 -0.004273 -0.001852 0.001624 0.001869 -0.002943 -0.004160 -0.001911 0.000510 0.002578 0.000299 -0.002122 0.001117 -0.002429 0.001522 0.003264 0.001404 0.000632 -0.001886 0.003737 0.004910 0.002800 0.000670 -0.003568 -0.001796 -0.001348 -0.002173 -0.000563 0.001129 -0.002758 -0.002518 -0.003773 -0.001942 -0.000051 -0.000086 0.005072 0.004737 -0.000716 0.004777 -0.002996 0.000463 -0.000448 0.004701 0.003383 -0.002943 -0.000648 -0.003315 0.000308
79_income_30.0_percentile -0.002718 -0.002387 0.004587 -0.002693 -0.003846 -0.003302 0.002723 0.002047 -0.000624 0.003142 0.000148 -0.000903 -0.003799 0.004026 -0.002424 0.001318 0.004917 -0.002904 0.004567 0.001361 -0.003911 0.002674 0.004363 0.000578 0.001924 -0.004718 0.005104 -0.001763 -0.004746 0.003061 0.004566 0.002492 -0.004928 -0.004394 0.000722 -0.001803 0.003983 0.003669 0.005020 0.002138 0.003827 -0.001758 -0.003798 0.003556 -0.002031 -0.000764 0.001385 0.001155 -0.000864 -0.001041 -0.003792 0.000350 -0.002715 0.002501 0.001683 -0.004243 0.004764 0.002770 -0.002705 -0.004632 -0.000160 -0.001404 0.000459 0.001597 0.002761 -0.004985 0.002160 -0.002277 0.004895 0.003424 0.000694 0.000938 -0.003063 -0.002700 -0.003561 -0.001192 -0.003809 0.000096 0.001223 -0.003808 -0.001516 -0.004107 0.000215 0.001645 0.001129 0.003083 -0.002609 0.001386 -0.002073 -0.004213 -0.001831 -0.004488 0.004656 0.002273 -0.003935 0.002914 -0.001589 0.004050 -0.000030 0.003767
79_income_100.0_percentile 0.003150 0.003769 0.001859 0.000681 -0.003386 -0.000365 -0.001559 -0.002784 0.000944 -0.001855 0.004162 0.004099 -0.002436 -0.003861 -0.003112 0.000033 0.002288 -0.002903 -0.002561 0.003488 -0.000847 0.001184 -0.002674 -0.003985 0.000186 -0.000217 -0.003469 0.001188 0.000437 0.001567 -0.003596 0.002527 -0.002743 0.000203 0.002858 -0.004813 -0.001708 0.003728 0.003439 0.000369 0.003714 0.004543 0.003271 0.003559 -0.004051 0.001505 0.002043 0.001097 0.002985 -0.004681 0.002696 0.002323 -0.002423 -0.002453 0.001310 -0.001564 0.002954 -0.000564 0.002849 0.004931 -0.002016 -0.003576 0.004027 0.000406 0.004710 0.001348 0.004953 0.000427 0.000269 -0.003661 -0.001424 -0.004784 -0.003411 0.002481 -0.004728 -0.001334 0.003663 0.001909 0.001904 -0.003115 -0.000541 0.000850 0.004917 -0.002939 -0.002521 -0.002363 0.002525 -0.000388 -0.004459 0.000065 -0.002895 0.002977 -0.002018 -0.004733 0.000941 0.003424 -0.001187 0.002490 0.000098 0.000403
89_income_60.0_percentile -0.001700 0.003892 0.002510 0.002599 -0.000308 -0.002909 -0.004578 -0.001811 -0.004594 0.001949 0.001648 -0.000686 0.002665 0.000347 -0.004595 -0.003651 -0.003060 -0.001689 -0.004467 0.001059 0.000144 0.001153 -0.000651 0.003487 -0.000452 -0.004887 0.003704 0.001485 0.003234 0.004530 -0.004482 -0.002660 -0.004348 -0.000792 0.003643 -0.004172 -0.000244 -0.003744 0.002702 0.003348 -0.004581 -0.000125 -0.002613 0.004550 0.004407 0.001110 0.004785 -0.001581 0.003983 -0.000659 -0.002591 0.004407 0.001882 -0.004398 0.003659 0.002059 0.001050 0.002345 -0.002474 0.001031 0.003122 -0.004450 -0.003677 0.003371 0.001173 0.000320 -0.002480 -0.002032 0.003700 -0.000799 -0.004352 0.003948 -0.002942 0.003259 0.003813 -0.000179 0.000959 0.000216 0.001236 0.003545 -0.002148 0.003877 0.000733 -0.003861 -0.002693 0.000955 -0.002546 -0.003706 -0.003429 0.003444 0.001000 0.004634 -0.001515 0.000903 0.001010 0.001117 -0.004426 0.002486 0.004482 0.000281
89_income_90.0_percentile -0.003026 0.002572 -0.004950 -0.001752 0.004220 0.000824 0.003589 0.001014 0.003244 0.003879 -0.001800 -0.003800 0.002224 -0.000501 -0.003816 0.000994 -0.004597 -0.002906 0.002829 -0.004950 -0.002061 -0.004814 0.004905 0.000799 -0.002039 0.004293 0.000169 -0.000441 0.000901 -0.002355 -0.002027 -0.001213 -0.002507 0.000835 0.001916 -0.004351 0.004793 0.002501 0.003121 0.002498 -0.004145 -0.000130 -0.000488 0.001686 -0.000558 0.002038 0.001782 0.002007 0.001161 -0.003485 0.002588 0.002809 0.004014 -0.002685 -0.003275 -0.001076 -0.001848 0.003129 0.001142 0.002625 -0.000723 -0.003980 -0.003845 -0.001273 -0.003155 0.003158 0.001004 0.001782 -0.000074 -0.004146 -0.002603 -0.000420 -0.002998 -0.004740 0.002250 0.002254 -0.001645 0.003421 -0.000773 0.003633 0.001611 0.000879 -0.002994 0.000376 0.003950 -0.001976 0.003737 0.004193 -0.001752 0.001776 0.004018 -0.004338 0.003826 -0.003095 0.003522 0.001683 -0.001613 -0.003513 0.001348 0.003496
79_income_60.0_percentile 0.004839 -0.002385 -0.001646 0.004466 0.003168 0.003862 -0.004820 -0.001229 -0.002644 -0.001853 0.002375 0.002198 -0.000356 -0.001165 0.000679 0.000463 0.000572 0.001347 -0.001107 0.002561 -0.002694 0.001514 0.004453 -0.004996 0.002278 -0.003883 0.000660 0.001350 -0.002568 0.004116 0.001088 -0.002565 0.002714 -0.003977 0.000451 -0.004194 0.000945 -0.002524 0.001639 0.002199 0.000293 0.001607 0.003201 0.002976 0.001129 -0.000455 -0.001020 0.003828 0.001964 -0.003069 0.000614 0.004111 -0.003554 0.003443 0.003150 -0.000012 -0.004733 -0.003528 0.004238 -0.004509 -0.001211 0.001225 -0.003013 0.004854 -0.003632 0.000254 0.001181 -0.002913 -0.000290 -0.000127 0.002727 0.001320 -0.000329 0.001702 -0.000566 0.000290 0.001645 -0.003187 0.002725 0.000995 0.004815 -0.002628 -0.000376 0.004071 0.000960 0.002221 -0.000854 0.002044 0.004393 -0.003100 0.003175 0.004488 -0.004787 -0.002814 -0.003792 0.002736 -0.004305 0.004924 -0.001109 0.004131
69_income_30.0_percentile -0.000731 0.001064 0.002178 0.003527 0.001887 -0.002685 0.004291 0.002778 -0.001891 -0.001842 0.003774 -0.003781 0.001378 -0.002101 0.003172 -0.001247 0.002377 -0.002962 -0.000234 0.002952 -0.001167 -0.003438 0.001408 0.002484 -0.002161 -0.000498 0.004134 0.003725 0.002095 0.000902 0.003095 0.004168 -0.004928 -0.001054 0.000557 0.002251 -0.004024 -0.001065 -0.002120 -0.000759 0.000009 0.001654 0.000023 0.001137 0.000780 -0.000737 -0.005001 -0.003015 -0.001826 -0.003528 0.000974 0.001132 -0.000019 -0.001825 0.001479 -0.003066 -0.005000 0.002337 -0.000556 0.002006 -0.003132 -0.004342 -0.001205 0.001964 -0.004087 -0.003100 -0.000455 0.001077 0.002496 -0.003931 0.001276 -0.001169 0.001713 -0.002971 0.000223 -0.003269 -0.004759 -0.000157 -0.003235 0.001364 0.000406 0.002807 -0.001063 0.004988 0.000167 -0.000251 0.002527 0.000851 -0.001425 -0.000199 -0.003075 -0.001208 -0.004638 -0.000383 -0.002206 0.000283 -0.004783 0.000504 -0.002065 0.000805
69_income_20.0_percentile 0.004304 -0.000879 -0.004262 0.003555 0.000243 -0.001899 0.004674 0.004345 -0.002387 -0.002861 0.000874 0.003391 -0.001630 0.000981 -0.003476 -0.002937 0.002666 -0.003376 -0.002389 0.001785 -0.004949 -0.004704 -0.002207 -0.001653 -0.001354 0.003079 -0.004505 -0.001389 0.001395 -0.003580 0.003474 0.001522 -0.003801 -0.002927 0.002391 -0.001053 -0.000054 0.003844 -0.003539 0.004616 -0.004512 -0.003963 -0.002698 0.003004 -0.000497 0.001541 -0.003289 -0.003263 0.000164 0.002452 -0.000391 0.003678 0.001577 -0.002531 -0.002699 -0.001246 0.002485 0.004348 0.003615 -0.002340 -0.000854 0.001150 0.000465 -0.001125 -0.004102 0.002052 -0.004103 0.003520 0.003655 0.002053 -0.000064 0.001959 -0.001033 0.002977 0.002798 -0.003421 -0.001774 -0.001557 -0.001437 0.000652 -0.004548 0.001706 -0.002996 -0.000735 -0.000497 -0.001543 -0.001133 -0.003065 -0.004377 0.000448 0.001021 -0.003667 -0.002623 -0.002143 0.003324 -0.003442 0.000464 0.000644 -0.001569 -0.001462
79_income_90.0_percentile 0.004516 0.000471 0.001521 -0.000032 0.001386 0.001147 -0.003614 -0.001627 -0.000412 -0.003869 -0.001311 -0.002668 0.003433 -0.001728 -0.002621 -0.001038 0.001769 -0.004481 -0.003160 0.002055 0.002684 0.001246 0.003882 -0.003275 0.002017 0.004197 -0.003690 -0.002586 0.000441 -0.001529 0.001997 -0.004519 -0.003406 0.002204 0.004801 0.004392 0.003904 -0.003646 -0.003643 -0.004270 0.000420 0.003785 0.000242 0.002912 -0.003079 0.003625 -0.003066 -0.004517 -0.000718 0.000484 0.004705 -0.004097 -0.002249 -0.003908 -0.001032 -0.002155 0.000231 -0.001522 0.004300 0.002861 0.003560 -0.003760 0.000754 -0.002849 0.003845 -0.004759 -0.003964 -0.001065 -0.000992 -0.002198 -0.004112 -0.003780 -0.001840 0.004529 -0.002854 0.002468 -0.002430 -0.004601 -0.004714 -0.003457 -0.000413 0.002444 0.002298 -0.001607 -0.000224 0.003197 0.003336 -0.001952 -0.004895 -0.004424 0.002298 -0.002093 -0.000265 -0.003057 0.003432 0.000009 0.000370 -0.002067 0.000105 -0.005017
79_income_80.0_percentile -0.001696 0.000304 0.003846 -0.001444 0.004132 0.001190 -0.004810 0.004274 0.001913 0.005041 -0.003272 -0.003653 0.004348 0.002046 -0.004405 0.002604 0.002555 0.004304 0.002068 -0.003808 -0.004888 -0.004757 -0.004778 -0.002559 0.003619 0.000396 0.000617 0.003444 -0.003730 -0.002204 0.000797 0.004747 0.000628 -0.004825 0.002966 -0.002725 0.003133 -0.001152 0.003704 0.002480 0.000587 -0.003614 -0.004368 -0.003818 -0.004565 -0.003913 -0.002789 0.002154 0.000593 -0.004852 -0.004298 0.004677 0.000662 -0.002975 -0.002499 0.002449 -0.003078 0.000805 0.004705 0.003479 -0.002573 -0.000049 0.001192 0.003309 -0.003493 -0.004849 -0.004311 -0.000218 0.001072 0.000675 -0.001827 0.004869 0.000807 -0.001179 0.000485 0.002466 0.001732 -0.002355 -0.004384 -0.001307 0.001300 -0.002842 0.002500 -0.004278 -0.002409 0.003022 -0.003063 0.001464 0.000208 0.004202 -0.002329 -0.004428 0.002369 0.002743 0.004107 0.004338 -0.004914 -0.002683 0.001177 0.004507
69_income_50.0_percentile 0.004539 0.000627 0.004168 0.001364 -0.001077 -0.000228 0.001077 0.000473 0.004245 0.004292 -0.001065 0.004618 -0.003268 -0.003640 -0.003741 0.000125 -0.004735 0.004564 0.003245 -0.004921 -0.003323 -0.001686 -0.003751 0.003086 -0.001523 0.004379 0.000932 0.003805 0.003436 0.004049 -0.000469 0.000511 0.002996 -0.002168 -0.000147 0.000913 -0.004762 0.000914 -0.000592 0.003072 -0.001817 0.003935 0.000811 -0.003200 0.002830 0.001131 -0.004480 -0.000746 0.001762 0.004249 -0.005014 0.004771 -0.001259 0.004716 0.001016 0.003292 0.000690 0.001269 -0.002149 0.000890 0.002532 0.003614 0.002553 0.001983 0.003550 -0.001846 0.001726 -0.000605 -0.001144 -0.000907 -0.000932 -0.001829 0.001224 -0.000672 0.004676 0.001787 -0.003000 -0.000746 -0.001636 0.002956 0.003811 0.004131 0.001622 -0.002240 -0.002501 0.003536 0.000291 0.003114 0.000672 0.002284 0.000249 0.002617 0.000742 -0.000346 -0.001568 -0.004293 -0.001286 -0.004215 0.004821 -0.003157
79_income_20.0_percentile 0.001752 0.003005 -0.004197 -0.002702 -0.002939 0.004150 0.002129 0.000525 -0.001952 0.003367 -0.000670 0.004232 0.002031 -0.000210 -0.003760 0.004788 -0.003375 -0.002978 -0.000681 -0.000977 -0.003527 0.002296 -0.003093 0.001452 0.002545 -0.002913 0.001017 0.002454 0.001376 0.000980 -0.002058 0.002310 0.004468 -0.000746 0.002832 -0.004457 0.003389 -0.003065 -0.001054 -0.002033 -0.004179 0.004055 -0.001288 0.000331 -0.000093 -0.003680 -0.002896 -0.004226 0.000067 -0.002380 -0.001425 -0.003922 0.002885 -0.003950 0.004833 -0.003217 0.000716 -0.004553 0.002864 -0.003099 0.000254 0.002418 -0.003496 0.000469 -0.002856 0.002582 0.002257 -0.003248 0.003632 -0.004810 0.003641 0.000580 -0.000968 0.002576 0.002155 0.004855 -0.002234 -0.004978 0.004332 0.003568 0.002312 0.000196 0.002093 0.002823 -0.001226 0.002699 0.002538 0.001148 -0.001018 0.001973 -0.004963 0.002746 0.003990 -0.002636 -0.003801 -0.002800 -0.001984 0.003839 0.000424 -0.002139
69_income_70.0_percentile 0.000236 -0.001215 0.002075 -0.000481 0.001127 0.004829 0.002781 -0.001685 -0.004091 -0.003026 0.000273 -0.000870 0.003038 0.004455 -0.003323 0.003709 0.004606 0.004727 -0.004681 -0.004525 -0.005082 -0.001900 -0.004534 -0.002096 -0.001406 0.004558 -0.000084 -0.002173 0.000054 0.001426 -0.003990 0.002668 0.003566 0.003421 0.003832 -0.001279 -0.000458 -0.004030 -0.002635 0.004714 -0.002097 0.004119 0.003963 0.004161 -0.003478 0.003805 0.001248 -0.002837 -0.001581 -0.003371 -0.000584 -0.004157 -0.003384 -0.003040 0.001876 0.000749 0.003655 -0.002581 0.001309 -0.004624 0.000186 0.003655 0.004823 -0.004879 -0.002596 -0.002837 -0.004529 -0.005038 -0.000079 -0.004568 -0.002173 0.001369 -0.002034 -0.002287 0.000851 -0.001156 0.002095 -0.000040 0.001246 -0.001481 -0.002093 -0.003583 0.004320 0.003153 0.004366 -0.003175 0.004339 0.004498 -0.002207 -0.002321 0.000567 -0.003288 -0.000538 -0.003121 0.004500 -0.000025 0.004560 0.001402 -0.000148 0.004721
69_income_90.0_percentile 0.000802 0.003792 0.001073 -0.002510 -0.002008 0.000268 0.004622 -0.003173 0.000107 -0.001489 0.002696 0.003021 -0.000748 -0.002893 -0.004396 -0.002961 -0.002260 0.001042 0.003680 -0.003770 0.004517 0.001823 0.002365 0.004815 -0.000811 0.000329 0.001849 0.000135 -0.002002 -0.003934 -0.002210 0.002723 0.001430 0.003004 0.000143 -0.002733 0.001335 -0.001974 -0.004662 0.004032 -0.000763 -0.000706 0.002429 0.004462 -0.004300 -0.003265 -0.001789 -0.002499 -0.000059 0.003247 0.003520 0.000968 -0.002618 -0.003154 0.002413 -0.002627 0.000355 0.002477 -0.002700 -0.003217 -0.004587 -0.003524 0.003515 -0.003939 -0.002833 -0.004707 0.001763 -0.002755 -0.000845 -0.003624 -0.001210 -0.000781 -0.000274 -0.000744 -0.004003 0.002728 -0.003580 -0.000768 -0.002324 -0.001993 0.001743 0.000244 -0.003100 -0.000277 -0.001625 0.002039 -0.002729 0.003519 0.000225 -0.000022 -0.002446 -0.003190 -0.000263 0.004822 -0.003652 -0.002156 0.002963 0.001617 -0.002215 -0.001842
89_income_20.0_percentile 0.002367 0.003049 -0.001031 -0.000475 0.003126 0.002233 0.004383 0.004815 -0.003191 -0.002779 0.002112 0.002487 0.001041 0.003695 -0.002428 -0.001650 -0.000086 -0.001941 0.000497 0.001869 -0.002713 -0.000159 0.004995 -0.001745 -0.004675 0.003140 -0.000034 -0.004532 0.003918 -0.000945 0.004330 -0.001008 -0.004264 -0.002556 -0.001456 0.002561 -0.003209 -0.000668 0.003666 0.000314 -0.004023 -0.004766 0.002021 0.004853 0.002890 0.002625 0.001814 0.002905 -0.004587 -0.002383 0.001993 0.003680 0.001792 -0.003277 0.004363 0.004073 -0.004073 -0.003048 -0.002280 0.002388 0.003575 0.000776 -0.003014 -0.000873 -0.003552 0.004243 0.002660 0.000194 -0.000499 -0.003979 -0.001838 -0.003805 0.002806 0.000396 -0.002686 -0.002795 -0.002449 -0.001945 -0.001061 -0.001993 0.001787 -0.004695 -0.001673 0.002403 0.004474 0.003030 -0.002576 -0.002766 -0.003087 0.003862 -0.002668 0.002644 -0.002393 -0.004699 0.002348 0.002221 -0.004053 -0.001708 0.004516 -0.003409
89_income_50.0_percentile -0.002500 0.004170 -0.004569 0.004457 0.000618 -0.001321 0.004985 -0.004438 0.000173 -0.004575 0.000710 -0.003223 0.001325 0.004926 0.003649 -0.000390 0.002124 0.002901 -0.000104 0.000188 -0.003616 -0.001332 -0.003674 0.002240 -0.000200 -0.000489 0.003990 0.000323 -0.000906 -0.002323 -0.004368 -0.000742 -0.004716 -0.002096 -0.000037 0.004566 -0.003816 0.001694 0.000085 0.002786 -0.003521 -0.004133 -0.000955 0.002899 -0.003122 0.002693 -0.002160 -0.002775 -0.004874 -0.000970 -0.001212 0.001597 -0.004330 -0.003479 -0.004868 -0.003868 0.001447 -0.000987 -0.001776 0.000606 0.004966 0.003368 0.002008 0.004201 -0.004725 -0.004370 -0.000259 -0.001649 0.004390 -0.000127 0.000441 0.003926 -0.000535 0.003789 -0.002528 -0.002239 -0.001662 0.000482 -0.002885 0.001696 -0.003554 -0.003969 0.003674 -0.002545 -0.001164 0.000683 0.000271 -0.004104 0.003703 0.004431 0.003188 -0.002290 0.000319 -0.001588 0.000570 0.004772 -0.001943 0.001649 -0.001751 0.002790
89_income_30.0_percentile 0.003226 0.001283 0.004559 0.000901 -0.003020 -0.000713 -0.001628 0.004922 -0.001197 0.004927 0.000189 -0.003270 -0.004257 -0.001294 -0.003772 0.001346 -0.000855 0.004907 0.004293 -0.003509 -0.001059 -0.000393 0.000604 0.002801 -0.000130 -0.000799 -0.002380 0.004108 -0.004773 0.003207 -0.003114 0.001860 -0.001451 0.004739 -0.003769 -0.003129 0.003896 0.000837 -0.001910 -0.004990 -0.002727 -0.003546 -0.002964 0.003965 0.003729 0.002002 -0.000298 0.003269 -0.000044 -0.001363 -0.002243 0.004251 -0.001127 -0.000074 -0.002460 0.003849 -0.001168 -0.002018 0.002180 -0.003090 -0.003819 0.003369 0.002443 0.000902 -0.002579 0.001234 0.001381 -0.001727 -0.004321 0.003804 -0.000397 0.002637 -0.002463 0.000916 -0.000712 -0.001183 -0.003732 -0.002559 -0.004210 -0.001971 0.002413 0.001158 0.001724 -0.004913 0.001783 0.000029 -0.002690 -0.003252 -0.003159 0.003439 0.004826 0.004131 -0.001526 0.002797 0.000467 0.003159 -0.000164 0.000899 0.002871 -0.004000
69_income_40.0_percentile -0.002414 0.004349 0.001183 0.004844 -0.004669 0.002245 0.000654 -0.000084 -0.002401 -0.001725 -0.002505 -0.002803 0.002989 0.000028 -0.004172 0.002780 0.000339 0.002400 0.000148 -0.001009 0.004859 -0.004722 0.004322 0.004310 -0.001088 -0.002854 0.001190 -0.003218 0.003030 -0.002459 -0.002098 0.004158 0.004042 0.000360 0.003624 -0.001481 0.004985 -0.000665 -0.002054 -0.004594 0.004900 -0.000342 0.002355 0.001405 0.002223 -0.004494 0.004203 0.004271 0.000517 0.004633 -0.002186 0.001019 -0.001036 0.001279 -0.001999 0.003193 -0.004312 -0.004582 -0.004502 -0.003493 -0.001054 0.004552 -0.003886 0.001466 0.000263 -0.001469 -0.003012 -0.002805 -0.004562 0.002120 0.001549 -0.000564 0.002194 -0.003896 0.004384 0.003473 0.001597 -0.001213 -0.000839 -0.000178 0.004365 0.003644 -0.000214 0.000549 0.003755 0.004493 0.001398 0.002495 -0.001486 0.004174 0.003367 0.000522 0.003680 0.003490 0.003080 -0.003698 0.000356 0.004004 0.002700 -0.000800
89_income_80.0_percentile 0.002334 -0.000588 0.001625 -0.002617 0.004987 -0.002573 0.004406 -0.002832 -0.000029 0.003216 0.002162 0.002052 -0.000598 0.002548 0.004189 -0.000583 0.000283 -0.004333 -0.001092 -0.000334 0.003947 -0.003893 0.002308 0.000451 0.001070 -0.004695 -0.003535 -0.002163 -0.004959 0.001695 0.003692 0.000469 0.000436 0.001153 -0.001979 -0.001336 0.000756 0.003093 -0.002977 -0.001726 0.002429 -0.001592 -0.004519 -0.003431 -0.003071 -0.000044 0.001354 0.003806 0.004024 -0.001927 0.002537 -0.002175 -0.001319 -0.002080 -0.000867 -0.002851 -0.001815 -0.003785 0.004629 0.000042 0.004227 0.002462 -0.000422 0.002540 0.001271 -0.001966 0.000222 0.002119 -0.001944 -0.004878 -0.002314 0.002967 0.004300 0.001257 -0.003674 0.002569 0.000269 0.002534 0.003580 0.004475 0.001552 0.003548 0.002428 0.002269 0.003586 0.004231 0.004025 -0.001031 -0.004159 0.003292 0.000398 0.000419 0.003253 -0.004687 0.003783 -0.004647 0.001925 0.000874 0.001411 -0.001258
69_income_80.0_percentile -0.002226 0.000107 0.003845 0.000643 0.001653 -0.000602 0.004729 0.002420 -0.001448 0.001564 0.000423 0.003829 -0.002240 -0.003883 -0.003110 -0.001112 0.003549 -0.002262 0.001248 0.001213 -0.000957 -0.004513 0.002416 -0.002049 -0.001005 -0.001221 0.001661 -0.004120 0.000504 -0.004843 0.004808 0.001004 -0.001149 -0.003542 0.001950 0.004041 -0.001795 0.002654 -0.002097 0.004568 0.002028 0.001249 0.004313 -0.002325 0.004229 0.001782 0.002693 0.000724 0.003337 0.001988 -0.003540 0.001125 -0.002212 0.004153 -0.003030 -0.002131 -0.004535 -0.000523 0.000576 0.000737 0.004059 -0.001521 -0.000529 0.003516 0.000741 0.001522 -0.002224 -0.000154 0.001216 -0.003668 -0.004669 -0.003858 -0.000212 -0.004749 0.001262 -0.004026 -0.002474 -0.000742 -0.003866 -0.002293 -0.004784 0.004871 0.001104 -0.001203 -0.004740 -0.001105 -0.000482 0.004332 -0.002225 0.001133 0.001664 -0.003173 0.000064 0.002873 -0.004018 0.001067 -0.004763 -0.004939 -0.004400 -0.000188
79_income_50.0_percentile -0.002220 -0.001509 -0.002171 -0.004141 0.000224 0.002879 0.004433 -0.000027 0.000936 -0.002087 -0.003508 -0.003682 0.002323 0.002356 -0.003215 -0.000861 0.000946 -0.003742 0.002847 0.001195 0.001141 0.002007 0.004863 0.000620 0.003646 -0.000806 0.001547 0.004253 0.001643 -0.001971 0.001195 -0.001482 -0.001775 0.001097 -0.003399 -0.000136 0.004462 -0.001159 -0.003106 -0.000308 0.003409 0.003424 0.003279 -0.004886 -0.002334 0.005001 -0.003810 -0.000099 0.002900 -0.003773 0.001621 -0.000118 -0.003058 0.003781 -0.003191 0.001389 0.002407 0.000628 0.001290 -0.003811 -0.001919 0.000872 -0.001047 0.001637 0.003510 -0.003099 0.004028 -0.001171 0.004438 0.001174 0.002903 0.000149 0.000314 -0.001719 -0.003705 -0.001165 -0.002847 -0.004672 -0.002256 -0.003192 0.003754 -0.004182 -0.003167 0.002045 0.004190 -0.002487 -0.004788 0.004611 0.001817 -0.001898 -0.000271 0.000981 -0.001260 0.003744 0.002267 0.004542 -0.001493 0.004369 -0.000212 0.001423
89_income_70.0_percentile -0.004079 0.001001 0.004304 -0.003684 0.000185 0.001779 -0.003254 -0.004899 0.003881 -0.004552 -0.002426 0.001490 -0.002105 -0.004801 0.000670 -0.001833 -0.003450 0.004826 -0.003404 0.002183 0.003785 0.003553 -0.003245 -0.002674 -0.004799 0.004341 0.003991 0.000998 -0.003885 -0.003278 0.000683 -0.002405 -0.001979 -0.003296 -0.003163 -0.000454 0.000175 0.000071 0.005050 -0.003695 0.002598 0.002976 0.000903 -0.000434 0.003909 0.003304 -0.004558 0.004681 -0.004976 0.000763 0.000712 0.003350 -0.001183 -0.004097 0.000796 -0.004744 -0.001451 0.004830 0.003703 -0.003437 0.003020 0.003136 0.004278 -0.002734 -0.000124 0.003209 0.001671 0.000810 0.001523 -0.002635 -0.004700 0.002320 -0.001737 -0.001225 0.001069 0.001600 -0.002912 0.003266 -0.001278 0.001302 0.004679 0.000730 -0.001440 0.001285 0.000008 -0.000510 0.002343 0.004361 -0.000244 -0.004186 0.000750 -0.002667 -0.004577 0.002887 -0.002238 0.002800 -0.000162 -0.001856 -0.001847 -0.004530
