3419 50
, 0.188259 -0.256837 -0.071208 0.038103 -0.526522 0.080227 -0.069022 -0.058765 -0.284794 0.124352 -0.279694 -0.384986 0.100877 -0.046775 -0.121380 0.202153 0.301769 -0.056659 -0.096354 0.248738 0.338509 -0.017081 0.305092 -0.160596 -0.011976 0.218489 0.300334 -0.174700 -0.015142 0.068783 -0.131028 -0.283167 -0.196976 0.014470 -0.366213 -0.002035 0.126825 -0.008352 0.149590 0.277420 -0.071083 -0.230815 -0.126751 -0.053502 -0.045963 -0.031232 0.183363 -0.143779 -0.304186 -0.004815
Reported_Minimum_80.0_percentile 0.275423 0.287602 -0.347730 -0.353570 -0.138745 0.454673 -0.058774 -0.183490 -0.349741 0.423644 -0.211296 0.104709 -0.094705 -0.505598 -0.798349 -0.384708 0.026404 -0.135195 0.107377 -0.017606 0.545654 0.082151 -0.172409 0.316082 -0.208085 0.231080 0.360764 0.074861 0.091435 0.397453 -0.216264 -0.185882 -0.199141 0.348063 -0.530700 0.680982 -0.556949 -0.043040 0.629882 -0.214711 0.194044 0.447301 -0.491548 -0.726887 -0.021538 0.204851 0.158615 -0.600460 -0.032240 -0.472154
Reported_Minimum_1_value 0.249969 0.169468 -0.235239 -0.259797 -0.627103 -0.250269 -0.390916 0.028906 -0.055842 0.349137 -0.107558 -0.257674 -0.014130 0.187041 -0.500953 -0.320582 0.058729 0.125103 0.328918 -0.070303 -0.036772 0.129356 0.144390 -0.212239 -0.511640 0.205817 0.406074 0.061911 0.048571 -0.075725 -0.946757 -0.357016 0.246875 -0.339799 -0.622705 -0.153697 0.165263 0.117247 -0.033029 -0.436921 0.526121 0.512084 -0.705190 -0.250474 0.110915 -0.483448 0.351245 -0.184193 -0.211979 -0.069227
gunfir 0.093064 0.566601 -0.186199 -0.454924 -0.163022 0.291236 -0.156955 -0.071462 -0.285090 0.233933 -0.129962 -0.292312 0.686214 -0.644014 -0.412973 0.556201 0.625221 -0.206877 0.049553 0.027235 -0.122184 0.666827 -0.080919 -0.276796 0.341021 0.288592 0.516848 -0.084753 -0.013206 -0.232968 -0.592738 -0.399418 0.331308 0.077322 -0.192983 -0.354217 0.120287 -0.488414 -0.213618 0.051616 -0.013827 0.421340 0.290744 -0.275973 -0.213441 0.131025 0.086334 -0.349280 -0.348803 -0.071472
baghdad 0.002966 0.059284 -0.243033 -0.186223 -0.340843 -0.004202 -0.141811 -0.171416 -0.240019 0.115552 -0.499128 -0.147062 -0.268680 -0.329215 0.039667 0.045176 0.009321 0.169324 -0.080268 0.615972 0.099709 -0.333448 0.274776 0.202536 0.155600 0.145695 -0.039488 0.361062 -0.176069 -0.670993 -0.114002 -0.406782 0.303540 -0.027960 -0.060737 -0.136559 0.281928 0.106832 0.698826 0.322886 0.522171 0.020817 0.451398 0.103930 0.271680 0.059326 0.475659 -0.542529 -0.449058 0.463222
of -0.017856 -0.052256 0.113599 0.221207 -0.103216 0.112146 -0.086374 0.074791 0.214334 0.698180 -0.422920 -0.319038 0.092372 -0.349611 -0.196240 0.264801 0.110351 0.102047 0.225097 0.484662 0.154571 0.125317 0.016520 0.616487 -0.510119 0.287523 0.117781 -0.091235 -0.238386 -0.395345 -0.749636 0.294115 -0.091306 -0.082440 0.202633 -0.106995 0.135521 0.156650 0.565775 -0.048853 -0.383374 -0.227725 -0.613604 0.073967 -0.180814 0.028100 0.611129 -0.366285 0.270534 0.489829
Reported_Minimum_90.0_percentile 0.552755 0.505800 -0.039083 -0.177830 -1.004535 -0.353514 -0.382347 0.270232 -0.322417 0.491097 -0.479956 0.340165 -0.308469 -0.082409 0.320620 -0.810240 -0.066232 -0.090133 0.298624 -0.214995 -0.542376 0.235751 0.028815 -0.168635 0.119871 0.663221 0.259050 -0.127603 0.041897 0.174541 -0.549267 -0.041563 -0.079308 0.077889 -0.624737 0.536168 -0.181302 0.085119 0.353628 -0.354899 -0.319128 -0.285638 0.067013 0.360866 -0.649595 -0.179453 0.097854 -0.633981 -0.179039 -0.479447
found -0.064693 0.353858 -0.308649 -0.267257 0.106945 -0.308601 -0.112896 0.432209 0.421710 0.377544 -0.626470 0.166173 -0.159583 0.266719 0.189629 0.393578 0.308355 0.510471 0.249618 0.224073 0.188750 0.386363 0.223258 0.461475 -0.238310 0.020344 0.030861 0.075813 -0.309945 -0.307196 -0.486724 0.055008 0.248160 0.516037 -0.483412 0.587174 -0.203720 -1.024855 -0.562862 -0.045345 0.243161 -0.329062 -0.194150 -0.134345 -0.038948 0.359139 0.493133 0.050491 0.250948 -0.670455
bodi -0.116304 0.072967 0.227628 -0.492696 0.426647 -0.159165 0.101864 0.262485 0.459579 0.293747 -0.628544 -0.201262 0.391707 -0.280026 0.135669 0.727413 0.725755 0.370054 0.468377 0.096605 -0.217311 0.336727 0.623430 -0.008651 0.205242 -0.316510 0.274255 0.355876 -0.530360 0.223974 -0.661115 -0.342907 0.060280 0.228174 -0.386676 0.512673 -0.436672 -0.537345 -0.172353 0.224981 -0.185084 0.169165 -0.350835 0.107652 -0.539079 0.050093 -0.108322 -0.202809 0.150428 -0.079775
bomb 0.379349 0.007150 -0.347429 0.177234 0.267008 -0.041295 0.130525 -0.517854 -0.266324 0.075452 0.280986 -0.197775 0.218351 -0.511929 0.369262 0.012796 0.831708 0.491727 0.134047 0.381670 -0.548594 0.196079 -0.093594 -0.417404 1.307850 0.606913 0.429253 -0.561343 0.120708 0.052906 0.271998 -0.225618 -0.109169 0.065129 -0.115540 -0.181136 0.357004 -0.436979 0.087914 -0.586046 -0.039818 0.554860 0.087687 -0.373298 -0.243360 -0.434948 0.084261 -0.402864 0.170405 0.305051
Reported_Minimum_2_value -0.206976 -0.225593 0.307897 -0.473850 -0.326680 -0.101452 -0.386123 -0.086569 0.353287 0.236030 0.503429 -0.035293 0.352470 -0.215233 -0.364802 0.001873 -0.084554 0.174359 0.143697 0.012274 -0.588198 0.198913 0.056506 -0.362336 -0.052600 0.694739 -0.159304 0.435347 0.361850 0.466951 -0.401685 -0.565519 0.088963 -0.127461 -0.530082 0.446405 0.171741 0.358945 0.776613 -0.010621 -0.485377 0.458207 -0.127760 -0.321864 -0.427448 -0.599570 -0.027657 -0.249808 -0.284383 0.224576
in 0.309690 -0.256388 0.436814 -0.568658 -0.253252 0.076655 -0.462278 0.049015 0.138296 0.133947 0.097841 0.282620 0.367816 0.239544 0.102808 0.081249 0.011384 -0.085701 0.106720 -0.099231 0.058318 0.045685 0.293257 0.491150 0.241524 -0.216052 0.147943 -0.727753 0.579633 -0.006100 -0.187848 -0.218396 -0.432577 0.546025 -0.083293 -0.232598 0.466643 0.095061 -0.128178 0.094906 0.009937 0.001289 -0.014626 -0.066110 -0.186055 0.437592 0.855121 -0.140919 0.139006 0.156302
shot -0.270690 0.680897 0.202421 0.103232 -0.356995 -0.682466 -0.038676 -0.212840 0.190585 -0.236203 0.145044 0.665722 0.503530 0.355209 -0.066280 0.616432 0.399505 0.318356 0.039442 0.211296 0.190021 -0.027737 0.552060 0.306964 0.266393 0.035062 -0.351101 -0.394578 -0.101667 -0.309598 -0.147299 -0.485707 0.235260 1.105432 -0.245857 0.361528 -0.161747 -0.274364 -0.172206 0.348509 -0.328273 -0.019607 0.086460 -0.170979 -0.204157 -0.010410 0.834944 -0.210761 0.241708 0.159421
and 0.458168 -0.081893 -0.113709 0.355964 -0.317094 0.226961 -0.221785 0.382198 0.415420 -0.034266 -0.023603 0.157531 0.127659 0.406828 -0.520003 -0.007357 0.030399 -0.041663 0.069936 0.763787 -0.005223 0.010119 0.226824 0.147853 0.309015 -0.022447 -0.226770 -0.651257 -0.082632 0.233001 -0.288696 0.115900 -0.088011 0.038110 -0.112373 -0.046601 0.139914 0.033321 -0.355657 0.408712 0.117381 -0.068183 0.526881 -0.444849 -0.638332 0.007852 0.399705 -0.183637 -0.303708 -0.207460
polic 0.170726 0.012605 -0.391332 0.053786 -0.203054 0.079403 0.030204 0.445793 -0.247025 0.498153 -0.018775 0.061625 0.296659 -0.328491 0.418545 0.291948 -0.285964 -0.509155 -0.172280 0.671848 0.068035 -0.120204 0.526842 -0.029617 -0.103386 0.838829 -0.300784 -0.234286 -0.168757 0.234130 -0.112777 -0.110840 0.104723 -0.071477 -0.271903 0.391233 0.392840 -0.393969 -0.132798 0.014431 0.551363 0.342218 -0.561731 0.020426 -0.546252 0.286162 0.147585 -0.372796 -0.012251 0.532185
mosul 0.005751 -0.303701 -0.232139 -0.310926 -0.026335 -0.165669 -0.186159 -0.223245 0.017697 0.156976 -0.068199 -0.181304 0.168065 -0.357777 0.156341 -0.087879 -0.115997 -0.179382 0.140155 0.102965 0.413725 -0.271466 0.024609 0.515729 0.004697 0.213951 0.040014 -0.055651 -0.324753 -0.784734 0.030328 0.034580 0.158403 -0.028219 -0.136133 -0.061804 -0.144977 -0.067092 0.353587 0.075997 0.357955 -0.175005 0.354503 -0.036783 -0.237498 -0.344397 0.304308 -0.012637 -0.565432 0.099096
execut -0.167589 0.450963 0.026054 -0.109459 -0.069922 0.199186 0.037489 0.130813 -0.398418 -0.217976 0.579301 0.020292 -0.212755 -0.183428 -0.110665 -0.059830 0.368719 0.242904 -0.136257 0.086389 -0.515574 0.495779 -0.007274 0.203049 0.257403 -0.798489 -0.067488 -0.106631 -0.969512 -0.104402 -0.036255 -0.665359 0.552510 0.194549 -0.470679 -0.449188 -0.356168 -0.988836 0.400549 0.048801 -0.181954 0.153884 -0.539554 0.364216 -0.782537 -0.500478 0.582241 -0.341175 0.266244 0.016975
Reported_Minimum_100.0_percentile 0.341577 -0.047106 -0.509620 -0.392636 -0.151277 -0.367964 -0.131457 0.238270 -0.344626 -0.177096 0.637734 -0.472373 -0.783361 0.424510 0.402171 -0.046283 0.216012 0.333246 0.681770 0.375376 -0.095400 0.765945 -0.536718 -0.071716 0.091903 0.450017 0.588503 -0.001046 -0.309950 0.602752 -0.128664 -0.798953 0.390786 1.060332 0.323567 0.209612 0.009795 0.239542 0.176657 0.092450 0.488420 -0.096107 -0.298317 -0.327599 -0.302914 -0.571838 0.796786 -0.484664 0.014971 0.039770
car -0.246767 -0.136562 0.190155 -0.040855 -0.377245 0.048801 0.158710 0.256329 -0.309910 -0.205547 0.102671 -0.367593 -0.079700 0.139386 0.271294 0.076523 0.580342 0.241983 0.118015 0.566678 -0.161358 -0.410711 -0.564121 0.433747 0.306125 0.691314 0.231955 0.083953 0.510440 -0.033193 0.438519 0.560612 0.367325 -0.060551 -0.087592 0.127808 0.219614 -0.460338 -0.448021 0.448902 -0.345514 0.413874 -0.050518 -0.169776 -0.116067 -0.099846 0.408769 0.168952 -0.031278 0.085133
near -0.333269 0.082530 -0.038374 0.075915 -0.171182 0.240753 0.162650 0.313911 -0.156642 0.508839 -0.214802 -0.030198 0.164302 -0.209665 0.174498 0.019843 0.293310 -0.346384 0.394925 -0.027877 -0.305830 0.161479 -0.346180 0.274830 0.028194 -0.246741 0.410160 -0.251682 -0.072067 -0.157271 -0.200898 0.055113 -0.075151 -0.003479 -0.283769 -0.073811 0.204816 0.127011 0.332362 -0.155375 0.149421 0.275153 -0.101027 -0.199861 -0.283030 -0.057739 0.412260 -0.342644 0.168407 0.268381
kill -0.049639 -0.151479 -0.802531 0.126118 -0.630664 0.206614 -0.313066 0.146786 0.598267 -0.257495 -0.159784 -0.567840 0.065435 0.082293 -0.260008 0.365408 -0.130485 -0.635321 -0.315132 0.211707 0.187953 -0.088181 0.397358 0.878086 0.580949 0.486115 0.003500 -0.724753 0.414120 -0.294871 0.141322 0.099490 0.453903 0.519350 0.200541 0.083177 -0.342092 0.390115 -0.072248 0.274659 -0.031768 -0.009734 0.205059 0.409811 0.211092 -0.828104 0.655359 -0.051398 -0.081907 -0.133068
roadsid -0.223306 -0.291339 0.046196 -0.241535 0.155946 -0.095679 0.126749 0.414274 -0.610478 -0.065448 0.346249 0.133206 0.100288 -0.472807 0.180834 -0.100900 0.179856 0.265693 -0.154199 0.449468 -0.675874 -0.082204 -1.024316 0.242701 0.151304 0.929848 0.442173 -0.016679 0.067513 -0.528076 0.863786 -0.069900 0.366501 -0.183268 -0.660697 -0.022973 0.961758 -0.377886 -0.590413 -0.142559 -0.545475 0.355657 0.424955 -0.704641 -0.234963 -0.005063 0.428893 0.297330 0.248520 -0.494217
tortur 0.094977 0.016261 -0.094598 -0.804618 0.459084 0.487924 0.611179 1.046094 -0.444009 -0.334831 0.360675 -0.374595 0.168070 0.514771 0.300181 0.391341 -0.090335 -0.024429 0.584884 -0.199880 -0.854077 -0.018024 0.195346 -0.251935 0.482184 -0.471410 0.059705 0.355272 -0.423934 -0.317826 0.234536 -0.553910 0.541098 0.685816 -0.057355 -0.064086 -0.162432 -0.531583 0.051834 0.144467 -0.325158 -0.008140 -0.783037 0.205591 -0.185982 0.069900 0.685953 -0.159931 -0.215914 -0.140841
a 0.173619 -0.381694 -0.584260 -0.158269 -0.645874 -0.724196 -0.153791 -0.312141 0.193779 0.258706 0.264088 -0.634123 0.525398 0.116425 0.201437 -0.140169 0.078927 -0.189622 -0.035445 0.276436 0.213045 0.359922 0.375862 0.489411 -0.398051 -0.056574 0.327249 -0.467959 0.622081 -0.186347 0.018427 0.334874 0.261040 0.556305 0.183462 0.696377 -0.067724 -0.086895 0.250095 0.323657 0.087020 0.087756 0.439522 -0.064834 0.223780 0.012176 0.212253 -0.092170 0.095539 0.408745
al -0.235801 -0.089711 -0.533398 0.004389 0.073317 0.061132 -0.258981 0.162911 -0.283418 0.066834 -0.074703 -0.157631 0.175617 -0.124791 -0.118811 0.118352 0.276226 -0.335030 0.125811 -0.194562 0.059951 -0.611259 0.043877 -0.250445 -0.474741 -0.217328 0.308172 -0.274748 0.085182 -0.004099 0.093492 -0.190899 -0.194197 0.149993 -0.280014 -0.148539 0.040426 -0.153598 0.352085 -0.428913 -0.008936 -0.035236 -0.011654 0.238557 -0.626406 -0.110203 0.202956 -0.016874 -0.455944 -0.188603
dead 0.078919 -0.361716 -0.214175 -0.248497 0.503648 -0.242570 -0.229995 0.557625 0.704847 -0.353392 0.265523 -0.220313 0.676378 0.339310 -0.070209 0.926416 -0.242209 0.514546 -0.031716 0.390176 -0.383050 0.107801 0.251750 0.655836 0.589460 -0.072437 0.089361 -0.369214 -0.011566 0.085859 -0.293028 -0.468209 -0.017008 0.676148 0.383083 0.421923 -0.407846 -0.111079 -0.572268 0.292027 -0.239020 -0.250903 0.248564 -0.254210 0.333485 0.534547 0.323240 0.136261 0.592485 -0.378893
civilian 0.278012 -0.389203 -0.524646 -0.083006 -0.068766 0.112012 -0.181544 -0.159308 -0.110378 0.413071 -0.282396 -0.344242 0.678659 0.286214 0.452944 -0.142059 0.226136 -0.424890 0.678693 0.337052 0.244954 0.260464 0.586619 0.194280 -0.372857 -0.022261 0.254696 -0.344351 0.549283 -0.156922 -0.260330 0.363198 0.174047 0.239815 -0.785604 0.180485 0.000126 -0.244980 0.506194 -0.271821 -0.118167 0.485184 0.009379 0.079065 -0.088343 -0.036029 0.122314 0.005367 0.276271 0.424819
the 0.244075 -0.267844 0.241021 -0.192805 -0.184397 -0.542952 0.074980 0.076611 0.492273 0.401924 0.091252 0.403254 0.004066 0.805587 -0.266472 -0.243312 0.185201 -0.168947 0.293454 0.347940 0.062016 -0.413735 0.302688 -0.102278 -0.044464 -0.257784 -0.065409 -0.750292 0.334038 -0.473310 0.042558 -0.340281 -0.338027 -0.160095 0.255352 0.534050 -0.115941 -0.169482 0.287060 0.291377 -0.107008 0.412803 0.191891 0.233490 0.060865 0.601691 0.378236 0.059851 -0.176752 0.216281
us 0.023074 -0.589674 -0.273758 -0.288101 -0.627599 -0.672549 0.180460 0.132330 -0.247379 0.246850 0.417857 -0.094955 0.030201 -0.258064 -0.376739 0.065435 -0.400697 -0.082721 1.066442 0.384500 0.472219 0.187645 0.139527 0.490105 0.111394 -0.169858 -0.165625 -0.493592 -0.449015 -0.155713 0.238630 0.117286 0.657863 0.057365 -0.903671 0.083841 0.185001 -0.079613 -0.319301 0.382224 -0.198040 0.483500 -0.070269 0.082257 -0.336352 0.431979 -0.245151 -0.130404 0.331731 0.363825
Reported_Minimum_3_value -0.165890 -0.330785 0.221904 -0.529597 -0.125149 -0.067338 -0.220246 0.014869 0.292236 0.304307 0.552015 0.018590 0.171835 -0.092792 -0.331904 0.054099 -0.118334 0.284932 0.170193 -0.006402 -0.810063 0.289661 0.007845 -0.484086 0.086638 0.649739 -0.130526 0.665715 0.420121 0.482340 -0.409467 -0.483440 0.199967 -0.148293 -0.471191 0.415042 0.211775 0.345086 0.786189 0.038594 -0.469839 0.339981 -0.005823 -0.213991 -0.342472 -0.554161 -0.034578 -0.298671 -0.216515 0.162454
patrol 0.441323 -0.131924 0.253178 -0.011105 -0.476312 0.376762 -0.742390 0.329922 -0.308643 0.333979 -0.281869 -0.022930 -0.110312 -0.168398 0.061453 0.309456 0.576442 -0.293876 0.884990 0.214425 0.167006 0.381009 0.569014 0.677238 -0.056451 0.287907 0.315931 0.000649 0.471286 0.148800 -0.300038 0.327116 0.417230 0.232933 0.059817 0.368806 0.202143 -0.472850 0.164442 0.034087 -0.225424 0.589051 0.558681 -0.032313 0.165670 -0.469433 -0.207263 0.418693 -0.038202 0.169136
west -0.098122 -0.087218 0.031728 0.139471 0.050784 0.170429 -0.246927 0.621248 -0.025505 0.221099 0.007956 -0.444512 -0.021403 -0.168518 0.038726 0.015515 0.075095 -0.253318 -0.138646 -0.454559 0.158282 -0.011086 -0.005600 -0.071455 0.085922 -0.252549 0.452627 -0.070567 0.088684 0.060030 -0.009060 -0.002268 0.248828 0.058158 -0.456213 0.478007 -0.037053 -0.291484 -0.081126 -0.174701 0.054665 0.038347 -0.042388 -0.021142 -0.151430 -0.278592 0.089671 -0.333777 -0.104934 0.178535
' 0.136498 -0.420722 -0.269149 -0.149556 -0.478635 -0.251242 0.003631 0.011186 0.160053 0.226108 0.026741 0.080785 0.044002 0.394515 -0.137782 0.359376 0.155996 -0.190509 0.204699 0.117802 0.056191 -0.051072 0.202281 0.080937 0.266312 0.082829 -0.238041 -0.590031 0.104941 -0.103657 0.072619 -0.078527 -0.093977 0.308519 -0.148077 -0.146340 -0.076084 -0.134085 0.093405 -0.094860 -0.101188 -0.054282 0.377954 -0.169477 -0.091622 0.331498 0.267510 -0.060350 -0.288714 0.338456
area 0.049777 0.038254 -0.328764 -0.029714 -0.221550 0.111926 -0.385488 0.177680 -0.168604 0.007296 -0.127331 -0.337998 0.223688 -0.218659 0.087780 -0.028323 0.334903 0.089857 0.378495 -0.196728 0.033980 0.006738 -0.224314 0.232597 -0.252787 -0.140911 0.194899 0.208441 0.020802 0.053852 -0.018559 -0.147451 0.045423 0.188704 -0.126276 -0.010044 0.329734 -0.235054 0.273945 0.128863 -0.198384 0.464454 -0.242425 0.478195 -0.193232 0.032795 0.058921 -0.220567 0.061674 0.139820
east -0.159356 -0.139294 0.117145 0.065702 0.113751 0.104336 -0.312621 0.677796 -0.051691 0.104286 0.103664 -0.373852 0.001473 -0.153373 0.130947 -0.039297 0.086949 -0.327409 -0.271808 -0.405756 0.119306 0.037205 -0.147306 -0.177001 0.183523 -0.391542 0.470038 -0.072108 0.050905 0.126666 0.066099 -0.078002 0.242058 0.044589 -0.367488 0.596346 -0.050609 -0.316706 -0.075690 -0.341035 0.173726 0.250720 0.130688 -0.080745 -0.095348 -0.133321 0.145872 -0.272998 -0.275287 0.087294
to -0.257516 -0.059513 0.029438 -0.113094 -0.307539 -0.695342 0.003062 0.762592 -0.291043 0.091601 0.280916 -0.376860 -0.178921 0.238999 -0.211054 0.192028 0.308145 -0.434740 0.025097 0.189989 -0.365587 0.231220 0.180735 0.511049 0.050256 -0.433109 0.212859 -0.806397 0.254306 -0.066528 -0.089367 0.231486 -0.263198 0.316138 -0.231975 0.381646 0.100418 0.412553 0.502632 -0.320936 -0.306677 -0.095021 0.299935 -0.391801 0.133059 0.471175 0.376705 -0.133744 -0.223100 0.290868
south -0.068162 0.078469 0.211910 0.107465 -0.055552 0.289039 0.015571 0.802986 0.250562 0.332686 0.069729 -0.427059 -0.172025 -0.313330 0.034119 -0.221161 0.265345 -0.074954 0.098026 -0.580603 0.015144 -0.034059 -0.005604 -0.194373 0.096259 -0.132919 0.658551 -0.198752 0.100485 -0.117401 -0.039596 0.099503 0.157830 -0.075746 -0.418702 0.549205 -0.091629 -0.200118 0.135780 0.082495 0.061113 0.195791 -0.138615 -0.114590 -0.088246 -0.083087 0.122238 -0.356595 0.023892 0.330635
shoot 0.052282 0.048802 -0.181122 -0.113390 0.093240 0.261591 -0.459142 0.009960 0.485479 -0.455165 0.018523 -0.475747 0.498135 -0.425253 -0.096525 0.452510 0.726928 -0.053523 0.082088 -0.674135 -0.785028 0.628918 -0.075654 0.287091 -0.313719 1.009461 0.392742 -0.332017 -1.359612 -0.676206 0.152492 0.517344 -0.632259 -0.153029 -0.758570 0.177724 -0.248678 -0.515028 0.200839 -0.087886 0.098136 1.103978 0.031921 -0.183344 -0.572845 0.318319 -0.430628 -0.147379 -0.232794 0.223807
kirkuk 0.035362 -0.324055 0.118142 -0.313080 -0.002964 0.090150 0.029069 -0.197852 -0.040499 0.307138 -0.038462 0.057410 -0.042036 -0.493752 -0.199568 -0.357088 -0.098603 -0.059622 -0.174408 0.227498 0.205415 -0.255181 0.084611 0.059349 -0.057316 0.295537 0.188514 -0.265465 -0.064821 -0.473189 0.084997 -0.027204 0.234659 0.157890 -0.018281 -0.332610 0.201859 0.074357 0.231424 -0.038005 0.352018 -0.008339 0.260722 -0.017684 -0.193057 -0.121362 -0.034496 -0.168203 -0.197195 0.099723
drive-bi 0.425741 0.703751 0.239328 -0.431004 -0.178786 -0.018019 -0.441279 -1.039955 0.029982 0.484570 -0.586377 -0.913590 0.845479 -0.047663 -0.123480 -0.405059 0.896497 0.039636 0.356438 -0.517179 -0.067754 0.170275 -1.304425 0.250674 0.354257 0.649850 0.372124 0.100472 -1.176715 0.028957 0.752650 -0.853874 0.115281 -0.113159 -1.039945 0.001999 0.448540 0.083425 0.200588 -0.859670 0.632617 0.144221 0.232009 -0.440146 -1.173497 0.263938 -0.269865 0.465372 -0.107121 0.102940
policeman -0.190671 0.193960 0.201280 0.015947 0.187150 0.034388 -0.219159 0.159429 -0.094393 0.666421 -0.132896 -0.118109 0.451148 0.005874 0.134741 0.210863 0.275038 0.038376 -0.109832 -0.048902 0.139196 -0.479731 0.106031 0.140785 -0.262251 0.037971 -0.180174 -0.288342 -0.233741 0.040875 -0.106746 0.279823 -0.112597 0.255860 -0.635993 -0.019018 -0.167737 0.039624 -0.100175 -0.398314 0.110968 0.571434 -0.479399 0.051763 0.162958 0.253097 -0.270708 -0.226369 0.041826 -0.260836
north -0.177166 -0.023206 0.228256 0.095688 0.109497 0.117879 0.017062 0.829083 0.147295 0.285137 -0.067934 -0.452510 -0.073739 -0.269423 -0.117633 -0.250292 0.269825 -0.117811 0.152758 -0.436604 0.252192 -0.002265 -0.024972 -0.295910 0.116772 -0.157710 0.535033 -0.222487 0.183663 -0.028910 -0.125348 -0.036226 0.149604 0.026125 -0.307492 0.400103 -0.072183 -0.323503 0.104804 -0.013295 0.068212 0.205567 -0.019757 -0.155339 -0.257171 0.060390 0.124017 -0.298255 -0.102615 0.278242
baquba 0.250346 -0.496799 0.105568 -0.210631 0.008900 0.019196 0.139007 -0.163699 -0.096093 0.089492 -0.029073 0.166416 -0.107731 -0.155163 0.028512 -0.263395 -0.089068 -0.026855 -0.161247 0.407037 0.196563 -0.194333 -0.140543 0.073104 0.188022 0.287220 0.176768 -0.125952 -0.207512 -0.408355 0.118348 -0.226591 0.277281 0.084788 0.171877 -0.370838 0.044229 0.058132 0.307726 0.202340 0.464768 0.066617 0.581333 0.240763 -0.447250 -0.304057 -0.021777 -0.055766 -0.157466 0.043478
man -0.296227 0.002554 0.085055 -0.116091 0.128103 -0.156520 -0.030691 0.112222 0.247088 0.618777 0.023945 -0.317890 0.353397 0.262391 0.061559 0.306621 0.291293 0.381503 0.026435 -0.108354 -0.048055 -0.222063 0.275752 0.128998 -0.141947 -0.239167 -0.013908 -0.155425 0.264425 -0.030268 -0.308194 0.312732 0.170997 0.330150 -0.329095 0.366503 -0.111390 0.083762 0.127534 -0.177587 -0.052625 0.269707 0.012609 -0.017568 0.149694 0.688071 -0.019950 0.328976 0.375543 -0.337638
Reported_Minimum_4_value 0.223007 -0.630508 -0.255562 -0.226572 0.027182 0.324776 0.042375 -0.336943 0.135006 0.239335 0.426616 0.496375 -0.302978 0.611045 0.058102 -0.554563 0.022500 -0.091414 0.153298 0.345575 -0.330166 0.569435 -0.204225 -0.052245 0.273848 0.198285 0.031303 0.801974 0.231773 0.300574 -0.323519 -0.131933 0.120152 0.268330 -0.519911 0.247782 -0.147236 -0.325708 -0.064230 -0.257969 -0.156163 -0.045381 -0.341978 0.003923 -0.157078 -0.300214 0.289931 -0.448964 -0.583619 0.066565
iraqi 0.258666 -0.290325 -0.086884 -0.187682 -0.315400 -0.199725 0.121133 0.208965 0.639437 0.542812 -0.357549 -0.042554 -0.099262 -0.308338 -0.461235 0.203296 -0.162097 -0.169914 0.627800 0.384540 0.321678 0.197480 0.034623 0.211997 0.078974 0.082192 -0.222248 -0.477574 0.000501 0.120273 0.251047 -0.291693 0.473445 0.356316 -0.140437 -0.124456 0.533383 -0.064446 -0.275014 0.067198 -0.214651 0.169457 -0.028121 -0.033437 -0.057745 0.089021 -0.091493 0.240773 -0.056106 0.011742
home 0.368504 -0.102200 0.116204 0.212284 -0.075948 -0.523464 -0.322827 0.071775 0.129296 -0.010887 0.202402 -0.251785 -0.041199 0.693510 0.174924 0.318732 0.512211 -0.133682 -0.721806 -0.367159 -0.266538 -0.537273 0.229727 0.376304 0.156484 0.168760 -0.091362 -0.187932 0.283411 0.047834 -0.318518 -0.180998 0.395539 0.502122 0.175411 -0.196131 -0.561709 0.142749 -0.167820 0.576903 -0.160757 0.346031 0.102864 0.092892 -0.010704 0.403030 -0.059384 -0.181059 0.410283 -0.436081
checkpoint 0.417929 -0.312401 0.189364 -0.134750 -0.180162 0.231670 -0.506648 -0.129557 -0.395176 0.538126 -0.039146 -0.025419 -0.137276 -0.044444 -0.208736 0.310243 0.668563 -0.340824 0.559992 0.311417 0.030554 0.225356 0.446431 0.651964 0.124779 0.140767 0.331248 0.116438 0.351914 0.261528 -0.384657 0.333945 0.630003 0.240076 0.151484 0.274761 0.378684 -0.309538 0.239308 -0.063919 -0.194838 0.557138 0.475650 0.201050 0.315991 -0.439332 -0.117331 0.501467 0.014143 0.111489
central -0.002662 0.001582 0.118960 0.277611 -0.066117 0.323096 -0.179836 0.327201 -0.254101 0.468414 -0.056079 -0.149504 0.303521 -0.051181 0.065831 0.197930 0.011081 -0.260328 -0.021063 0.035039 0.025979 0.043078 -0.408941 0.077499 0.161896 -0.025562 0.197739 -0.225574 -0.105509 -0.093563 0.057296 0.112546 0.123680 -0.027109 -0.257003 0.417875 0.116578 0.017538 0.064107 -0.299291 0.379588 0.377426 -0.224342 -0.102473 -0.224913 -0.316292 0.062961 -0.186233 -0.126503 0.200974
suicid -0.465861 -0.670283 -0.422654 -0.060310 0.161141 -0.078329 0.304350 -0.027419 -0.552897 -0.673250 0.990461 -0.127098 -0.048362 0.190992 0.474946 -0.310838 0.168545 0.645607 -0.301660 0.286168 -0.954573 0.787787 -0.900712 0.467655 0.465907 1.348007 1.264221 -0.262391 -0.234071 -0.642460 0.772031 0.063310 -0.338921 0.447691 0.010304 -0.234761 0.555175 -0.006696 -0.411480 -0.548152 -0.133091 0.255193 0.778811 -0.220976 -0.126306 0.253411 0.724186 -0.584752 0.105929 0.401864
by 0.147880 -0.211938 -0.164901 -0.155572 -0.135757 -0.442365 -0.144744 0.086802 0.372980 0.102289 -0.447837 -0.045476 0.478537 0.225309 -0.010182 0.256013 -0.240556 -0.098192 0.586243 0.049329 0.043713 0.490102 -0.231957 0.785709 0.063253 -0.045883 0.123139 -0.319982 0.254446 -0.048472 -0.361613 -0.145982 0.203532 0.214447 -0.438750 0.369213 -0.099252 -0.048561 0.070760 0.194310 -0.354654 -0.108729 0.728352 -0.402222 0.282179 -0.173536 0.167572 0.109629 -0.000820 0.145902
hi -0.001927 -0.167575 -0.143480 0.344992 -0.016018 -0.616549 -0.443442 0.024622 0.425101 -0.166065 0.281981 -0.005178 0.420924 0.661838 -0.152879 -0.232913 0.199986 0.072719 -0.587949 0.060002 -0.082301 -0.198490 0.245108 -0.036645 0.178771 -0.116457 -0.037784 -0.610795 0.261511 -0.076153 -0.529446 0.234029 -0.110787 0.673441 0.188408 -0.388284 -0.850014 0.456192 0.043591 0.270611 0.386753 0.098759 0.162986 0.073965 0.538902 0.263456 0.198507 -0.190488 0.122075 -0.078660
vehicl 0.064469 -0.151331 -0.241417 -0.417050 -0.888682 -0.281665 -0.453406 -0.113013 -0.219571 -0.279654 -0.374777 -0.540030 0.130968 -0.323223 -0.334015 0.497712 0.550640 -0.280308 0.587326 -0.174423 0.394610 0.041782 0.287210 0.601974 -0.174241 -0.068508 0.550881 -0.237562 0.547040 -0.198617 0.027440 0.806492 0.189285 0.220798 -0.494760 0.531193 -0.199373 -0.041589 0.253855 0.226702 -0.072843 0.162425 -0.030227 0.250475 -0.105040 -0.156108 0.015053 0.561592 0.200856 0.379678
at 0.094784 -0.282737 -0.222540 -0.085441 -0.397575 -0.267730 0.136757 0.385920 -0.005105 0.495066 -0.043802 -0.238531 -0.398395 0.059126 0.047679 0.504740 0.184186 -0.160098 0.050574 0.281270 -0.227098 0.198571 0.209278 0.260281 -0.254768 -0.392357 0.170747 -0.579506 0.255200 0.181809 -0.135906 0.350347 -0.208245 0.188580 0.125097 0.072310 0.280062 0.320671 0.393968 -0.171118 -0.061474 -0.363789 0.309188 -0.222254 -0.177215 0.271313 0.455890 -0.131832 -0.303255 0.665549
mortar 0.013176 -0.042750 -0.029648 -0.039430 -0.692255 0.295492 0.519329 0.602568 -0.848496 -0.163992 -0.069926 0.412671 0.404875 0.288436 -0.214872 0.311984 0.161119 -0.229202 0.429446 0.442907 -0.804758 0.057810 -0.847314 -0.128732 0.547054 0.278162 0.877196 -0.030956 0.532468 -0.008057 -0.062989 -1.038961 0.006187 -0.283575 -0.247147 -0.288961 -0.262618 -0.714565 0.226610 -0.243999 0.118554 -0.071759 -0.024056 -0.669780 -0.682690 0.197780 -0.110803 0.280173 0.818534 0.228529
member 0.635260 0.539505 0.057169 -0.216316 0.249817 -0.268550 -0.165129 0.210992 0.685289 0.931376 0.207341 0.119451 -0.239258 -0.035313 -0.320217 0.200389 0.562783 -0.386023 -0.094536 0.287487 0.113738 -0.639594 0.029341 -0.331184 -0.002750 0.163131 -0.122579 -0.402348 -0.582656 0.446760 0.188237 0.067415 0.213502 0.301327 -0.210423 -0.372492 -0.107195 0.063114 0.209567 -0.185571 -0.368855 -0.198081 0.446621 0.404726 0.614305 -0.013642 0.228710 -0.149672 0.187263 0.136103
or 0.068800 -0.343935 -0.249926 0.144671 -0.072849 -0.102863 0.103510 0.100169 -0.130841 0.143919 -0.027323 0.082471 -0.080428 0.099599 -0.161849 0.108909 -0.096542 -0.123832 0.048699 0.142287 -0.013676 0.082504 -0.170423 -0.039468 0.173665 0.289820 0.203328 -0.163086 0.270566 0.099267 0.065099 -0.211897 -0.121880 -0.016664 -0.186094 0.103449 0.360726 -0.120048 0.100355 -0.015246 0.155297 0.180377 0.273970 -0.194450 -0.025446 -0.204077 0.033393 0.036873 -0.065614 -0.007390
between -0.272895 -0.680879 -0.092062 0.103080 -0.330448 0.293284 -0.175325 0.800427 0.341535 0.020355 -0.362967 0.383436 0.257032 -0.668562 -0.411159 0.026090 -0.000312 -0.528606 1.242836 0.028098 0.087327 0.670950 -0.100786 -0.477964 0.784892 0.605594 -0.235798 -0.537555 -0.053769 0.105566 0.095810 -0.218355 -0.187648 0.695264 -0.311144 -0.226532 0.125899 -0.355720 -0.144594 -0.450401 0.048088 0.305182 -0.218680 0.109577 -0.028473 -0.306697 -0.024327 0.027754 0.305742 -0.510902
hous 0.521984 -0.205374 -0.133320 0.055186 0.008006 -0.108513 -0.334798 0.241944 -0.344416 0.024358 -0.225861 -0.186002 -0.134190 0.550424 0.132748 0.142878 0.536490 -0.068056 -0.197977 -0.056850 -0.317927 -0.353200 0.137527 0.535330 -0.138046 0.334585 0.007275 0.070357 0.607983 0.098938 -0.056523 -0.148033 0.532843 0.142186 -0.265786 -0.078120 -0.197212 -0.291845 -0.280760 0.539583 -0.207470 0.472015 0.223118 -0.201507 -0.000107 0.293341 -0.052365 0.084744 0.797507 -0.217829
head 0.148996 0.237605 0.292827 -0.084157 0.168311 -0.736203 -0.022378 0.501790 0.418579 -0.517170 -0.129643 0.252057 0.183790 0.672612 0.285811 0.320381 0.609721 -0.004008 0.382293 0.532781 -0.258025 -0.429792 0.062666 -0.177750 0.032464 -0.225012 -0.064147 -0.566070 -0.125213 -0.526172 -0.212659 -0.155853 -0.381110 0.783470 0.693503 0.076178 -0.536878 -0.379546 0.063122 0.290196 -0.264024 -0.051048 -0.317585 0.021477 0.118708 0.703313 0.446438 -0.122099 0.009295 0.206357
hit 0.154439 -0.335089 -0.470645 0.012509 -0.502481 0.339335 -0.178120 -0.120917 -0.107122 -0.105060 0.021570 -0.111092 0.145681 0.060575 0.165216 0.076981 -0.189387 0.276792 0.033163 -0.053625 -0.192374 -0.085074 0.282165 0.559950 0.129751 0.131447 0.594998 -0.511745 0.669839 0.085255 -0.249462 0.076148 0.588291 0.411092 -0.171002 -0.069775 -0.340403 0.215342 0.137927 -0.028044 -0.121151 0.241991 0.167616 -0.056125 0.197633 0.111962 -0.139379 0.008357 0.543207 0.323002
- -0.037451 -0.162587 -0.112741 -0.205559 -0.162264 -0.254336 0.054615 0.191425 0.040168 0.100325 0.154484 -0.274208 0.225219 0.122368 -0.032835 0.332059 0.089633 0.205079 0.118211 -0.001519 -0.191566 0.118487 -0.226655 0.141591 0.591449 0.115440 0.044927 -0.237066 -0.384438 -0.045249 0.202557 -0.195155 0.324332 0.164290 -0.526100 -0.068901 -0.291574 -0.535650 -0.346073 -0.032665 -0.187961 0.014346 -0.065062 -0.039782 -0.171487 0.029466 0.136152 -0.285661 -0.006783 0.131871
driver 0.065614 0.019586 -0.458145 -0.188674 -0.195720 -0.044804 0.001959 0.030714 -0.140458 0.226221 -0.105151 -0.527098 0.396362 0.297955 0.236005 -0.294556 0.043284 -0.053323 0.402961 0.673746 0.261681 -0.279661 0.895384 0.559459 -0.351537 0.046491 0.271272 -0.311615 0.432328 0.342567 0.145333 -0.002430 0.138297 0.380354 -0.358994 -0.210891 -0.232898 0.440740 0.258969 -0.268725 -0.186922 0.061474 0.304135 0.044137 0.385365 0.112772 0.099671 -0.052358 0.143071 0.745281
market -0.006143 -0.089030 -0.053675 0.215591 -0.074721 0.059896 -0.414177 0.062737 -0.708998 -0.044393 -0.214694 0.310384 -0.063451 0.468222 0.270065 0.306499 0.679758 0.131615 -0.345699 0.257562 -0.243387 0.090454 -0.341806 -0.147126 0.088097 0.150339 -0.063336 0.258371 0.304048 -0.324945 0.551637 -0.262660 0.138725 0.377983 0.090062 0.249394 -0.071945 0.395966 0.257421 -0.223276 0.543005 0.531208 0.007594 0.435753 -0.451342 -0.076848 0.272464 0.120994 0.025320 0.396683
council 0.805092 0.451425 -0.347221 -0.071734 0.215085 -0.154196 0.315510 0.074220 0.887876 0.528538 0.698807 0.044528 -0.208027 -0.107484 -0.745820 0.373368 0.015939 -0.321816 -0.197022 0.189236 -0.141688 -0.494670 0.022190 0.079857 -0.050991 0.559908 0.536701 -0.369410 -0.603918 0.181928 -0.167407 0.084963 0.077026 0.426160 0.047670 -0.075109 0.532275 0.088799 -0.048503 -0.179199 0.050594 -0.088311 -0.284689 0.499122 0.401315 -0.023624 -0.235265 0.213996 0.480795 0.450591
street 0.220459 0.072120 -0.589465 -0.086275 -0.176514 0.251672 -0.741081 -0.068852 -0.557771 -0.417624 0.131424 0.107551 0.100254 -0.174890 0.262811 -0.006568 0.369126 0.072073 -0.230637 0.141643 -0.218358 -0.076383 -0.110384 -0.101755 -0.061106 -0.134582 0.078413 0.117058 -0.070258 0.093187 0.229322 -0.396664 0.320470 0.164185 0.236666 0.106875 -0.091053 -0.072350 -0.054098 -0.485673 -0.012488 0.423447 0.069755 0.272703 0.113303 0.076782 0.011470 -0.008925 0.079881 -0.058897
basrah -0.611770 0.084733 -0.829176 0.298590 -0.453443 -0.049863 -0.038506 0.030803 0.270175 -0.159093 -0.090671 -0.409653 -0.031694 -0.322611 -0.124891 -0.016262 -0.002696 -0.055329 -0.204762 -0.419855 0.241509 -0.988010 -0.037569 0.125708 -0.583345 -0.545395 0.238146 0.146769 -0.150072 -0.133467 -0.008689 -0.218474 -0.316714 0.304458 -0.113786 -0.283709 0.409296 -0.343962 0.505913 0.013489 0.097029 -0.221470 0.351840 0.300430 -0.507910 0.008992 0.510596 -0.074112 -0.907338 -0.215016
armi 0.369430 -0.238170 -0.398101 -0.020328 -0.410235 -0.158956 -0.190025 0.437588 0.141926 0.390971 0.178522 0.477476 0.238714 -0.467974 -0.001401 0.546140 -0.636069 -0.883406 0.379442 0.908610 0.213951 -0.141479 0.019093 0.054993 0.088863 0.173343 -0.417573 -0.400100 -0.151860 0.317998 -0.215762 -0.308286 0.462368 0.064611 -0.097515 0.002026 0.071755 -0.354886 -0.292940 -0.023134 0.273865 0.133165 -0.091420 -0.329863 -0.002734 -0.178297 -0.411231 0.112614 0.057009 0.157245
basra -0.270286 -0.150088 -0.620820 0.074197 -0.171208 0.062613 -0.011689 -0.012880 0.086892 0.136900 -0.231091 -0.012959 -0.136172 -0.206590 -0.281794 -0.179597 0.169386 0.021252 -0.051499 -0.208412 0.309079 -0.338161 -0.124198 -0.167990 -0.251802 -0.093203 -0.015675 -0.097792 -0.066678 -0.354247 0.187977 -0.341519 -0.105595 0.159485 0.050247 -0.416818 0.235466 -0.107373 0.336497 0.128514 0.274642 0.009832 0.272170 0.314357 -0.507335 -0.107719 0.482010 -0.218050 -0.701985 -0.011805
Reported_Minimum_5_value 0.158934 -0.581940 -0.436473 -0.190115 0.011780 0.257531 0.137982 -0.224218 0.149568 0.230723 0.473692 0.449139 -0.408422 0.611157 0.137615 -0.493270 0.042980 0.053731 0.212504 0.291517 -0.250450 0.631565 -0.294590 -0.120771 0.275081 0.194317 0.157837 0.750090 0.348153 0.271630 -0.363440 -0.154884 0.263692 0.357143 -0.522131 0.294572 -0.180813 -0.312332 -0.151955 -0.184804 -0.184935 0.065820 -0.382239 0.042168 -0.140234 -0.157589 0.276142 -0.554979 -0.512701 0.143874
district -0.060397 0.073733 -0.094847 -0.005026 -0.102553 0.197548 -0.357410 0.350623 -0.164359 0.119246 0.028859 -0.142045 0.023131 -0.219601 0.040737 0.170974 0.202806 -0.098469 0.019494 -0.233054 0.069613 -0.010604 -0.163683 -0.018345 -0.194434 -0.026239 -0.009421 0.263588 -0.265125 -0.063110 0.037151 -0.307276 0.201777 0.027817 -0.316470 -0.046682 -0.078991 -0.227094 0.094298 -0.049499 -0.095397 0.457169 -0.213032 0.380456 -0.237032 -0.084552 -0.135486 -0.321045 -0.172308 0.143375
station 0.128005 -0.449440 0.131262 0.324462 -0.277179 0.311519 -0.105496 0.198160 -0.499633 0.678744 -0.116313 0.226851 -0.443225 0.015044 -0.012716 0.340275 0.594450 0.003370 0.179680 -0.001645 0.063194 0.003997 0.256979 0.181661 0.248968 -0.085250 0.226225 0.101421 0.500382 0.109182 -0.187760 -0.121981 0.301499 0.156475 0.378300 0.050602 0.561663 -0.195993 0.353899 0.037856 0.067621 0.480416 0.042558 0.426118 -0.031381 -0.505988 -0.253104 -0.075417 -0.001490 0.213049
citi -0.022960 -0.329928 -0.459644 0.215674 -0.311251 0.094420 -0.503456 0.384864 -0.183286 -0.267342 -0.329982 -0.244126 -0.117076 -0.156178 -0.689968 0.443980 0.131838 0.523707 0.123515 0.058624 0.293964 -0.130875 0.048881 -0.280037 -0.177570 -0.110180 0.204889 0.179036 -0.426196 0.467121 0.208061 -0.734196 -0.009318 -0.269435 0.799500 -0.023788 -0.113438 -0.254843 0.057540 -0.407999 -0.684046 -0.046732 0.528681 0.703142 -0.133477 0.286547 1.001788 -0.409365 0.023349 0.257542
on 0.170077 -0.233124 -0.033627 -0.343173 -0.572226 -0.289192 -0.297351 0.080931 0.207070 -0.081616 -0.082840 -0.100896 -0.166353 0.051851 0.118703 0.340299 0.234544 0.151685 -0.018097 -0.007176 -0.318036 0.026776 -0.090935 0.681073 -0.011314 0.029103 0.118906 -0.567045 0.168724 -0.017583 0.011507 0.170191 -0.184686 0.459659 -0.115366 0.094008 -0.177816 0.197547 0.278166 -0.299771 0.064285 0.056087 0.155117 -0.351963 -0.145629 0.258053 0.147703 -0.257006 0.183710 0.281428
from -0.119916 -0.239331 -0.206815 -0.155226 -0.331692 -0.269112 -0.077967 -0.098107 0.146690 0.173566 0.120630 -0.276775 0.031306 0.435218 -0.175478 0.419473 0.213405 -0.220021 0.094603 -0.041998 -0.198761 0.185007 -0.197720 0.509781 0.090368 0.007593 0.063665 -0.200902 -0.027769 0.167854 -0.130830 0.012971 -0.218551 0.215868 -0.006560 -0.257604 -0.157651 0.151595 0.179194 -0.153348 -0.219119 -0.179348 0.123595 -0.156187 0.125944 0.181836 0.311561 -0.307369 -0.073400 0.063536
convoy 0.338993 -0.133388 -0.160217 -0.223174 -0.226689 0.053829 -0.398757 0.277782 -0.102763 0.292872 -0.201070 -0.108138 -0.058763 -0.112282 -0.205385 0.251043 0.436130 -0.275607 0.521622 0.227650 0.184264 0.318752 0.512839 0.364059 0.046704 0.203975 0.342243 0.027994 0.570075 0.033786 0.056627 0.224795 0.276083 -0.141221 -0.288369 0.181705 0.000649 -0.247852 -0.033157 0.201314 -0.141783 0.092451 0.547884 -0.124857 0.204600 -0.078435 -0.189056 0.320033 0.047276 0.374086
forc -0.226759 -0.386591 -0.533198 -0.434436 -0.450924 -0.024944 -0.179402 0.525626 0.554646 0.049430 -0.337621 0.338943 0.135216 -0.182611 -0.545414 0.275053 -0.282299 -0.248606 0.977589 0.237696 -0.080709 0.310121 0.068296 0.203543 0.308689 0.066056 -0.647976 -0.403128 0.487812 -0.003302 0.079214 -0.238993 0.358021 0.346675 -0.259228 -0.377344 -0.243473 -0.281578 -0.421653 0.198056 0.009811 -0.255693 0.216867 -0.510474 0.105567 0.075090 -0.086721 0.165866 0.246348 -0.116462
two -0.093502 -0.268739 0.016275 0.077837 -0.029306 -0.016354 0.004988 0.273304 0.361331 0.236817 -0.046911 -0.339753 0.262084 0.340378 -0.000404 0.171808 0.032864 0.094851 -0.183925 0.055421 -0.225540 0.016352 0.512023 0.153550 0.390185 0.266241 -0.135039 -0.358869 0.363125 -0.042989 -0.169310 0.361576 0.183532 0.486555 -0.209051 -0.147280 -0.172669 -0.002220 0.159869 0.303531 -0.328362 -0.228157 0.226599 0.145674 0.087133 -0.140704 0.469737 0.062499 0.031980 -0.129219
with -0.025619 0.198869 -0.108357 -0.237351 -0.839102 -0.448094 -0.147309 -0.171990 0.537492 -0.363739 -0.408219 0.038526 0.362501 -0.038921 -0.608849 0.034328 0.359586 -0.110043 0.386158 0.236966 0.012863 -0.083656 0.008004 0.187820 0.375112 -0.233613 -0.087254 -0.528917 0.265996 -0.330241 0.151148 0.264277 -0.118126 0.524582 -0.620612 0.158679 -0.158813 0.056389 -0.059744 -0.222518 -0.134464 -0.223143 0.278609 -0.608891 -0.162696 0.194521 0.599862 0.137195 -0.356622 0.352394
mosqu -0.033913 -0.145813 -0.441192 0.423762 -0.070716 -0.113349 0.157546 0.414543 -0.376597 0.372102 0.184972 0.055507 -0.193193 0.351884 -0.126964 0.245172 0.551193 -0.046748 -0.256434 -0.163964 -0.268997 -0.113077 0.011786 -0.128456 -0.127755 0.128299 0.154969 0.439627 0.226966 -0.179070 0.086662 -0.109854 0.046515 0.118102 0.058330 -0.286893 0.082458 0.349884 0.183987 0.026162 0.105718 0.055145 -0.095956 0.543188 -0.214983 0.301637 -0.062628 -0.087850 0.200022 0.071397
explos -0.087045 -0.123061 0.083850 -0.040857 -0.775330 -0.039717 -0.328607 -0.216052 -0.275473 -0.002069 0.167272 -0.122811 0.090194 -0.070697 -0.114614 0.218884 0.880829 1.120686 0.253092 -0.486121 0.321002 -0.274350 -0.532690 0.160361 0.224366 0.087737 0.799751 -0.600804 -0.027505 0.043922 -0.188406 0.424746 -0.386556 -0.170852 0.002667 0.222672 -1.062033 -0.753624 0.397756 0.237146 0.329545 -0.030538 -0.157798 -0.172651 -0.419612 -0.698753 -0.182406 -0.104494 -0.172214 0.807529
round 0.164695 -0.455239 0.200680 -0.227119 0.222830 -0.365391 0.444570 -0.042918 -1.108024 0.223814 0.042564 -0.292565 0.451971 0.300522 -0.841080 0.207948 0.512818 -0.032158 0.110323 0.039529 -0.679739 -0.010493 -0.180283 0.120426 0.980810 0.426887 0.792990 0.343377 0.318228 -0.207739 -0.113342 -0.515080 0.410580 -0.024339 -0.017711 0.020934 0.223807 -0.463892 0.406613 -0.241359 -0.286786 0.484115 0.209507 0.122160 -0.266446 0.409442 -0.007157 -0.182947 0.589776 0.067042
offic 0.210822 0.029629 0.299098 0.255786 0.076740 0.001529 -0.336199 0.084559 0.018245 0.729692 -0.291139 0.142056 -0.017408 0.091470 -0.061927 0.104962 0.425005 -0.333426 0.195995 0.316126 0.294816 -0.555611 0.100313 0.231121 0.041581 0.160430 -0.139394 -0.242140 -0.070103 0.227065 0.077931 -0.265255 0.101084 0.141273 0.229399 -0.124988 0.268858 -0.098960 -0.027941 -0.212793 -0.103204 0.324055 0.165871 0.055671 0.369357 -0.304073 -0.029948 0.061753 -0.174338 -0.071680
abu 0.184576 0.086528 -0.377310 -0.068310 -0.612371 0.140765 0.011966 -0.116587 -0.398196 -0.118315 0.178526 0.018551 -0.170170 -0.168313 -0.290910 -0.059926 0.138793 -0.270001 -0.306202 -0.556823 -0.615178 -0.521875 -0.002583 -0.104646 0.163082 0.013249 0.311623 0.349541 0.197349 -0.090649 0.190186 -0.577618 0.333873 0.066211 -0.132487 -0.038342 0.154812 -0.218140 0.129380 0.033329 -0.063957 -0.241431 -0.057498 -0.238190 -0.257952 0.076702 -0.236555 -0.153488 0.306321 -0.046994
tikrit -0.052889 -0.390019 -0.081515 -0.264165 0.005783 -0.030507 0.057949 -0.076971 -0.002611 0.182065 0.081144 0.207185 -0.102800 -0.511559 -0.015297 -0.260067 -0.075588 -0.072147 -0.007152 0.278231 0.072746 -0.028030 0.180618 0.058991 0.011239 0.173062 0.274618 -0.185416 0.022496 -0.438542 -0.135874 0.130448 0.182756 0.239462 -0.029048 -0.170384 0.025028 -0.110565 0.231890 0.116962 0.278175 -0.049927 0.239254 0.108963 -0.043124 -0.007682 -0.124072 0.131207 -0.159340 -0.070348
ali -0.167920 0.414759 -0.296887 0.404402 -0.172330 0.244251 -0.290067 0.223144 0.367808 0.421726 -0.007734 0.065482 0.272473 0.054715 -0.060450 0.118963 0.320472 -0.282753 -0.062894 -0.026974 0.272944 -0.446868 -0.027316 -0.084334 -0.406486 0.031321 0.111166 0.183290 -0.161182 0.085390 0.047403 -0.259497 -0.341233 0.072012 -0.225076 -0.250463 -0.095927 -0.013580 -0.022634 -0.046536 0.033934 -0.328123 -0.076114 0.210018 0.010473 -0.081105 0.079270 -0.105820 -0.379750 0.124364
kidnap -0.481378 -0.034952 0.116900 -0.151511 0.216975 -0.107124 0.163455 0.467418 0.359753 0.329083 0.221380 -0.427452 0.151141 0.241065 -0.129905 0.180428 0.251125 -0.169442 0.098086 -0.241029 0.095765 0.250268 0.387208 0.210273 -0.024387 -0.128413 -0.114581 0.008189 -0.132924 -0.357256 -0.209770 0.276579 0.173651 0.367149 0.098632 -0.195526 -0.366494 -0.038789 -0.174760 0.121329 -0.345431 0.102278 0.021347 -0.074422 0.211107 0.156161 0.474799 -0.122864 -0.299012 -0.323522
ramadi -0.048461 -0.449430 -0.101141 -0.512577 -0.165624 0.007837 -0.030231 -0.078657 -0.017083 0.079853 -0.074772 0.012569 -0.075599 -0.365431 0.086045 -0.099587 0.065310 0.125273 0.261111 0.209292 0.208491 0.028410 0.149287 0.263369 0.028066 -0.079341 0.229651 -0.081268 0.006381 -0.375238 -0.096850 0.163846 0.198245 0.113011 0.045527 -0.171264 -0.103621 -0.114003 0.278977 0.152832 0.349009 -0.172449 0.360369 0.111853 -0.219918 -0.055662 0.005954 0.081394 -0.247558 0.228084
an 0.042271 -0.268867 -0.276234 -0.113839 -0.476960 -0.672812 -0.196601 0.136507 0.387367 0.056589 0.004903 -0.333019 -0.006303 -0.023587 -0.105823 -0.083636 -0.133892 -0.180281 0.231529 0.358591 0.190026 0.053578 0.282453 0.503106 -0.291412 0.034822 0.020163 -0.074224 0.229768 -0.127754 -0.072717 -0.036871 0.287685 0.264751 -0.180203 0.318074 -0.379503 -0.265209 0.096465 0.188548 -0.152453 -0.112141 0.234754 -0.462303 0.002101 0.073670 0.068479 0.241271 -0.188296 0.280152
magnet -0.006115 -0.573119 -0.369475 -0.624732 0.592739 -0.855976 0.158591 -0.235521 -0.714922 -0.433064 0.365114 -0.270544 -0.675018 -0.470171 0.116029 -0.443201 0.580177 0.408531 -0.072883 1.156864 -1.061211 -0.135291 -0.954559 0.728089 0.749502 0.368532 0.463463 -0.050915 0.482865 -0.232567 0.588212 0.240044 -0.023879 0.048941 -0.173511 0.306868 1.037734 -0.255420 -0.163234 -0.631065 -0.551390 1.003895 0.003934 -0.410334 -0.128759 0.304888 -0.067609 0.269152 -0.127725 -0.708276
falluja 0.076077 -0.353357 0.066511 -0.492170 0.195054 0.002982 0.043221 -0.279785 0.146486 0.241042 0.003460 0.187556 0.028748 -0.323904 0.152413 -0.140910 -0.116569 0.189634 -0.303518 0.247131 0.023330 -0.062446 0.012622 0.076132 -0.115557 0.046272 0.206211 0.089254 -0.358400 -0.596830 -0.103275 -0.099243 0.366031 0.182688 0.001544 -0.059509 0.023625 0.059702 0.225378 0.257637 0.398569 -0.066847 0.344901 0.156651 -0.092664 -0.043485 0.049066 0.123725 -0.313453 -0.132215
shiit 0.131865 -0.147705 -0.120179 0.596971 -0.216210 0.092028 0.098712 0.521849 0.053236 0.272743 -0.214165 0.139749 -0.248947 0.390158 -0.422372 0.239900 0.328237 0.024698 -0.308847 0.047701 -0.235858 0.224125 0.070191 -0.294839 0.423075 0.094817 0.220902 0.210062 0.183700 -0.197126 0.026884 -0.531806 0.132476 -0.022188 -0.035234 -0.228337 -0.403977 0.478053 0.223245 0.254028 0.108197 -0.236846 -0.062835 0.171776 -0.180215 0.225332 0.192308 -0.129372 0.192334 0.379883
woman -0.304616 0.003261 0.243564 0.104718 0.288168 0.024929 -0.042232 0.301357 -0.058899 0.322691 -0.071777 -0.140972 0.515838 0.187796 0.125162 -0.088211 0.085046 0.141786 0.036569 0.230616 -0.015659 0.100928 0.573758 0.434492 -0.027180 -0.044887 -0.111078 -0.272193 0.258175 -0.072655 -0.251321 0.150228 0.152915 0.474928 -0.564615 0.081669 -0.278409 0.163752 -0.042412 0.017323 -0.130679 0.242725 -0.115803 -0.130528 0.115009 0.271544 -0.091457 0.296812 0.318918 -0.153522
fire 0.048029 -0.423164 -0.625205 -0.282009 -0.585862 -0.312013 -0.325347 -0.072647 -0.087920 0.081060 0.231685 -0.098640 -0.100617 -0.078745 -0.255256 0.534372 0.449227 0.048043 0.614238 -0.426094 -0.184958 0.285309 -0.004401 0.337302 0.308902 0.370579 -0.223874 -0.476734 0.259369 0.083231 0.186940 0.058496 0.263065 0.166995 -0.448698 -0.137009 -0.019441 -0.478825 0.100066 0.246214 -0.051830 0.268541 0.612568 -0.268651 -0.047577 0.433156 -0.476026 -0.096923 0.541378 0.276435
for 0.021875 -0.206092 -0.188124 -0.232894 -0.284079 -0.374961 -0.330695 0.483076 0.422597 0.477181 -0.297316 0.060473 -0.196932 -0.146582 -0.646269 0.232642 0.295520 -0.276677 0.296465 0.354993 -0.063850 0.459667 0.126532 0.249774 0.003739 -0.151619 -0.344131 -0.318187 0.229977 -0.184817 0.150966 -0.037061 -0.137608 -0.035254 -0.038821 -0.179218 -0.055060 0.433729 0.116990 -0.122023 -0.177177 -0.303742 0.462800 -0.334680 0.189208 0.436674 0.269374 -0.183533 -0.200440 0.422601
attach -0.025349 -0.476566 -0.373231 -0.568666 0.710242 -0.992200 0.309577 -0.362714 -0.829630 -0.412934 0.535904 0.676405 -0.262441 -1.207022 1.061533 -0.133739 0.059378 0.219256 -0.350540 1.363960 -0.703173 0.247011 -0.865645 -0.025332 0.269960 0.268131 0.605570 -0.569380 0.301183 -0.052305 0.378389 0.196405 -0.831880 0.176400 0.365681 0.279733 1.032917 0.067417 -0.173055 -1.203142 -0.083785 0.207220 -0.128619 -0.086081 0.015084 1.127965 -0.749364 0.192769 0.464489 -0.061323
samarra 0.056027 -0.431346 0.109800 -0.415937 -0.123975 0.005150 0.197062 -0.121293 -0.138933 0.120089 -0.152602 0.134465 -0.064569 -0.315034 -0.180551 -0.183146 -0.128595 -0.132246 0.016454 0.198883 -0.014065 -0.060820 0.068259 0.124606 0.075925 0.049018 0.306308 -0.223180 -0.037465 -0.405314 -0.141475 0.139036 0.290357 0.063510 0.029372 -0.142688 -0.040145 -0.114068 0.302640 0.048816 0.234951 -0.040932 0.323473 0.051882 -0.151331 -0.053869 -0.020092 0.143077 -0.111159 0.118371
awaken 0.515299 0.249397 -0.017182 -0.265943 0.076537 0.046658 0.129822 0.124872 0.937362 0.518359 1.092376 0.812923 -0.812095 -0.674175 -0.651449 0.557979 0.145907 -0.034243 -0.206952 0.456505 -0.240916 -0.137771 0.155387 0.115631 -0.165469 0.751082 0.068518 -0.410108 -0.834946 0.165775 0.098497 -0.052955 0.166360 0.170541 -0.073529 -0.095096 0.554393 -0.058600 -0.356482 0.382453 -0.106011 0.049670 -0.157096 0.144123 0.400450 -0.178271 -0.455807 0.067362 0.687783 -0.062685
sadr 0.213229 -0.418440 -0.746446 0.198830 -0.241401 0.382752 -0.178142 -0.013097 -0.028427 -0.301294 -0.577181 0.233471 -0.332104 0.106895 -0.133480 0.653359 -0.320456 0.431261 -0.406823 -0.705276 -0.329354 0.875971 -0.456421 0.143674 0.042231 0.142662 -0.222803 0.284940 -0.394311 -0.454049 0.026182 -0.587951 0.176381 -0.193227 0.069365 0.136419 0.177574 0.057453 0.340532 0.469577 0.054677 0.391873 -0.047595 0.861276 -0.623693 0.589175 0.486071 -0.451115 -0.272943 0.673642
truck -0.344156 -0.122050 -0.124619 -0.191905 -0.611933 -0.116342 0.081789 0.141172 -0.151798 0.099111 0.070949 -0.464039 -0.128760 -0.054731 0.259558 0.208014 0.703829 -0.125184 0.270238 0.639239 -0.002718 0.039043 0.222416 0.429760 0.010231 0.189752 0.380082 0.141591 0.470913 0.080896 0.197662 0.549409 0.111367 0.121619 -0.166946 0.262564 0.099642 -0.162742 -0.023195 0.274937 -0.271142 0.087283 -0.065377 0.027808 -0.077921 -0.082979 0.247966 0.245966 -0.207498 0.134699
clash 0.150131 -0.503225 0.015065 0.398933 0.060524 0.464973 -0.183698 0.552374 -0.006750 0.323491 -0.481508 0.337875 0.281657 -0.243554 -0.402240 -0.168916 -0.180643 0.045985 0.808113 0.501639 0.080482 0.647642 0.166940 -0.229771 0.499824 0.214794 -0.525950 -0.815856 0.066721 0.154015 -0.301365 -0.422961 0.400782 0.511062 -0.315192 -0.420535 -0.348261 -0.505895 -0.032987 0.119934 -0.028323 0.279751 -0.082123 -0.152747 -0.323704 -0.179602 -0.247224 0.390596 0.351722 -0.116236
guard 0.164087 -0.040591 -0.028461 0.083169 0.005905 0.199477 -0.174512 0.307369 0.026844 0.717795 -0.310777 0.181673 -0.104373 0.098195 -0.289355 0.035196 0.286021 -0.293075 0.215773 0.590976 0.058479 0.030703 0.519166 0.099039 -0.112781 0.152847 -0.342859 -0.208665 0.282659 0.128268 0.286008 -0.170396 0.070685 -0.105512 -0.255410 -0.416674 0.074570 0.281747 0.075954 0.117206 -0.146572 -0.106842 0.128872 -0.089759 0.187908 -0.067140 0.115398 0.054462 -0.052911 0.414851
famili 0.044568 -0.149153 -0.207816 0.462906 0.155254 -0.241036 0.046409 0.080622 -0.136746 0.313945 0.207598 -0.107935 0.076652 0.595543 0.364380 0.018205 0.307436 0.192145 -0.115361 0.071431 -0.159233 0.071650 -0.086034 -0.096056 0.096482 0.343221 0.025247 -0.126231 0.223474 0.084263 -0.107889 0.167792 0.051030 0.327694 -0.208582 -0.354234 -0.292146 0.256673 0.193055 0.081495 0.089531 0.205478 -0.134293 0.152379 -0.098778 0.367277 -0.145013 -0.331386 0.606388 0.109781
moham -0.168866 0.264806 -0.298361 0.418254 -0.006602 0.095244 -0.327363 0.277118 0.404009 0.348375 0.153518 -0.041751 0.200351 -0.053399 -0.057362 0.222911 0.167925 -0.313659 -0.233145 0.009129 0.141490 -0.376461 0.064529 -0.004691 -0.277629 -0.094639 -0.014872 0.107449 -0.319833 0.189371 0.016017 -0.161962 -0.300999 0.094616 -0.283831 -0.174581 0.062550 -0.070815 0.038124 -0.158927 -0.034427 -0.245822 -0.020162 0.394997 0.096581 -0.081124 0.087247 -0.211490 -0.356939 0.129097
km -0.173862 -0.176697 -0.073754 0.059567 -0.055913 0.132745 -0.241120 0.042201 0.715796 0.482863 0.016605 0.127488 -0.533965 -0.814443 0.366450 -0.471133 0.371780 0.668085 -0.153909 -0.278782 0.147510 0.472719 0.131030 0.053276 -0.539135 -0.000005 0.206930 0.317078 -0.271948 -0.429182 -0.568189 -0.267396 0.314141 -0.109967 0.270168 0.188217 -0.037651 -0.131990 -0.194395 -0.023440 0.173961 -0.276746 -0.484344 0.414438 -0.445963 0.778465 -0.541443 0.006560 -0.105197 0.554849
employe -0.024365 0.083382 -0.121714 0.141428 0.145263 -0.403279 -0.252582 0.288457 0.053806 0.416274 -0.259810 0.124392 -0.298666 -0.090784 -0.184243 -0.105264 0.467159 0.086096 -0.107180 0.474319 0.257342 -0.418134 0.162462 0.007729 -0.202398 -0.295915 -0.130950 -0.284067 0.234899 -0.023948 0.366465 -0.413496 -0.186028 -0.127590 0.031057 0.003422 0.267991 0.112128 0.000466 -0.100027 -0.126218 -0.022691 -0.147326 -0.005534 0.269447 0.265394 0.137655 -0.308071 -0.195560 0.863780
son 0.121560 -0.069924 -0.031103 0.260878 -0.044925 0.051710 0.019818 0.127535 0.238025 0.074334 0.038255 -0.272633 0.266088 0.526919 -0.041675 0.197810 0.117377 -0.150238 -0.334102 0.102916 -0.257864 -0.613163 0.599242 0.010292 0.117469 0.074592 0.055113 -0.345987 -0.022684 0.438940 -0.183929 0.147077 0.091661 0.780665 -0.017858 -0.655285 -0.484509 0.179827 0.074822 -0.057003 -0.264803 -0.222447 0.131147 0.312937 0.460403 0.137206 0.074235 -0.023543 0.494316 -0.155772
ministri 0.342395 -0.226759 -0.300357 0.193919 -0.087739 -0.289559 -0.178441 0.394381 -0.061153 0.153425 -0.326330 0.228147 -0.466670 -0.375686 -0.489118 -0.235661 0.270306 -0.099420 -0.367501 0.752471 -0.018964 -0.451809 0.783493 -0.124347 0.033210 -0.498543 0.093081 -0.532044 0.293473 0.106612 0.311895 -0.866519 0.053583 -0.191918 0.315659 -0.148196 0.049025 0.089226 -0.102832 -0.260227 -0.450075 -0.162319 -0.062542 0.086417 0.425082 0.355334 0.360974 -0.395196 0.076325 1.083725
murder -0.324099 -0.145575 -0.226692 0.000749 0.116662 -0.223565 0.015312 0.087068 -0.232831 0.138595 0.070524 -0.394780 0.558243 -0.364852 -0.436639 0.282143 0.684560 -0.091454 -0.100566 -0.262892 -0.112310 -0.332024 -0.453134 -0.058159 0.073162 -0.247024 0.701048 -0.087330 -0.429138 -0.416103 0.021184 0.000616 -0.142368 0.132551 -0.383581 -0.204221 0.069505 -0.595231 0.220220 -0.268128 -0.128558 0.479041 -0.026059 0.350206 -0.307665 0.431160 0.038888 0.255197 -0.016718 -0.350157
villag 0.023280 -0.141954 -0.291774 -0.066119 0.201576 -0.039578 0.062472 0.455528 0.072114 0.146274 0.182394 -0.149631 -0.075186 -0.332801 -0.126309 -0.299389 0.211845 -0.166339 0.378553 -0.166184 -0.019497 0.068227 -0.137787 -0.197594 0.024879 0.166392 0.039293 0.093872 -0.156218 -0.145252 -0.134785 -0.187428 0.284317 0.248625 -0.009934 -0.246498 -0.144228 -0.395188 0.280109 0.089143 -0.014770 0.140450 -0.191129 0.401273 -0.516159 0.114526 -0.152135 -0.137111 0.158474 -0.034275
bound -0.817628 0.087001 0.223507 -0.315515 0.287723 -0.093980 0.061647 0.511686 0.654601 -0.513857 0.263013 0.449181 0.812006 -0.109480 0.149805 0.317434 -0.196818 0.532914 0.266858 0.305826 -0.444892 0.250002 0.440423 -0.228411 0.329340 -0.261140 -0.293934 0.357417 0.245526 -0.071291 -0.158242 -0.519140 -0.012999 0.943143 -0.022539 0.578735 -0.103488 -0.242743 -0.353224 0.043073 -0.499153 -0.803960 -0.403326 0.034292 0.141126 0.428416 0.370612 0.374351 0.431751 -0.267302
hospit -0.153329 -0.008255 -0.288483 -0.055921 0.237561 -0.842365 -0.139361 0.563202 -0.265562 0.416934 -0.048341 -0.194267 -0.519690 -0.161339 -0.280617 0.301251 0.629360 -0.183800 0.171240 0.268517 -0.248046 0.083808 0.063452 0.233928 -0.082066 -0.361046 -0.097898 -0.362976 0.207408 -0.114928 -0.237484 -0.175960 -0.218606 -0.085180 0.214881 0.101556 0.251718 -0.204292 0.514630 -0.131776 -0.570150 0.194919 -0.167647 0.262131 -0.146091 0.226509 0.284197 -0.123541 -0.030150 -0.188555
one 0.170402 -0.051032 -0.274727 -0.202953 0.179199 0.018872 0.131778 0.325077 0.421549 0.042870 -0.074974 -0.421162 0.218085 0.267186 -0.089826 0.122315 -0.021423 -0.057188 0.169105 0.176531 -0.155141 -0.039295 0.839783 0.460551 0.167214 0.071473 -0.188767 -0.232092 0.210967 -0.007167 -0.282462 0.358029 0.286798 0.753948 -0.282386 -0.105331 -0.228564 -0.055879 0.284981 0.371332 -0.375962 -0.106607 0.205899 0.093368 -0.048352 -0.142224 0.530444 0.056754 -0.091302 -0.087490
sunni 0.070756 0.008649 -0.128035 0.420496 -0.107501 0.060566 0.023680 0.328597 0.149729 0.511762 0.031160 0.002507 -0.102129 0.404755 -0.428756 0.330019 0.336472 -0.085655 -0.064929 0.022233 0.018502 -0.045558 0.067113 -0.204463 -0.007837 -0.057153 0.177298 0.112615 -0.116947 -0.090693 0.020767 -0.007894 -0.113467 0.044572 -0.179985 -0.238566 -0.242153 0.184500 0.284742 0.095207 0.103395 -0.306865 0.050861 0.255243 -0.033416 0.168437 0.247543 -0.040046 0.026941 0.372767
former 0.489336 0.647222 0.237071 -0.140631 0.047125 -0.115699 0.098973 0.416983 0.483106 1.025070 -0.157558 0.357193 0.059169 -0.087844 -0.848378 0.346127 0.203034 -0.670302 0.056571 0.364075 0.401973 -0.458132 -0.177587 0.001967 -0.068841 0.394082 -0.129181 -0.312539 -0.780415 0.180849 0.242031 -0.384572 0.063489 -0.095389 -0.214399 -0.353246 0.053328 0.082586 -0.147491 -0.317794 -0.129371 -0.012223 0.001114 0.136096 0.056354 -0.246573 0.079034 -0.072144 -0.168176 0.104936
balad -0.131906 -0.668375 -0.184694 -0.495575 -0.066967 -0.244847 0.441623 0.281031 -0.047445 -0.027973 -0.003242 -0.006135 -0.057176 -0.364572 -0.259038 -0.225876 -0.013505 0.018786 0.097219 0.191441 -0.104431 -0.223048 0.189940 -0.010319 0.242114 0.257350 0.442079 0.150872 0.267157 -0.420949 0.004353 0.070935 0.255981 0.232574 0.025381 -0.192364 -0.170762 0.043467 0.104040 0.082292 0.102147 -0.076314 0.054866 0.258180 -0.416857 0.146958 0.152207 0.140591 0.297624 -0.313546
gunmen -0.019604 -0.868794 0.061605 0.010443 -0.543105 0.258819 -0.414507 0.589124 0.590378 0.025459 -0.519751 0.024896 0.279003 0.011173 -0.386435 -0.046430 -0.273039 -0.289163 0.804961 -0.048812 -0.234992 0.319833 0.419312 0.259808 0.459176 0.490500 -0.660979 -0.600022 0.215780 0.023133 -0.238907 0.075507 0.290660 0.887426 -0.114222 -0.518234 -0.297610 0.163218 -0.037963 0.152268 -0.087860 0.194679 0.173082 -0.005076 0.096637 -0.053429 -0.048720 0.277423 0.080142 -0.271986
Reported_Minimum_0_value -0.219939 -0.462583 -0.454147 -0.659282 0.236689 -0.339989 -0.346430 0.658420 0.147956 0.540828 0.853722 0.343390 -0.789474 -0.390024 -0.323268 0.147656 0.063218 0.548575 0.644385 0.243130 0.328830 0.917019 -0.318171 -0.082001 -0.062904 0.382877 -0.328149 -0.144443 -0.000333 0.385505 0.528377 -0.887555 -0.055810 -0.165046 -0.205354 -0.020926 0.462355 0.416888 -0.299822 0.087116 0.672062 0.282154 -0.208993 0.104018 -0.302087 -0.512278 0.596655 -0.450643 -0.142297 0.084178
Reported_Minimum_60.0_percentile -0.315467 -0.420507 -0.366889 -0.817501 0.166443 -0.041092 -0.526888 0.615059 0.007602 0.715433 0.218247 0.443080 -1.150538 -0.471832 -0.529581 -0.159174 0.049075 0.554975 0.500341 0.214571 -0.052874 0.833949 -0.417670 -0.033206 0.013906 -0.156258 -0.329147 -0.264198 0.213784 0.147758 0.339575 -0.934255 -0.410486 -0.421818 -0.301882 0.070180 0.515569 0.517179 -0.195997 -0.081084 0.119912 0.257287 -0.028422 -0.382107 -0.312551 -0.529710 0.205215 -0.430528 -0.506025 -0.066860
Reported_Minimum_6_value 0.114205 -0.618106 -0.415081 -0.230749 0.143982 0.363149 0.174275 -0.284603 0.156689 0.080482 0.578483 0.468125 -0.296291 0.571347 0.244049 -0.334830 -0.052458 0.148280 0.160926 0.277867 -0.270431 0.527755 -0.390183 -0.179347 0.371362 0.101412 0.269181 0.717272 0.243071 0.313665 -0.284957 -0.239535 0.260071 0.425301 -0.466591 0.294056 -0.206906 -0.347059 -0.203358 -0.129762 -0.129656 0.046045 -0.459225 -0.011368 -0.026401 -0.232027 0.249686 -0.561053 -0.374756 -0.002242
secur 0.287625 -0.217535 -0.159856 0.031492 -0.083598 -0.420140 -0.197032 0.437133 0.445583 0.481397 -0.160584 0.152700 0.187727 -0.481819 -0.864118 -0.189101 -0.068077 -0.532161 0.581135 0.539562 0.201466 0.065852 0.351094 -0.001465 0.341613 0.242974 -0.245803 -0.571230 -0.091472 -0.039142 0.067035 0.340148 0.016929 -0.091478 -0.463593 -0.055134 0.142240 0.022493 -0.309908 -0.112565 -0.110746 -0.058350 0.129388 -0.008589 0.270010 0.104369 -0.118154 -0.045478 0.084037 0.500234
men -0.220581 -0.357335 0.328438 0.030307 0.239687 -0.353635 -0.077928 0.460279 0.486957 0.427284 0.251206 -0.103341 0.237281 0.305855 0.232484 0.110867 0.258132 0.504740 -0.104777 0.001101 -0.240630 0.255997 0.385872 -0.254877 0.149894 0.074603 -0.038539 0.070850 0.176992 -0.059253 -0.417459 0.097274 0.079530 0.440445 -0.191094 0.350136 -0.073662 -0.158912 -0.010095 0.180075 -0.331268 -0.227907 0.197917 0.119427 -0.215560 0.484370 0.204206 -0.070495 0.111997 -0.109524
unidentifi -0.471812 0.067044 -0.254640 0.166836 -0.235290 -0.406789 0.316116 0.018363 0.644105 0.050831 -0.291458 -0.929627 0.503847 -0.204385 0.161018 0.312601 -0.227943 0.512721 -0.092582 0.001970 0.195214 -0.423711 0.018358 0.449107 -0.313672 -0.466265 0.145695 -0.170454 0.068717 0.096975 -0.618933 -0.422930 0.299704 0.580771 -0.256815 0.530257 -0.105257 -0.737453 0.173265 -0.042571 -0.673613 -0.468275 -0.452031 -0.186571 -0.634834 0.499092 0.085229 0.454976 -0.127195 -0.366772
fallujah -0.002344 -0.355779 -0.095743 -0.316669 -0.181850 -0.107460 -0.050713 -0.105504 0.009889 0.128619 -0.176055 -0.048066 -0.007023 -0.355237 -0.035167 -0.075083 0.083042 -0.039645 0.069196 0.310513 0.187682 -0.037054 0.085267 0.222590 -0.102891 0.110429 0.273985 0.100093 0.014177 -0.322303 -0.210531 0.146637 0.186958 0.064911 0.039344 -0.093660 -0.137061 -0.087892 0.288643 0.116305 0.245315 -0.127753 0.263744 0.069642 -0.170887 -0.048438 0.000888 0.025216 -0.222753 0.165686
peopl 0.159477 -0.274784 -0.094709 0.195722 0.147851 -0.350365 -0.296637 0.222313 -0.632085 0.407801 0.079173 0.343038 0.008857 0.606418 0.315921 0.372402 0.579108 0.281943 -0.377421 0.252432 -0.343013 0.308198 -0.083702 -0.375012 0.378500 0.422689 0.032252 -0.046240 0.350444 -0.263970 0.280409 -0.303910 0.279687 0.197827 0.007810 0.305810 -0.311724 0.341033 0.290081 0.167722 0.230856 0.507987 -0.021378 0.531715 -0.107137 -0.163159 0.092643 -0.185982 0.130391 0.286405
work 0.142853 -0.368086 -0.378424 0.105684 -0.168677 -0.703458 -0.415531 0.249329 0.296921 0.558418 0.100231 -0.162910 -0.275420 0.310501 -0.423297 0.168873 0.784707 -0.527068 0.243257 0.328197 -0.030944 0.327184 -0.195318 0.390583 0.316860 -0.260579 -0.341647 -0.475417 0.357352 -0.198891 -0.113568 0.247671 -0.091619 -0.015603 0.211614 -0.277595 -0.694479 0.005015 0.188250 0.057175 -0.165751 0.132639 -0.131089 -0.422636 0.299541 0.147737 0.040887 -0.223750 -0.213500 -0.092626
approach 0.041879 -0.451008 -0.512461 -0.338772 -0.737996 -0.099050 -0.273897 -0.478462 -0.054119 0.185842 0.024324 -0.740639 0.265156 0.077729 0.310876 0.467134 0.283971 -0.252573 0.280572 0.569290 0.415019 0.119235 0.299798 1.041737 -0.107934 -0.202013 0.753394 0.030417 0.318870 0.343254 0.060947 0.801101 0.313705 0.196187 -0.335405 0.426570 -0.054952 0.187678 -0.090684 -0.555859 0.137989 -0.035724 0.254099 0.097533 0.146880 -0.089393 -0.080358 0.157614 -0.320800 1.132705
diyala 0.048153 0.022186 -0.116535 0.034979 -0.023197 0.020714 0.239179 0.286657 0.032574 0.251856 -0.122165 -0.001305 0.066941 -0.086801 -0.044045 -0.216425 0.107663 -0.089958 0.100963 0.254617 -0.171481 -0.460067 -0.060237 -0.247704 0.061656 -0.170348 0.559120 -0.010397 0.166125 -0.145350 0.141009 -0.394613 0.137014 -0.028937 -0.200906 0.056423 0.223831 -0.228387 0.338441 0.008688 -0.138287 -0.092974 -0.050687 0.120082 -0.135428 -0.029619 0.208054 0.049692 -0.059914 0.321267
southwest 0.111452 -0.065916 0.071384 0.160187 0.093523 0.437100 -0.451789 0.506409 -0.094495 0.029577 0.149243 -0.088859 -0.115683 -0.260855 -0.026224 0.014078 0.085330 0.165203 -0.438613 -0.592398 -0.168423 -0.005445 -0.216783 -0.115054 0.207960 -0.036720 0.527202 0.021442 -0.235968 -0.046714 0.297881 -0.043996 0.038649 -0.146184 -0.309171 0.383893 -0.152877 0.106078 -0.166801 -0.132674 0.392186 0.208985 0.028280 0.083092 0.017348 -0.204372 -0.208461 -0.352492 -0.057795 0.279438
leader 0.296762 0.319027 -0.326144 0.459022 0.135953 -0.078789 0.005071 0.229900 0.704538 0.433210 0.537753 0.014913 -0.464016 0.299341 -0.609143 0.024567 0.380259 -0.191639 -0.099766 -0.026044 0.047670 -0.560155 0.017662 -0.251989 -0.104933 0.248099 0.500502 -0.179641 -0.510996 0.517577 -0.165687 0.139020 -0.230999 0.505247 -0.085064 -0.312551 0.219521 -0.200890 0.439863 0.049776 -0.191416 -0.273792 0.553651 0.597276 0.625624 -0.032797 0.300370 -0.234321 0.339669 0.205388
's 0.076354 -0.124004 0.138229 0.254299 0.039158 0.058867 -0.266758 0.347540 0.308649 0.384005 0.023787 0.048900 0.030857 0.119057 -0.196678 0.055262 0.050736 0.063946 -0.386222 0.245499 -0.105052 -0.148584 0.008603 0.332474 -0.109890 -0.034595 0.007473 -0.387130 -0.035269 -0.077466 -0.072297 -0.261537 -0.061090 0.020777 0.152167 -0.092977 -0.245105 0.262136 -0.029777 0.095999 -0.047106 -0.117657 0.154455 -0.316108 0.174052 0.096990 0.248526 -0.065057 -0.011861 0.129347
dora 0.282640 0.041782 -0.048757 0.080422 -0.075275 0.424634 -0.081216 0.048114 -0.610430 0.003808 -0.143925 -0.016609 -0.011312 -0.174958 -0.182542 -0.035930 0.087267 0.231774 0.045267 -0.153740 -0.177184 0.111636 -0.294770 -0.215734 0.469711 -0.368276 0.201307 0.205658 0.077961 -0.171255 0.221542 -0.351997 0.569380 -0.261705 0.002774 0.083964 0.126453 0.133398 0.103139 0.080604 -0.159005 -0.102439 -0.225398 0.174309 -0.175024 0.021463 0.207389 -0.158063 0.190433 0.331568
western 0.058389 -0.030643 0.047832 0.166311 -0.041893 0.256877 -0.352340 0.374426 -0.232681 0.336504 -0.055786 -0.126347 0.254377 -0.132547 -0.014677 0.155568 -0.014481 -0.179644 -0.029944 -0.059324 0.207746 0.150071 -0.230756 0.017156 0.210917 -0.122534 0.139154 -0.164711 -0.136058 -0.073913 0.077773 -0.082519 0.293772 -0.087194 -0.283226 0.319484 -0.032429 -0.039478 -0.167778 -0.226746 0.021396 0.093514 -0.095838 -0.000599 -0.064778 -0.243431 0.044341 -0.175491 -0.136504 0.113855
bomber -0.416536 -0.557786 0.315449 0.096308 -0.284232 0.649198 0.745123 -0.071630 -0.452157 -0.041447 0.622541 -0.110429 -0.398644 0.327599 0.650087 -0.236514 1.092728 0.427279 0.259435 0.281957 -0.261622 0.339275 -0.355722 -0.032208 0.997727 0.591438 0.847451 0.274336 0.194495 0.040539 0.328849 -0.019735 0.288736 0.447941 0.463331 -0.445901 -0.135705 -0.798249 -0.581680 0.131892 0.054535 0.111070 -0.125124 -0.124376 -0.510434 -0.460210 -0.072969 -0.405465 -0.282674 0.489878
road 0.077751 0.093006 -0.300537 -0.334939 -0.183080 -0.108747 -0.238452 0.149585 -0.268918 -0.114594 0.081649 0.074708 0.112395 -0.331853 0.120132 -0.196322 0.364654 0.010298 0.508748 0.263761 -0.250766 -0.074435 0.098298 -0.012677 -0.189383 -0.190951 -0.016159 -0.335793 -0.052343 -0.264886 0.182775 0.036739 0.071890 0.192167 -0.219053 -0.125229 -0.071554 -0.284730 0.323618 -0.016043 -0.104866 0.334545 -0.102014 -0.071093 -0.040992 0.253351 -0.061981 0.012378 0.258662 0.035017
behead -0.207640 0.089948 -0.008389 -0.466610 0.615531 -0.047021 0.125281 0.208081 0.245223 -0.007334 0.232713 -0.204170 0.619248 -0.129817 -0.044814 0.134393 0.336433 0.139529 0.143136 -0.101559 -0.362992 0.285665 0.180343 -0.079433 0.470601 -0.252168 0.051677 0.084144 -0.552320 -0.372799 -0.038342 -0.352103 0.287511 0.349181 -0.406331 -0.154804 -0.167917 -0.617158 -0.336790 0.065264 -0.293889 0.020018 -0.104149 0.157727 -0.368023 0.176691 0.389467 -0.092618 -0.013088 -0.413971
rout -0.076634 0.133496 -0.515270 -0.272714 -0.431180 0.007012 -0.190134 -0.028493 -0.221613 -0.187079 -0.046601 -0.105910 0.080636 -0.439512 -0.462923 -0.236568 0.343484 -0.204123 0.211332 -0.400557 -0.003137 -0.212236 -0.208929 -0.096406 -0.247800 -0.384073 0.411771 0.129128 0.070082 -0.206555 -0.213366 -0.131139 0.023876 -0.141303 -0.228509 -0.031579 -0.520396 -0.308416 0.617649 -0.219118 0.025707 0.325949 -0.205096 0.066397 -0.420629 -0.045703 -0.122019 -0.002490 -0.334494 0.088623
possibl -0.070070 0.049484 -0.089941 -0.082884 -0.069256 0.134537 0.247142 0.050180 -0.107321 -0.110780 0.171978 -0.032658 -0.093052 0.244328 0.143082 -0.013841 0.218708 0.183742 0.231962 0.429619 -0.121098 0.040656 0.135138 0.150296 0.133797 0.386866 0.179140 0.064569 0.410004 0.136985 0.135822 0.111947 0.067267 0.070342 0.180230 0.010548 0.256690 -0.144320 -0.223056 -0.009892 -0.141573 0.144356 0.119601 -0.141774 0.042535 -0.141334 0.226430 -0.000804 -0.066979 0.314506
kut -0.022887 -0.344499 -0.159126 -0.272202 0.370242 -0.097576 0.038732 -0.077786 0.357829 0.028972 -0.080570 0.081648 0.077792 -0.354731 -0.187476 -0.449398 -0.052854 -0.000486 -0.258316 -0.001479 -0.005209 -0.054698 -0.040485 -0.080623 0.080265 0.061290 0.013984 0.031770 -0.346883 -0.640096 -0.019371 -0.191040 0.162527 0.143659 -0.061724 -0.189440 -0.195370 -0.161396 0.044059 0.292084 0.278939 -0.173235 0.185511 -0.024668 -0.231731 0.048599 0.259070 0.103173 -0.344056 -0.473133
hilla 0.000753 -0.509078 0.179456 -0.211895 0.143743 0.147063 0.104575 -0.117336 0.014157 0.213931 -0.096116 0.228762 -0.161410 -0.191114 -0.039629 -0.397764 -0.013716 0.184370 -0.458672 -0.003304 -0.028239 -0.046466 0.000749 0.051801 0.068562 0.190763 0.241555 0.124662 0.055721 -0.619482 -0.073044 -0.077044 0.351866 0.102554 0.054415 -0.132244 -0.081606 0.101117 0.060417 0.152351 0.395284 -0.000674 0.179535 0.195440 -0.238441 0.122974 -0.037155 0.081298 -0.259954 -0.013844
wound -0.292450 -0.427790 -0.071119 -0.128537 0.040858 -0.995983 0.200181 0.167177 0.197888 0.105442 0.076882 -0.685463 -0.355802 0.476973 -0.581878 -0.075547 0.410810 0.536449 0.058605 0.330736 -0.109859 -0.393609 0.776158 0.185338 0.105167 -0.504581 -0.082135 -0.242296 0.652232 -0.127426 -0.281834 0.394460 0.285507 0.510151 -0.003047 -0.162116 -0.388196 0.052939 0.318977 0.074805 -0.216322 -0.061652 -0.272675 -0.242276 0.025722 -0.033913 0.532622 0.119920 -0.146836 0.279753
attack -0.061251 -0.434279 -0.286061 0.055450 -0.320062 -0.399220 0.018331 0.072542 -0.163828 -0.099962 -0.204227 -0.233533 -0.031117 0.397289 -0.072139 0.411063 0.168840 0.024332 0.140160 0.103397 -0.303273 0.140821 -0.131616 0.450457 0.392740 0.315405 -0.138829 -0.388755 0.309569 -0.024651 0.163501 0.184316 0.009161 0.301730 -0.345520 -0.086416 0.054509 -0.248203 0.168302 0.119052 -0.119810 0.318733 0.337453 -0.108865 -0.227803 0.138246 0.110372 -0.078040 0.216802 0.011677
parti 0.846896 0.567830 -0.336332 -0.154970 0.237163 -0.562163 0.119975 -0.029185 0.944338 1.167377 0.274742 0.068079 0.349696 -0.070370 -0.776534 0.297272 0.327962 -0.638844 -0.206272 0.571971 0.424581 -0.879636 -0.289152 -0.286218 0.159351 0.466063 0.040310 -0.519915 -0.607616 0.125885 0.137144 -0.803103 0.193632 0.140312 0.004667 -0.579295 -0.019645 0.430498 0.081446 -0.277423 0.016285 -0.221788 0.003193 -0.066688 0.368972 -0.125689 0.047533 -0.066983 0.095393 0.009773
khali -0.022227 -0.353439 -0.084242 -0.165493 -0.005618 -0.110358 0.188919 -0.047101 -0.144035 -0.008527 0.010239 0.191822 -0.132328 -0.115441 0.011172 -0.215535 0.081743 -0.033318 -0.199536 0.056115 -0.124306 -0.213880 -0.105081 -0.054781 0.031642 -0.177091 0.234601 -0.118111 0.019877 -0.420949 0.190340 -0.229988 0.125067 0.179981 0.031229 -0.226470 0.095629 0.097256 0.333844 0.238162 0.154908 -0.116949 0.245005 0.248991 -0.323538 0.062298 0.099355 0.274814 -0.133601 -0.049397
ahm -0.096126 0.334212 -0.232354 0.329376 0.071027 0.093814 -0.250909 0.219003 0.489603 0.335808 0.000265 -0.062238 0.173430 0.025040 -0.161703 0.167170 0.193739 -0.166160 -0.081840 0.079315 0.170280 -0.521441 0.050396 0.026540 -0.238626 -0.075203 0.011716 0.133935 -0.264025 0.096262 0.024348 -0.112408 -0.310593 0.155730 -0.130845 -0.209033 0.118153 0.042471 0.095442 -0.065660 0.016769 -0.185011 0.068702 0.329389 0.193981 0.009574 0.067071 -0.216094 -0.322012 0.155068
devic -0.193671 -0.037008 0.325668 -0.299728 -0.517987 0.508866 0.285282 0.021151 -0.520570 0.036426 0.068742 0.603696 0.394880 -0.097489 -0.054082 0.111879 0.717008 0.326745 0.647868 -0.184890 -0.027462 -0.236456 -0.655575 -0.297410 0.108944 0.144468 1.522681 0.000443 -0.051279 -0.209166 -0.690893 -0.224445 -0.773858 -0.208239 0.143454 -0.117176 -0.663408 -1.171299 0.579972 0.071151 1.210629 -0.302066 0.022292 -0.339106 -0.650360 -0.281268 -0.766172 0.180805 0.130663 0.673359
brother -0.090676 -0.039652 0.252631 0.185123 0.000680 -0.098760 -0.049132 0.325361 0.367185 0.413122 0.159397 -0.197927 0.193565 0.370659 -0.017909 0.234061 0.180618 -0.164794 -0.364767 -0.154368 -0.196261 -0.249789 0.378817 0.041120 0.058579 0.193135 -0.269112 -0.165458 0.070803 0.036924 -0.165277 0.208758 0.109634 0.488507 -0.158718 -0.204807 -0.181130 0.197640 0.220877 0.238333 -0.132003 -0.112324 0.011753 0.322230 -0.069546 0.195994 -0.109949 0.105764 0.096024 -0.110788
amil 0.407628 0.195986 -0.184812 0.033498 -0.050127 0.560834 -0.269180 0.226784 -0.427231 -0.253697 0.035857 -0.129984 0.056398 -0.140615 0.156591 -0.102719 -0.001912 0.401496 0.338347 -0.239622 -0.502114 0.277248 -0.629915 -0.240337 0.583029 -0.422782 0.338188 0.548520 -0.467608 0.060183 0.283575 -0.489407 0.470557 -0.150828 -0.202654 0.262832 0.300877 -0.257482 -0.040547 0.009478 -0.392485 -0.278933 -0.058911 0.315217 -0.274333 -0.062700 0.312526 -0.219728 0.154715 -0.051741
shop 0.026893 -0.078781 0.264832 0.570281 -0.170118 -0.180986 -0.346487 0.362643 -0.372094 0.526331 0.022326 -0.002107 0.169003 0.418291 0.072062 0.024874 0.449671 -0.264844 -0.426623 0.236922 -0.036269 -0.476957 -0.146698 0.246602 0.195520 -0.132341 -0.083747 -0.061947 0.327868 -0.162758 0.185702 -0.376146 -0.017374 0.143458 0.021504 -0.076651 -0.256846 0.491890 0.069169 0.044591 0.201293 0.107307 -0.293565 0.052121 -0.141794 0.056778 -0.086696 0.232336 -0.013903 0.098942
militari 0.272827 -0.113012 -0.476862 -0.113322 -0.507875 -0.043530 -0.249788 0.066816 -0.052264 0.230514 -0.012884 0.075068 0.223176 -0.022141 -0.199556 0.264644 -0.117991 -0.674532 0.515609 0.536577 0.275941 0.418955 0.181096 0.214091 -0.108201 0.194641 0.041118 -0.081342 0.386562 0.091094 -0.226537 0.061416 0.066247 -0.164311 -0.162948 0.116678 -0.011015 -0.062242 -0.033008 0.016203 0.201706 -0.103881 0.243526 -0.307303 0.099417 0.218968 -0.270506 0.054137 -0.076196 0.615270
hussein -0.182865 0.254625 -0.397445 0.491690 -0.132330 -0.029166 -0.346729 0.409132 0.459900 0.246315 -0.047148 -0.103005 0.251579 -0.001831 -0.176589 0.014195 0.158955 -0.383754 0.018837 0.136826 0.277925 -0.533663 -0.017296 -0.050085 -0.339653 -0.094213 -0.000261 0.013223 -0.217530 0.187806 0.077834 -0.221565 -0.421536 0.126025 -0.206973 -0.292102 -0.054320 0.077382 0.126439 0.025490 -0.072810 -0.297736 0.020440 0.275616 0.173668 0.003420 0.142883 -0.048420 -0.257018 0.009448
river -0.078699 0.270069 0.250548 -0.447108 0.137520 -0.269278 -0.389619 0.159604 -0.063457 -0.092286 0.080265 0.079433 0.300554 0.171418 0.027926 0.186804 0.896627 0.015539 0.276735 -0.317274 -0.136526 0.047881 -0.087295 0.085008 -0.295557 -0.369189 -0.002402 0.349311 0.009389 -0.720719 -0.162229 -0.098340 0.077516 0.613185 0.152687 0.532635 -0.217696 -0.581809 0.236902 0.202803 -0.025672 0.160122 -0.274345 0.298174 -0.714366 0.379654 0.427318 0.453606 0.078049 -0.304798
abdul -0.261456 0.160316 -0.398972 0.493024 -0.150722 0.095956 -0.317771 0.247368 0.426120 0.296361 0.063631 0.008278 0.253581 0.046331 -0.097734 0.177764 0.185030 -0.206475 -0.226061 0.100983 0.229412 -0.552578 -0.152098 -0.032173 -0.296359 -0.173522 0.281917 0.285826 -0.257439 0.097613 0.068135 -0.418464 -0.430935 0.126783 -0.253707 -0.158685 0.058183 -0.021155 0.030898 -0.011051 0.058596 -0.422647 -0.055938 0.331925 0.199534 0.007087 0.243591 -0.292484 -0.483941 0.381883
squar 0.095281 0.096228 -0.439073 0.377151 -0.188949 0.327356 -0.459346 0.156638 -0.681491 -0.338504 0.203677 0.345230 -0.222413 -0.281555 0.129966 -0.043659 0.319144 0.178581 -0.228829 0.236166 -0.392173 0.100151 -0.470840 -0.146298 0.230898 0.146622 0.153512 0.579315 0.133697 0.093945 0.251990 -0.461269 0.230444 0.081941 0.176995 0.114144 0.186145 -0.007943 0.095084 -0.252090 0.095509 0.415252 0.004753 0.379758 -0.293506 -0.254072 -0.140374 -0.133594 -0.048304 0.227816
offici 0.297578 0.276616 -0.252923 0.324175 0.136669 -0.218421 -0.221475 0.288822 0.391490 0.558542 -0.173875 0.131674 -0.138741 -0.007918 -0.381723 -0.130902 0.343886 -0.313728 -0.106418 0.581037 0.118762 -0.578348 0.078175 -0.032165 -0.114363 0.131155 -0.139826 -0.243578 -0.014915 0.090165 0.320895 -0.304410 -0.032633 0.018512 0.147459 -0.377083 0.206438 0.305723 0.109635 -0.113041 -0.402080 -0.231899 0.285949 0.180526 0.423018 0.099613 0.376406 -0.254718 -0.086859 0.562487
neighborhood 0.035352 0.081397 -0.106588 0.138048 -0.072957 0.163392 -0.422068 0.323758 -0.202715 0.012961 -0.082880 0.065802 0.123064 -0.252909 0.052811 0.146632 0.192504 -0.078427 -0.005155 -0.199046 -0.069903 -0.142306 -0.207415 -0.094736 -0.074041 -0.067395 -0.137375 0.269449 -0.293884 -0.125943 0.049953 -0.199275 0.127801 -0.074731 -0.185133 0.083299 -0.061814 -0.153666 0.093671 0.115445 -0.033357 0.530629 -0.209165 0.324494 -0.195398 -0.097459 -0.281553 -0.269816 -0.218469 -0.066570
carri -0.047800 -0.375199 -0.212262 0.044908 -0.385993 -0.058653 -0.006472 -0.062886 -0.022662 0.133907 0.115468 -0.045440 -0.251416 -0.051367 -0.063273 -0.076383 0.192624 0.266109 -0.135001 0.271435 0.040004 -0.012485 0.074389 0.306217 0.239460 -0.038944 0.549330 -0.246280 0.335421 0.012446 0.206611 -0.179322 0.057202 0.230232 0.079522 -0.057443 0.243800 0.397580 -0.148869 -0.346421 -0.165209 0.076693 0.020960 0.024684 0.306099 0.275438 0.237617 -0.354332 -0.007145 0.699828
also 0.244533 -0.145776 -0.322807 0.230079 -0.156242 0.338807 -0.071855 0.190369 0.267757 0.136296 0.136415 -0.127790 0.204880 0.393076 -0.511965 -0.096840 -0.186943 -0.288479 -0.151067 0.739406 -0.182867 -0.641614 0.565826 0.556071 0.281731 0.063900 -0.187790 -0.443882 0.444518 0.259980 0.278324 0.219143 0.142729 0.254197 -0.345837 -0.672208 -0.189257 0.748463 0.116551 0.470341 -0.472140 0.064918 0.482735 -0.090629 0.586650 -0.462203 0.410513 0.051736 -0.222992 0.116010
Reported_Minimum_7_value 0.084951 -0.546038 -0.334374 -0.121697 0.016951 0.430767 0.218396 -0.238164 -0.009015 0.082167 0.478031 0.301419 -0.336498 0.580657 0.198411 -0.366208 0.064441 0.161949 0.104153 0.254464 -0.289921 0.463074 -0.338801 -0.153279 0.278941 0.009085 0.299318 0.812574 0.125511 0.236748 -0.111493 -0.304016 0.225571 0.302574 -0.304968 0.235736 -0.146247 -0.227758 -0.150987 -0.108185 -0.120751 -0.102310 -0.451860 -0.005872 -0.141346 -0.164741 0.356547 -0.423007 -0.424517 0.081097
bu -0.031953 -0.510665 -0.376293 0.287981 -0.227919 -0.187854 -0.146149 0.279417 -0.333940 -0.076160 -0.144265 0.269483 -0.293642 0.051143 0.052727 0.258538 0.214225 -0.328374 -0.478702 0.370230 -0.269458 0.320632 -0.047599 0.248342 0.083149 0.349080 -0.027007 0.120055 0.464399 -0.355031 0.254505 -0.077138 0.137242 0.110314 -0.025499 0.336367 0.004609 0.238471 0.051354 0.253050 0.273698 0.401054 -0.231956 0.156424 -0.116751 0.097535 -0.065936 0.198250 -0.177758 0.371517
improvis 0.115425 -0.459459 0.000953 -0.140335 -0.960690 0.290384 -0.321885 0.218405 -0.841702 -0.856214 0.097378 0.803731 0.607285 -0.148809 -0.137883 0.666454 -0.131650 0.276208 0.048917 -0.341082 -0.175996 -0.054639 -1.468032 -0.597178 0.497427 -0.098680 1.580815 -0.062626 0.054723 -0.406320 -0.238503 -0.119819 -0.857949 -0.314187 0.349261 0.389907 -0.945636 -0.252741 0.543820 0.082244 1.635774 -0.632366 0.111156 -0.145168 -0.460509 -0.413713 -0.621974 0.207107 -0.029370 0.945987
ghraib 0.009594 -0.032912 -0.247194 0.625889 -0.018093 0.570675 0.020142 0.204371 -0.339943 -0.202501 0.265809 0.191588 0.429344 -0.016507 0.131627 -0.011569 -0.272338 -0.143971 -0.101418 0.191292 -0.515497 -0.460015 -0.501301 -0.619489 0.135773 0.100835 0.737306 0.491132 -0.152575 0.306949 -0.063405 0.049684 -0.374986 0.173801 0.008747 -0.596036 0.296992 0.437401 0.228410 -0.054814 0.363164 -0.430957 -0.220585 0.549604 0.228113 -0.266119 -0.188242 -0.014278 0.460424 -0.089448
doura 0.362289 0.147832 0.026620 0.066770 -0.030580 0.522759 -0.351583 0.147178 -0.499036 -0.084046 -0.091633 0.047313 0.195121 -0.348722 0.113798 -0.061520 -0.191043 0.376368 -0.038001 -0.271088 -0.409807 0.163751 -0.471583 -0.274900 0.468039 -0.255279 0.239650 0.277245 -0.043817 -0.213989 0.031594 -0.320052 0.530976 -0.318260 0.031697 0.427851 0.219150 0.049997 0.089345 0.082621 -0.283695 -0.151155 -0.061883 0.231639 -0.200922 0.018927 0.186740 -0.208598 0.182644 0.015928
grenad 0.179791 0.028258 -0.013518 -0.136976 -0.295141 0.195967 -0.203086 0.022973 -0.611137 0.124907 -0.171438 -0.098026 -0.031233 0.036800 -0.250694 -0.256804 0.569081 0.064127 0.459850 -0.040490 -0.338288 0.538667 -0.526962 0.037988 0.548954 -0.020019 -0.216179 0.108340 -0.023934 -0.085127 0.253343 -0.854239 0.131314 -0.108547 -0.249150 -0.206073 0.217927 -0.281668 0.070218 -0.204408 0.268163 0.019745 0.125950 -0.140737 -1.287260 0.156639 0.000898 -0.186959 0.000580 0.384221
minibu -0.012973 -0.228873 -0.093753 0.403595 -0.151181 -0.406486 -0.002524 0.182740 -0.563720 -0.345369 -0.124228 0.433415 -0.206115 -0.036234 0.005220 0.124125 0.405313 0.159485 -0.357315 0.700478 -0.376386 -0.178696 -0.509196 -0.065676 0.393678 0.406874 0.184668 0.293340 0.464101 -0.301302 0.395771 -0.028388 0.135958 0.042072 0.177531 0.258448 0.181342 0.096101 -0.050822 0.055588 -0.077992 0.269102 -0.203812 0.357043 -0.091112 0.034637 -0.137794 0.236359 0.127275 0.302206
northeast -0.079241 -0.089575 0.199353 0.384832 0.137531 0.382185 -0.214135 0.576486 -0.132752 0.314345 0.109613 -0.227587 -0.019993 -0.052045 0.049693 -0.119143 -0.006337 -0.142351 -0.256073 -0.188779 0.063545 0.114102 -0.131988 -0.019126 0.120925 -0.111549 0.341297 0.130931 -0.002800 0.077345 -0.040252 -0.088023 0.163550 -0.217119 -0.156904 0.316680 -0.012201 -0.014228 -0.245174 -0.170464 0.154571 0.151790 -0.114397 0.049689 -0.047905 -0.131760 -0.166359 -0.292793 -0.076491 0.263366
worker -0.138353 -0.073970 -0.100242 0.169083 -0.000877 -0.346517 -0.235530 0.155037 -0.031781 0.592473 0.011674 -0.055621 -0.103251 0.185592 -0.133472 0.014552 0.587896 -0.081047 -0.087005 0.341676 0.032389 0.154742 0.083045 -0.036290 -0.020702 -0.203142 -0.200506 0.098563 0.238656 -0.079751 0.186455 -0.265259 0.029555 0.066505 -0.159453 -0.106174 -0.044893 0.210829 0.031328 -0.098936 0.044763 -0.053842 -0.141955 -0.089468 -0.068823 0.363506 0.094556 -0.098819 -0.184987 0.348249
while 0.088039 0.058205 -0.310052 0.069681 -0.233722 -0.588124 -0.319291 0.044833 0.013671 -0.153367 0.262592 -0.251740 0.088576 0.785046 0.092293 0.137372 0.357775 -0.209667 -0.105816 0.315616 -0.302323 -0.438007 -0.043308 0.341941 -0.064637 -0.294951 -0.289905 -0.114262 0.413434 -0.042004 0.056244 0.143120 -0.286562 0.419486 0.053816 -0.275449 -0.147009 0.492151 0.221665 0.027396 0.202134 0.146993 0.110742 -0.236132 0.035110 0.392453 0.289484 0.107825 -0.103106 -0.131651
tal -0.298179 -0.694305 0.013165 -0.138798 -0.083355 0.109474 -0.113629 0.202166 -0.290858 -0.396255 -0.231432 -0.261937 0.143923 -0.434967 0.000370 -0.474328 0.039380 0.039848 -0.167848 0.109546 -0.568225 0.056879 0.311274 0.185898 0.012871 0.388892 0.524107 0.235348 -0.310940 0.190101 -0.275936 -0.168362 0.363776 0.193068 0.191768 -0.251119 -0.716735 -0.578043 0.021259 -0.608617 -0.351035 0.173255 0.438789 -0.009656 -0.179798 0.015714 0.175024 0.037104 0.261943 -0.323486
death -0.002914 -0.271375 -0.370829 -0.330619 -0.041855 -0.732618 0.063548 -0.128728 -0.155595 -0.019419 0.320538 0.167142 -0.201185 0.084005 -0.199887 0.371403 0.429744 -0.170919 0.191400 0.356922 -0.325872 0.003723 -0.055647 -0.009572 0.075330 -0.014401 0.026395 -0.214445 0.090569 -0.110065 -0.164812 -0.002695 -0.431091 -0.002995 0.217210 -0.113120 -0.173258 -0.262924 0.364928 0.185012 -0.372372 0.053294 0.038445 -0.088101 0.026409 0.462321 0.122836 -0.041151 -0.187725 -0.025385
three 0.020214 -0.042502 0.242962 0.009981 0.067173 -0.195925 -0.079178 0.395533 0.445647 0.128527 0.021909 -0.119280 0.401457 0.541068 -0.114634 0.291936 0.112745 -0.068920 -0.110361 0.191788 -0.225956 -0.250933 0.319079 0.139818 0.310213 0.025607 -0.267006 -0.143807 0.269735 -0.121600 -0.166131 -0.101647 0.106716 0.456052 0.112130 0.078005 -0.327027 -0.028424 0.095902 0.335842 -0.252589 -0.154986 0.017068 -0.056155 -0.034984 0.047751 0.424031 0.143237 0.069782 -0.170934
hay -0.235627 0.109183 -0.634058 0.490977 -0.158594 0.235564 -0.435800 0.309335 -0.341345 -0.121545 0.152691 -0.361849 0.136595 -0.064860 -0.143789 -0.080083 0.334187 -0.138393 0.167219 -0.612137 -0.244049 -0.166299 -0.679489 -0.137586 -0.086500 -0.439875 0.245983 0.557849 -0.337589 0.042334 0.090831 -0.299207 -0.402461 -0.099951 -0.553746 -0.066858 0.242918 -0.318453 0.507400 -0.058749 0.072162 0.268962 0.006415 0.220040 -0.534471 -0.125191 -0.081133 -0.211707 -0.434277 -0.299653
afar -0.016941 -0.429775 0.387154 -0.230279 0.473570 -0.269441 0.056695 0.071187 -0.157274 0.093196 0.069183 -0.298985 0.162195 0.043586 -0.253150 -0.379227 -0.136831 -0.405429 -0.288033 -0.014743 -0.403629 -0.028929 -0.163538 0.678234 0.688292 0.018499 0.676644 0.046238 0.117485 -0.379592 -0.559351 0.243583 0.201863 0.397031 -0.259561 0.428236 -0.005187 -0.461138 0.095496 -0.177932 0.396554 -0.128629 0.202846 -0.124183 -0.090319 -0.153711 -0.249700 0.213692 -0.279694 -0.163335
sahwa 0.358770 0.385378 -0.283102 0.210160 0.039235 -0.042394 0.107461 0.051547 0.805540 0.408892 0.390814 0.108453 -0.077595 -0.159904 -0.289418 0.258096 -0.013390 -0.246288 -0.186181 0.136791 -0.028726 -0.449549 0.119797 -0.008132 -0.390634 0.450721 0.535921 -0.238618 -0.543875 0.161549 -0.254895 0.448501 -0.237072 0.305915 -0.161975 -0.168808 0.447041 -0.007145 0.164732 -0.075496 -0.063963 -0.404333 0.173980 0.474036 0.543728 -0.067410 -0.092125 0.111153 0.273875 0.289132
southeast 0.050005 -0.125983 0.340353 0.248786 0.142162 0.366000 -0.252729 0.499866 -0.204545 0.439594 0.202229 -0.041987 -0.005401 0.006192 0.151710 -0.147501 0.143559 -0.029353 -0.270193 -0.243490 0.087641 0.105797 -0.112191 -0.164628 0.229539 -0.155712 0.404190 0.152235 0.114295 0.011360 0.087547 -0.221787 0.329645 -0.204606 -0.186577 0.415114 -0.019321 -0.015348 -0.253523 -0.056843 0.141658 0.135092 -0.069511 0.075619 0.002090 -0.126602 -0.147463 -0.283709 -0.112523 0.405747
injur 0.218206 -0.219137 -0.607982 0.332129 -0.233726 -0.084683 0.013887 0.375987 0.452334 0.073460 0.229259 -0.665206 0.185084 0.502267 -0.399857 0.303730 -0.055757 -0.370905 -0.293204 0.451801 -0.355785 -0.611859 0.831781 0.494538 0.333466 0.003416 -0.232474 -0.379807 0.408834 0.021808 -0.032141 0.270912 0.615662 0.614240 -0.163212 -0.661858 -0.277583 0.573360 0.158619 0.418457 -0.550186 0.028591 0.167198 0.273719 0.359445 -0.502721 0.462901 0.280593 -0.128672 -0.164275
bayaa 0.305434 0.221081 0.059120 -0.130275 -0.007783 0.431067 -0.198384 0.120071 -0.541362 -0.216204 0.006805 0.019184 0.191487 -0.198472 0.124846 -0.070497 -0.169016 0.470236 0.113367 -0.083074 -0.490298 0.294917 -0.455670 -0.143825 0.430805 -0.333278 0.163455 0.419725 -0.145802 -0.270198 0.093115 -0.179480 0.519993 -0.223687 0.050497 0.341930 0.205513 0.058675 0.113302 0.013652 -0.294447 -0.225278 -0.058623 0.274484 -0.298212 0.060335 0.361893 -0.112618 0.131291 0.100764
wife 0.069584 0.093633 0.055347 0.387389 -0.050607 -0.153706 0.013244 0.279506 0.147115 0.079373 0.202102 -0.070115 0.215264 0.538764 0.251410 0.065092 0.053078 -0.406465 -0.357795 0.101977 -0.290603 -0.455177 0.416325 0.046776 0.130239 0.137344 -0.195552 -0.314798 0.160045 0.113403 -0.042927 -0.003817 0.180573 0.751572 -0.014294 -0.606770 -0.330805 0.595370 -0.032489 0.105191 0.146962 -0.154479 -0.096085 0.162020 0.333991 0.085484 -0.218167 0.195369 0.418082 -0.141681
their -0.066073 -0.162139 0.112726 0.350968 -0.077675 -0.692956 -0.277805 0.068715 0.261111 0.043241 0.255530 -0.014368 0.349128 0.652358 -0.030051 -0.069817 0.335189 0.166492 -0.473518 -0.044563 -0.224976 -0.099580 0.028203 -0.125400 0.230392 0.167747 -0.226797 -0.580748 0.390304 -0.068514 -0.280893 0.196548 -0.232303 0.634709 0.234008 -0.261914 -0.708041 0.574892 0.162861 0.077879 -0.021644 -0.042451 0.013794 0.003067 0.031012 0.444535 0.071895 -0.213324 0.272470 -0.022067
child 0.023553 -0.165226 -0.041708 0.107052 -0.070299 0.056814 0.032901 0.252550 -0.012975 0.218821 -0.302116 -0.260146 0.343629 0.277120 -0.149719 -0.099862 -0.191754 -0.123083 0.157227 0.336868 -0.038342 -0.290571 0.612701 0.486587 0.065222 0.123029 -0.273899 -0.260783 0.384877 0.187158 -0.176513 0.150643 0.328460 0.452410 -0.327769 -0.269711 -0.241863 0.200026 0.128244 0.107861 -0.299559 0.223074 0.234101 0.036125 0.178819 0.154951 -0.113344 0.194556 0.242347 -0.120065
male -0.563244 0.109792 0.115706 -0.065938 -0.149237 -0.667287 0.041608 -0.084242 0.958995 0.135839 -0.138276 -0.610678 0.456078 0.117526 -0.019299 0.229991 0.091340 0.412571 0.134314 0.144102 0.331668 -0.327636 0.087345 0.605873 -0.211839 -0.531502 -0.201093 0.153908 0.207719 -0.078301 -0.314450 -0.132886 -0.024876 0.529104 -0.100186 0.693597 -0.011448 -0.239082 -0.008858 -0.098736 -0.072301 -0.411781 -0.058220 -0.431279 -0.433249 0.635029 0.137924 0.671906 -0.237139 -0.096008
mansour 0.271816 0.137937 -0.253092 0.065816 0.175386 0.280804 -0.389969 0.209636 -0.450690 -0.144311 0.039699 0.091730 0.312114 -0.364410 -0.138064 -0.148129 -0.152235 0.159430 -0.130188 -0.076644 -0.075677 0.008554 -0.166311 -0.363296 0.246787 -0.284316 0.080070 0.247142 -0.106684 -0.159148 0.115145 -0.190913 0.254210 -0.244832 -0.035154 0.211694 0.081556 0.220258 -0.065780 -0.030117 -0.063252 0.088182 -0.046825 0.385776 0.001219 0.010308 0.081518 -0.100563 -0.005813 -0.049284
die 0.137784 0.055405 -0.253007 -0.149847 -0.076613 -0.908085 0.327448 0.530740 0.220760 0.233834 -0.107521 -0.494281 -0.490198 0.311580 -0.170585 -0.140280 0.422875 -0.339994 0.127578 0.067357 0.008267 -0.213550 0.710242 0.193062 -0.118551 0.011294 0.212345 -0.496289 0.511437 -0.196616 -0.093588 0.566343 0.239165 0.166976 0.194176 -0.007125 -0.019003 -0.014786 0.222263 0.071067 -0.374435 -0.177832 0.465182 0.225183 0.122432 0.075556 0.466715 0.037219 -0.110072 0.183365
shell 0.186570 -0.322112 -0.049208 -0.171611 0.104795 -0.399037 0.293001 -0.111176 -0.915236 0.126609 -0.071415 -0.254218 0.353880 0.217072 -0.873850 0.111471 0.644757 -0.036066 0.075840 -0.042425 -0.654702 0.067845 -0.186728 0.077971 0.847884 0.542534 0.674887 0.119517 0.252346 -0.205620 -0.034052 -0.191409 0.344831 -0.031081 -0.336432 0.084234 0.133964 -0.510125 0.382739 -0.241449 -0.382421 0.610809 0.337232 0.114706 -0.355765 0.246692 0.046831 -0.126019 0.486777 0.018893
bridg 0.084765 0.120639 -0.254230 -0.046176 0.032865 -0.001164 -0.361795 0.026881 -0.263250 0.046712 0.150643 0.011465 0.062581 -0.060438 -0.016290 0.026509 0.446308 0.129891 0.021858 0.013170 -0.082781 -0.044618 -0.105134 0.379781 -0.130764 -0.148312 0.262567 0.283559 0.133837 -0.123888 -0.066817 -0.087276 0.140173 0.181743 -0.041325 0.381981 0.137672 -0.224579 0.046275 -0.169090 -0.062277 0.287531 -0.047665 0.258400 -0.288719 0.141891 -0.131987 0.282656 -0.010250 -0.065937
owner 0.131976 -0.137095 -0.021139 0.319482 0.202855 -0.112783 -0.736095 0.411336 -0.107521 0.467335 0.210036 0.350964 -0.099570 0.079449 0.008846 0.262678 0.321822 0.032405 -0.479221 0.115332 0.025787 -0.333343 0.005782 -0.090597 0.147059 -0.439220 -0.216199 -0.149335 -0.008216 0.161777 0.138716 -0.042672 -0.254516 0.252149 -0.109421 -0.282090 -0.240077 0.383204 0.203873 0.100466 0.487815 0.012230 -0.020111 0.365757 0.335649 -0.066423 -0.265530 -0.275406 -0.176210 0.467967
stab -0.236844 0.154386 -0.163669 -0.196565 0.184151 -0.427038 -0.028340 0.034860 0.046661 -0.306982 0.162390 -0.081305 0.358122 -0.118854 -0.219476 0.041384 0.379142 -0.003361 0.065295 -0.088786 -0.237777 -0.181669 -0.085876 0.203606 0.106194 -0.438668 0.034180 -0.266566 -0.150061 -0.437604 -0.256374 -0.009936 -0.098368 0.442937 0.021775 -0.153001 -0.244076 -0.462004 0.057216 -0.077572 -0.190138 0.218891 -0.200762 -0.002726 -0.114499 0.471121 0.088114 0.114822 0.014610 -0.293300
crossfir 0.118672 -0.354322 0.056000 0.325567 -0.116794 0.092574 -0.216777 0.113647 -0.280918 -0.098513 -0.318796 0.093058 0.692784 0.030732 -0.271319 -0.135608 0.021203 -0.289946 0.202657 0.346953 0.073242 0.010735 0.005717 -0.021197 0.571844 0.260824 -0.298316 -0.536044 0.111040 -0.175862 -0.065372 0.013616 0.388341 0.398881 -0.245121 -0.409758 -0.546983 -0.078199 -0.244464 0.125816 0.142942 0.603461 0.058298 -0.077862 -0.221550 -0.212425 -0.335134 0.295332 0.085752 -0.291954
sheikh 0.175878 0.341271 -0.311247 0.347448 0.133395 0.250488 -0.276506 0.199235 0.158819 0.376614 0.207099 0.036925 0.096255 -0.047142 -0.169315 -0.014138 0.209901 -0.195193 -0.115274 0.005164 0.149339 -0.276384 -0.171624 -0.160804 -0.176399 -0.007273 0.234638 0.221569 -0.332896 0.154095 -0.020341 -0.059481 -0.080939 0.113249 -0.319781 -0.102203 0.179552 -0.045418 -0.005228 -0.150918 0.115787 -0.035213 -0.055613 0.353123 0.082276 0.066037 0.013760 -0.222220 -0.019566 0.104440
pilgrim -0.200301 -0.411666 -0.295979 0.470565 -0.590460 -0.252775 0.001416 0.116345 -0.271797 0.340369 -0.101879 0.279077 -0.589792 0.293370 0.170558 0.299199 0.611360 0.274436 -0.442928 -0.223762 -0.260166 0.163239 0.124162 -0.068121 0.144939 0.004955 -0.186511 0.255788 0.687603 -0.073699 0.165536 -0.821832 0.377954 -0.061628 0.340316 -0.034548 -0.088542 0.195578 0.059205 0.133164 -0.251769 -0.136011 -0.236419 0.421053 -0.442661 0.691779 -0.232899 -0.373489 0.201274 0.645554
school -0.033070 -0.172879 -0.441642 0.360251 -0.091876 -0.108883 -0.416124 0.099990 0.156827 0.065329 0.211339 -0.277001 0.027856 0.020301 -0.025434 0.042050 0.695676 0.054317 -0.154917 -0.027247 0.035820 -0.205518 -0.042019 0.234794 -0.027528 0.052236 0.165614 -0.001218 0.213104 -0.095106 -0.013925 0.119216 -0.059054 0.335713 0.227280 -0.014185 -0.128544 0.012658 0.084615 0.014657 -0.157001 0.135995 0.003115 0.287612 -0.170351 -0.064297 0.052041 0.069052 -0.219631 -0.028283
bodyguard 0.254241 0.244435 -0.049359 0.279170 0.024287 0.160862 0.064542 0.174353 0.195998 0.574524 0.012443 0.022101 0.024079 0.267803 -0.220584 -0.106788 0.260816 -0.214045 -0.017929 0.481671 0.073646 -0.543308 0.583506 -0.053195 -0.228292 0.156162 -0.116262 -0.150649 0.134930 0.364972 0.163998 -0.177237 0.066080 0.134231 -0.232080 -0.560598 -0.009128 0.315040 0.220793 0.134600 -0.340870 -0.073667 0.142349 0.084654 0.324004 -0.062535 -0.004067 0.004833 0.077245 0.317965
'' -0.089398 -0.584501 0.321810 -0.052128 -0.028766 -0.201649 0.119742 0.127639 0.279524 0.397916 -0.285245 -0.148904 0.004385 0.444319 -0.231410 -0.006475 0.463551 -0.198567 0.169840 0.052152 0.120788 0.092122 -0.123387 -0.035583 0.138760 0.061226 -0.127981 -0.787185 -0.016119 -0.384468 0.056260 -0.252102 0.206572 0.245172 -0.383424 -0.380992 -0.122436 -0.402736 -0.097087 0.583203 -0.280827 -0.281771 -0.004021 -0.629563 -0.171360 0.267103 0.689211 -0.079465 0.123634 -0.033171
soldier -0.055712 -0.223493 0.008136 -0.139196 0.038102 0.033855 -0.088454 0.367831 0.517737 0.232817 -0.067169 0.294347 0.326113 -0.186082 -0.184547 0.202229 -0.216568 -0.321393 0.353699 0.395722 0.158890 0.136799 0.187871 0.188834 0.122811 0.189001 -0.182772 -0.132557 0.151170 0.028529 -0.243106 -0.002836 0.100994 0.353936 -0.127633 -0.005951 -0.174885 -0.223418 -0.178034 0.180484 0.043480 -0.059949 0.183279 -0.213996 0.281029 0.021714 -0.226764 0.241216 0.039460 -0.110151
southern 0.192988 -0.026807 -0.029845 0.187965 -0.109731 0.270486 -0.235898 0.270355 -0.230366 0.223048 -0.094271 -0.188731 0.076850 -0.089602 -0.095023 0.069557 0.102285 -0.027298 0.000849 -0.093782 0.009338 0.047283 -0.089924 -0.134920 0.063188 -0.088863 0.175024 -0.064858 -0.161825 -0.113192 0.174744 -0.100537 0.221369 -0.117210 -0.200130 0.231958 0.080307 0.037200 0.006719 -0.015464 -0.067548 0.063244 -0.161523 0.065254 -0.055788 0.082547 0.118604 -0.110968 -0.008277 0.279197
new 0.246221 -0.324156 0.141121 0.054749 0.017837 0.069163 -0.141629 0.126974 -0.328721 0.011634 0.049243 0.103638 0.296809 -0.046054 0.004537 0.214629 -0.082769 0.171770 -0.125014 0.046353 -0.104983 0.077163 -0.353445 -0.381112 0.511629 -0.147205 0.254831 -0.056462 -0.044218 -0.019348 0.303397 -0.114611 0.129152 -0.095212 -0.107353 0.385685 0.135907 0.151728 -0.284816 -0.080363 -0.232171 -0.023104 -0.093904 0.031210 0.058053 0.058626 0.196047 0.020655 0.116459 -0.140111
chief 0.017132 0.087060 0.077655 0.457122 -0.042042 0.365862 -0.128676 0.250241 0.482772 0.726191 0.049785 -0.019250 -0.269669 -0.022736 -0.162319 -0.177997 0.345300 -0.177232 0.279871 0.206536 0.430214 -0.292179 0.141579 0.131323 -0.090300 0.352874 0.149192 -0.021181 -0.140248 0.190436 -0.006104 -0.014727 0.048959 0.106248 0.104371 -0.243793 0.302170 -0.109932 0.047626 0.184863 -0.129406 -0.211947 0.256351 0.170170 0.354704 -0.433787 0.079617 -0.291828 -0.200593 0.393112
children -0.016825 -0.153153 -0.014732 0.310472 0.036073 0.046803 -0.015638 0.217368 -0.027565 0.270133 -0.000607 -0.085744 0.232246 0.510696 0.059827 -0.025047 0.157128 -0.021346 -0.147775 0.343823 -0.274345 -0.169829 0.526417 0.179773 0.170426 0.316718 -0.279100 -0.178569 0.425785 0.187932 -0.066796 0.132034 0.243944 0.647429 -0.262826 -0.382222 -0.256587 0.343583 0.163293 0.177268 -0.218411 0.116461 0.055675 0.139663 0.084422 0.042350 0.005473 0.098094 0.291955 -0.141322
karbala -0.049145 -0.217849 -0.133088 -0.072451 0.051568 -0.064958 0.130490 0.045684 0.073040 0.165255 -0.007138 0.167707 -0.271055 -0.146356 -0.034914 -0.213077 0.173636 0.112163 -0.150470 0.157090 -0.069067 -0.003532 0.039270 -0.038528 0.033352 -0.029415 0.038386 0.082020 -0.079097 -0.491058 0.055142 -0.348468 0.226168 -0.047386 0.214610 -0.353633 -0.225774 0.104504 0.107217 0.267234 0.194054 -0.082719 0.030777 0.054937 -0.085659 0.240819 -0.005322 -0.008243 -0.087824 0.093996
Reported_Minimum_8_value 0.020437 -0.578887 -0.352042 -0.061238 0.008757 0.409320 0.276825 -0.121702 0.117925 0.125680 0.453368 0.299024 -0.216888 0.475486 0.062638 -0.397789 -0.097967 0.105828 0.134629 0.263171 -0.204740 0.464314 -0.429777 -0.165820 0.323969 0.076351 0.257727 0.603291 0.190247 0.171065 -0.134630 -0.308243 0.319523 0.301092 -0.373233 0.089578 -0.131912 -0.182372 -0.197893 -0.054169 -0.204549 -0.050501 -0.354672 -0.112919 -0.106601 -0.214852 0.364851 -0.417928 -0.480555 0.037597
baiji -0.013631 -0.302373 0.192755 -0.224197 0.028874 0.012611 0.271495 -0.152199 -0.055408 0.213314 0.130049 0.124306 -0.078335 -0.311174 -0.104144 -0.349076 -0.034832 -0.057349 -0.180671 0.218157 -0.063273 -0.072860 -0.088193 0.138079 0.074324 0.232219 0.313734 -0.221968 -0.213310 -0.408971 0.106321 -0.022784 0.185986 0.005040 -0.132275 -0.251527 -0.023141 -0.003139 0.086573 0.107989 0.184694 -0.027566 0.150458 -0.071142 -0.133324 0.024716 -0.034761 0.186152 0.035766 -0.114944
neighbourhood 0.096815 0.147409 -0.139258 0.004616 -0.083164 0.360813 -0.259229 0.261067 -0.206597 0.216021 0.076744 0.008786 0.041279 -0.296688 -0.110878 0.031056 0.104417 -0.130268 -0.039894 -0.105253 -0.142025 0.002564 -0.195978 0.064076 -0.003811 0.070476 0.034889 0.174048 -0.255269 -0.218635 0.006582 -0.232978 0.263145 -0.171308 -0.079415 -0.009671 -0.105958 -0.011211 0.126028 -0.044776 0.196127 0.321413 -0.120685 0.179382 -0.285994 -0.105046 -0.264723 -0.210961 -0.176561 0.136881
muqdadiya 0.038415 -0.268529 0.031550 -0.179752 0.143796 0.039942 0.096450 -0.088083 0.043853 0.139018 0.103503 0.141952 -0.131571 -0.217127 -0.005650 -0.289376 0.087700 0.113205 -0.096682 0.081831 -0.028440 -0.013826 -0.210327 0.095792 0.196052 0.147733 0.072317 -0.084303 -0.256597 -0.370977 0.113602 -0.158773 0.288996 0.180192 0.024948 -0.302508 -0.077318 -0.152546 -0.018475 0.162490 0.156705 0.005064 0.164281 0.101533 -0.201081 -0.020432 -0.031521 0.108869 -0.090497 -0.189063
who 0.048108 -0.363207 -0.170910 -0.215289 -0.364440 -0.453973 -0.274573 0.106727 0.447510 0.302087 -0.101308 -0.296378 -0.143582 0.161128 -0.439422 0.320254 0.470076 -0.186767 -0.044877 0.204479 -0.080572 0.328162 0.134040 0.462995 -0.013464 -0.012393 -0.151127 -0.309488 0.108634 -0.172214 -0.071359 0.061758 -0.026587 0.224780 0.142266 -0.049097 -0.333057 0.308917 0.123280 -0.067220 -0.033149 -0.120632 0.110780 -0.240474 -0.033865 0.530713 0.278707 0.006683 -0.110664 0.223388
outsid -0.022615 -0.117492 0.365771 0.190951 -0.126072 0.432081 -0.194817 0.179000 -0.035159 0.188989 0.175823 -0.019337 -0.090366 0.121531 0.149717 0.133994 0.075460 -0.012586 -0.408239 -0.150012 -0.374737 0.023647 -0.316845 0.500451 0.067696 -0.046124 0.021442 -0.458588 -0.073293 0.076922 -0.128201 0.154282 -0.107105 0.194620 0.113496 -0.364310 -0.321493 0.379324 -0.042492 -0.075288 0.226647 0.028379 -0.147257 -0.324683 -0.027922 0.220667 -0.230268 -0.066135 0.287459 -0.065387
local 0.238946 0.144823 -0.124582 -0.037776 0.069731 -0.307775 -0.016218 0.137943 0.316270 0.427050 0.132328 0.124394 -0.406015 0.089908 -0.476340 0.302556 0.490294 -0.188128 0.074006 0.377747 -0.002831 -0.410711 0.107578 0.259297 0.004105 -0.277065 0.032650 -0.248282 -0.109244 0.131379 0.068870 -0.062210 -0.070855 0.229524 0.047125 -0.269317 0.142198 -0.023817 0.189660 -0.002217 -0.172089 -0.164282 0.067332 0.091118 0.285356 0.148426 0.112140 0.149380 0.120254 0.202844
bab -0.091099 -0.100887 -0.150468 0.256026 0.050685 0.343018 -0.350837 0.175230 -0.575239 0.078587 0.217285 0.347076 -0.112479 -0.298754 -0.009327 -0.156299 0.222022 0.008666 -0.184042 -0.116761 -0.224575 0.243310 -0.687285 -0.225133 0.499049 -0.204546 0.054836 0.266776 0.084232 0.008944 0.267168 -0.476140 0.049885 0.067368 -0.208341 0.145034 0.297521 0.001065 0.045485 -0.285406 0.322332 0.298740 -0.146802 0.238569 -0.454741 -0.401793 -0.194915 -0.154433 -0.240765 -0.049729
