112 100
Sepal_Width_100.0_percentile -0.016735 -0.104382 0.015311 0.119763 0.029869 -0.063031 -0.088337 0.027879 -0.041310 0.019741 0.068194 0.155096 -0.183081 -0.125552 -0.070102 -0.020233 0.000483 0.033926 0.129063 0.086965 -0.235949 -0.036844 -0.032737 -0.119173 -0.063269 -0.026813 0.028351 0.021726 -0.072673 -0.024479 -0.007995 -0.013349 -0.152938 0.058942 -0.046511 -0.033569 -0.007383 -0.068797 -0.194127 0.143308 -0.114941 -0.013203 -0.037659 0.179621 0.096867 0.051346 -0.184881 -0.055558 0.005551 -0.075406 0.062920 0.062120 0.087999 -0.017254 -0.032433 -0.065444 0.046946 -0.075264 0.029063 -0.179217 -0.144074 -0.039021 0.085500 0.003534 0.128910 0.046798 -0.195534 -0.102731 0.049987 0.016475 0.037612 -0.140984 -0.204428 0.030706 -0.015204 -0.140258 0.149422 0.173692 0.011906 -0.082085 0.071780 -0.094903 -0.153401 -0.155116 0.046783 0.167991 0.011530 0.007297 0.044167 0.018472 -0.173928 -0.082964 -0.036863 -0.195336 0.084995 0.176871 0.008235 -0.116450 0.064655 -0.060254
Sepal_Length_100.0_percentile 0.006142 -0.141273 0.020907 0.134202 0.053390 -0.060607 -0.128195 0.012305 -0.026363 0.016495 0.100005 0.202738 -0.238758 -0.158010 -0.111382 -0.021123 0.025455 0.012620 0.168199 0.121139 -0.287179 -0.044664 -0.006183 -0.169478 -0.105707 -0.029615 0.040517 0.007438 -0.105839 -0.003875 -0.026486 -0.023598 -0.193305 0.097938 -0.084597 -0.031270 -0.003527 -0.104874 -0.239398 0.195224 -0.147383 0.031179 -0.045977 0.240933 0.087461 0.060533 -0.230719 -0.104299 -0.034094 -0.116242 0.059285 0.081602 0.106598 -0.025832 -0.047051 -0.105518 0.070021 -0.081605 0.025660 -0.238114 -0.178152 -0.028794 0.142139 -0.000693 0.145594 0.021736 -0.253488 -0.126116 0.067139 0.037676 0.050260 -0.170826 -0.247387 0.070813 0.012348 -0.192096 0.166985 0.204089 0.015777 -0.142549 0.072354 -0.144991 -0.169672 -0.204426 0.078833 0.184171 0.004052 0.032817 0.044805 0.001664 -0.205843 -0.126054 -0.079668 -0.236586 0.101406 0.218009 -0.007356 -0.158597 0.084746 -0.100865
Petal_Length_100.0_percentile 0.009479 -0.030550 0.007110 0.037254 0.009930 -0.004831 -0.034566 0.000762 -0.003953 0.001808 0.039414 0.049849 -0.055634 -0.035008 -0.038420 -0.013081 -0.001270 -0.003648 0.047569 0.034494 -0.059984 -0.018822 0.003376 -0.040495 -0.035287 -0.018925 -0.003047 0.006937 -0.010677 0.013122 0.005086 -0.008429 -0.041360 0.021201 -0.010067 -0.009686 0.011353 -0.017738 -0.051687 0.034521 -0.034074 0.021469 -0.008298 0.047943 0.019007 0.016713 -0.068138 -0.013902 -0.015512 -0.021201 0.020473 0.030186 0.015545 -0.003667 -0.017107 -0.026184 0.010156 -0.023069 0.000146 -0.041210 -0.025013 -0.002494 0.027070 0.004198 0.022771 -0.006657 -0.067867 -0.041692 0.023027 0.010262 0.004685 -0.029300 -0.050048 0.011203 -0.001133 -0.048722 0.028006 0.039239 0.014042 -0.044070 0.014165 -0.028307 -0.033396 -0.052472 0.004163 0.030023 0.008249 0.001645 0.012946 -0.000380 -0.048230 -0.022618 -0.026482 -0.048157 0.035609 0.055587 0.001972 -0.052335 0.019890 -0.024660
Petal_Width_100.0_percentile 0.001711 -0.034968 0.009526 0.030891 0.004122 0.007365 -0.014869 0.002082 -0.014344 -0.005519 0.020924 0.030916 -0.034437 -0.013151 -0.033120 0.007228 0.013448 0.019320 0.006986 0.006783 -0.067951 -0.016388 -0.017231 -0.034856 -0.025477 0.017083 0.001559 -0.018156 -0.008619 -0.003170 -0.024503 0.015724 -0.021419 0.018719 -0.002819 -0.005151 -0.009631 -0.026252 -0.049900 0.059051 -0.024950 0.029131 0.010273 0.054272 -0.007069 0.020470 -0.034409 -0.037653 -0.009950 -0.037623 0.007053 0.008701 -0.000377 -0.025295 -0.007018 -0.010051 0.030093 -0.019762 0.011444 -0.062613 -0.034416 0.013013 0.047076 -0.020368 0.021705 -0.016132 -0.072106 -0.041637 0.010810 -0.016130 -0.001973 -0.018414 -0.054364 0.000536 0.003070 -0.044140 0.028579 0.022022 0.002962 -0.025139 -0.003162 -0.037796 -0.012134 -0.026498 0.025860 0.005650 0.024732 0.026762 -0.002825 -0.012099 -0.036483 -0.037248 -0.027822 -0.047614 0.027359 0.031515 0.006956 -0.027369 0.013436 -0.002499
virginica -0.007179 -0.000775 0.000192 0.015534 0.007382 -0.004234 -0.006718 -0.002420 -0.007008 0.004813 0.009841 0.014984 -0.015424 -0.009432 0.002669 -0.001216 0.000160 -0.000333 0.010111 0.004230 -0.013780 -0.002290 -0.009546 -0.006617 -0.007702 -0.001683 -0.006865 0.005949 -0.002598 -0.002282 0.003969 -0.003252 -0.006941 0.002531 -0.002232 0.001850 0.004632 -0.003351 -0.007259 0.014247 -0.004919 -0.004593 0.001624 0.008473 0.007068 0.007282 -0.016283 -0.004078 -0.003748 0.003262 0.009654 0.003620 0.002585 0.002619 -0.001247 -0.006512 0.003167 0.002217 0.004256 -0.008087 -0.001957 -0.005379 0.012859 -0.003705 0.012158 0.004863 -0.006761 -0.006198 -0.001117 -0.001235 0.005220 -0.001819 -0.017483 0.008089 -0.007171 -0.010664 0.010500 0.014842 -0.004126 0.001239 -0.002403 -0.005414 -0.008131 -0.003962 -0.005103 0.002438 0.002648 -0.003957 0.007099 0.001776 -0.002577 -0.001277 -0.001993 -0.006917 -0.000851 0.011757 0.008948 -0.013447 0.002668 -0.010263
setosa -0.002906 0.002900 -0.001959 -0.007374 0.005550 -0.005597 -0.001888 0.008632 -0.003441 -0.000628 -0.003935 -0.004288 -0.000246 -0.000616 0.004009 0.004358 -0.000584 0.009385 0.006216 -0.005120 -0.006091 -0.005420 -0.005291 0.004879 -0.003809 -0.008568 0.007401 0.003036 -0.007538 -0.000331 0.006957 -0.010760 0.000856 -0.000956 0.006128 -0.010044 0.002357 -0.004394 -0.010493 -0.001701 -0.011149 -0.016615 -0.014357 -0.000747 0.012441 0.006683 -0.002896 0.010915 0.011995 0.004983 0.000119 -0.008403 0.006406 0.000802 -0.000700 -0.004612 -0.010623 -0.007920 -0.001835 -0.002006 0.001773 -0.003216 -0.011160 0.005202 -0.001840 0.013541 0.005752 0.004020 0.002832 -0.003237 0.003750 -0.006563 0.000081 -0.008201 0.000275 0.000681 0.006859 0.008307 -0.005385 0.004783 0.013927 0.007778 -0.009522 0.003319 0.008364 0.016226 0.003725 -0.006784 0.000401 0.005173 -0.008116 0.003867 0.009714 -0.011828 0.009176 0.004919 0.003961 0.009610 0.000059 0.011241
versicolor -0.016039 -0.017553 0.007508 0.029034 0.014428 -0.016073 -0.022005 0.009346 -0.011913 0.007462 0.026500 0.035349 -0.048366 -0.026790 -0.008494 -0.018081 0.000821 0.008222 0.042967 0.026252 -0.060053 -0.005673 -0.019596 -0.030006 -0.018794 -0.010807 -0.004900 0.011116 -0.014152 -0.009841 0.006998 -0.003735 -0.042207 0.011675 -0.013785 0.002223 -0.002101 -0.013433 -0.043649 0.033050 -0.027981 0.002042 0.003638 0.036480 0.017828 0.008067 -0.053422 -0.017842 -0.008212 -0.009247 0.024317 0.020610 0.024731 0.001412 -0.002378 -0.020189 0.015525 -0.012946 0.014434 -0.037938 -0.022608 -0.011712 0.025040 -0.004058 0.032301 0.005422 -0.038127 -0.034584 0.016174 -0.008000 0.002209 -0.032334 -0.052888 0.012582 -0.000800 -0.033505 0.026154 0.034305 0.005468 -0.016822 0.008304 -0.024651 -0.031805 -0.039247 -0.002156 0.034614 0.002323 -0.011652 0.019512 0.010231 -0.035045 -0.020690 -0.000773 -0.042085 0.019730 0.037699 0.013127 -0.032852 0.010875 -0.025842
Petal_Length_60.0_percentile -0.004046 -0.011063 -0.009341 0.007634 0.009985 -0.015037 -0.013485 0.001618 -0.012072 -0.000446 -0.002388 0.019800 -0.018113 -0.016721 -0.002036 -0.003462 0.004142 0.003841 0.013912 0.004114 -0.021594 -0.003223 -0.001601 -0.015539 -0.007177 -0.008074 0.010206 0.005173 -0.023335 -0.005590 0.000340 -0.010630 -0.013021 0.005033 -0.001534 -0.008860 0.004526 -0.011532 -0.021514 0.006465 -0.024203 -0.010216 -0.019856 0.025557 0.019336 0.009162 -0.017096 -0.002073 0.007185 -0.009089 0.011847 -0.003837 0.010096 0.003433 -0.004093 -0.004421 0.001262 -0.010637 0.000287 -0.017714 -0.021335 0.000346 -0.001838 -0.006935 0.010856 0.015496 -0.022337 -0.008337 -0.002026 0.007113 0.010964 -0.012303 -0.019693 -0.004954 -0.010335 -0.009266 0.023193 0.027432 0.005397 -0.006266 0.018671 -0.002725 -0.022299 -0.019722 0.007942 0.026195 -0.001185 0.006299 0.006518 0.007319 -0.019508 0.001017 0.003762 -0.024678 0.018440 0.022588 -0.005016 0.000920 0.010527 -0.005551
Petal_Width_30.0_percentile -0.005154 -0.018218 -0.009062 0.018092 0.006068 -0.012507 -0.022470 0.012899 -0.006630 -0.001043 -0.000562 0.019710 -0.034510 -0.023678 -0.005158 0.005684 0.002566 0.014987 0.014188 0.007458 -0.044423 -0.007954 -0.009241 -0.019348 -0.018368 -0.005339 0.011145 -0.003416 -0.024779 -0.009035 -0.012790 -0.007511 -0.019286 0.000584 -0.014051 -0.011827 -0.009015 -0.010289 -0.038183 0.028643 -0.026764 -0.010589 -0.020834 0.028615 0.018926 0.009085 -0.021365 -0.013365 0.010952 -0.020952 0.010587 -0.000846 0.007998 -0.012413 -0.011073 -0.011464 0.006969 -0.019409 0.008040 -0.043269 -0.030913 0.003201 0.013139 -0.010281 0.019667 0.008485 -0.039206 -0.012358 -0.000523 0.000119 0.012760 -0.018921 -0.033503 -0.003308 -0.011315 -0.026654 0.030674 0.025632 -0.006208 -0.001860 0.018863 -0.008722 -0.024315 -0.022050 0.015534 0.028279 0.010365 0.005412 0.004875 -0.001251 -0.037476 -0.011406 -0.010222 -0.040099 0.012616 0.024359 -0.005532 -0.006657 0.011159 -0.004424
Petal_Width_0.2_value 0.004144 -0.002053 0.002790 0.004654 0.001199 -0.001509 0.001606 -0.001400 -0.004888 0.004435 -0.008042 -0.000441 -0.005036 -0.009168 0.003098 0.006522 0.000063 0.009657 -0.001627 0.004700 -0.006903 0.003450 -0.000324 0.003005 -0.000717 0.003178 0.008600 0.000476 -0.007504 -0.007424 -0.001466 -0.006544 -0.006153 -0.003040 0.001179 -0.005573 0.000205 0.001295 -0.003969 0.002770 -0.006728 -0.006720 -0.011647 0.004785 0.005739 -0.001841 0.000672 0.003871 0.010314 -0.004684 0.002068 -0.001005 0.001256 -0.000507 0.004383 0.001958 -0.004116 -0.002302 0.004980 -0.003545 -0.008643 0.001320 -0.000475 -0.004987 0.007513 0.004165 -0.003006 0.003583 0.001770 0.006445 0.005580 -0.009838 -0.002340 -0.003117 -0.005443 0.001091 0.012111 0.012660 -0.002792 0.001451 0.011519 0.000739 -0.011393 0.002596 0.008645 0.010964 0.001438 0.004083 0.007025 0.006686 -0.008906 0.005355 -0.001169 -0.008414 0.002411 0.000884 -0.005692 0.006854 -0.001020 0.003998
Sepal_Width_3.0_value -0.000131 -0.001216 0.005351 0.009705 0.003235 -0.003406 -0.005915 0.001707 -0.005101 0.003465 0.008983 0.009451 -0.006782 -0.001155 -0.000929 -0.002128 0.001865 0.009350 0.006076 0.006140 -0.018213 0.001348 -0.000701 -0.010273 0.001809 0.004756 -0.002345 -0.004853 0.000539 -0.007522 0.001458 0.003867 -0.012528 -0.001414 -0.000554 0.000582 -0.005212 -0.004392 -0.011989 0.016252 0.000473 0.003845 -0.000695 0.004643 -0.001409 0.006966 -0.012825 -0.010585 0.001567 -0.001114 0.007305 0.004868 0.005210 -0.007141 -0.003352 -0.005895 0.004021 -0.006080 0.003056 -0.013160 -0.010670 -0.000289 0.006953 -0.001509 0.008564 0.005247 -0.010840 -0.010305 0.000452 -0.004154 0.002476 -0.006142 -0.016132 0.002436 0.002839 -0.011393 0.011989 0.007837 -0.005188 0.002831 0.002212 -0.008475 -0.011807 -0.003792 -0.002308 0.009839 -0.000155 -0.001092 0.001189 0.004519 -0.009729 -0.004045 -0.000599 -0.004769 0.007318 0.011860 0.000670 -0.006998 0.004124 -0.003284
Sepal_Width_2.8_value 0.003185 -0.002129 0.005830 0.006047 -0.001487 0.000018 0.000154 0.001248 0.003489 0.005249 0.002266 0.007572 -0.007054 -0.005012 -0.005669 -0.001010 -0.004970 0.006145 0.004411 -0.003433 -0.009199 -0.002494 -0.006272 0.000223 -0.002487 0.006555 -0.000293 0.002810 0.005260 0.002236 -0.001934 0.003135 -0.000076 -0.001433 -0.000688 0.002483 -0.006650 -0.000277 -0.003699 0.009084 -0.001501 0.006657 0.004021 0.000177 0.001915 0.002384 -0.008683 -0.004829 0.000733 0.002639 -0.004038 0.007817 -0.000803 0.003024 0.000284 0.002737 0.004084 0.000904 -0.000760 -0.003526 -0.000231 0.003184 0.007054 0.001833 0.007839 -0.003075 -0.003818 -0.004527 0.000191 -0.002738 -0.001791 -0.003439 -0.004973 0.000700 0.005115 -0.001993 -0.001396 0.000648 -0.002248 0.002177 0.001680 0.000385 0.000294 -0.004852 -0.003170 0.003572 0.001468 0.003801 0.000959 0.001942 -0.002140 -0.000897 -0.001549 -0.002681 -0.001224 -0.001328 -0.000264 -0.008663 0.006142 -0.005005
Petal_Length_1.5_value -0.000388 -0.001932 0.001930 0.001254 0.004194 -0.005216 0.000250 0.002572 0.001302 -0.000962 0.002051 0.000692 -0.007326 -0.006046 -0.003134 -0.000597 0.004183 0.005697 0.005439 -0.001851 -0.006488 0.003525 -0.002227 -0.001945 0.001848 -0.002570 0.001256 0.005364 0.000357 0.004269 -0.000117 -0.001109 -0.002841 -0.002454 0.000107 -0.004014 -0.003198 -0.005405 -0.007064 0.007370 0.000608 0.001215 -0.003592 0.003691 0.006369 -0.002671 0.001278 0.001822 -0.001520 0.002039 0.001709 -0.004145 -0.001417 -0.004782 -0.003890 -0.006958 0.000199 -0.006585 -0.000435 -0.007845 -0.003560 -0.001192 0.004135 -0.001690 -0.000375 0.006750 -0.003829 -0.006278 -0.003798 0.001901 -0.001102 -0.007003 -0.007723 0.003490 0.004556 -0.007413 0.008827 0.007782 0.000011 -0.005929 0.006241 0.002014 -0.001765 -0.002382 0.003411 0.005360 -0.002261 -0.003348 0.003948 0.005662 -0.002952 -0.000252 0.004185 -0.010615 0.000151 0.003378 -0.004798 -0.000713 0.006867 0.002034
Petal_Width_1.3_value -0.004514 -0.022772 0.003650 0.020713 0.004368 -0.005754 -0.017453 0.006816 -0.008016 0.002234 0.016101 0.030825 -0.039019 -0.024980 -0.013226 -0.005557 0.003285 -0.000200 0.019505 0.012458 -0.042579 -0.011759 -0.006179 -0.028317 -0.018347 0.003008 0.003720 0.004468 -0.009190 -0.007795 -0.005298 -0.003534 -0.030480 0.012804 -0.008358 -0.005491 -0.001480 -0.015545 -0.035470 0.030191 -0.022756 0.009938 -0.003267 0.037287 0.010784 0.014352 -0.032080 -0.017910 -0.008095 -0.015540 0.011060 0.016717 0.017178 -0.003338 -0.005678 -0.012279 0.010781 -0.009809 0.008662 -0.031986 -0.022029 -0.002989 0.021496 -0.003363 0.029186 0.001493 -0.037833 -0.022585 0.010765 -0.001314 0.004850 -0.027902 -0.036774 0.009975 -0.004021 -0.027156 0.020176 0.023345 0.001531 -0.013966 0.002449 -0.026793 -0.019044 -0.026317 0.011814 0.022044 0.003822 0.004335 0.007390 0.002217 -0.026527 -0.018975 -0.012372 -0.035377 0.012951 0.029734 -0.000268 -0.024455 0.015511 -0.013045
Sepal_Width_3.2_value 0.002896 -0.005493 -0.003308 0.003242 -0.000525 0.004457 0.000251 -0.000575 -0.003931 0.001198 0.002016 0.004302 -0.003780 -0.005261 0.000362 -0.002799 0.000792 0.002961 -0.002159 0.002088 -0.004688 0.003512 -0.005314 -0.003227 0.005817 0.005310 0.004999 0.003414 -0.000638 0.002684 -0.003743 -0.003680 0.000065 -0.002587 0.000080 -0.000322 -0.001626 0.000699 0.003452 -0.001383 0.004008 0.001945 -0.004271 0.003844 -0.000815 -0.001486 -0.004951 -0.003429 0.003275 0.002721 -0.002054 -0.001173 -0.003540 0.001967 0.002554 0.002850 0.002562 0.003084 0.004766 -0.000172 -0.003376 -0.000558 -0.004307 0.003698 0.003281 0.004606 -0.003428 0.004111 0.003453 0.003222 -0.004672 -0.002131 -0.004932 0.003559 -0.000918 -0.000019 0.001205 0.001147 0.000083 0.005664 0.004430 0.002579 -0.003034 0.002836 -0.002962 0.004157 0.003521 0.003242 0.000464 -0.000196 -0.004318 0.002836 0.004424 -0.000285 0.004133 -0.002115 -0.000331 -0.001482 0.004891 -0.001842
Petal_Length_1.4_value 0.004473 0.000444 -0.005579 0.004766 0.002316 0.001997 -0.006768 -0.001136 -0.005643 -0.000484 -0.003078 0.006139 -0.003369 -0.002792 0.001035 -0.001360 0.004516 0.000782 0.008518 0.003684 -0.011466 -0.005453 -0.005240 -0.008315 -0.003763 -0.006081 -0.002590 0.003588 -0.006060 0.002211 -0.001104 -0.003136 -0.005221 0.001308 0.001000 -0.003400 0.004029 -0.007757 -0.004429 0.000523 -0.004564 -0.007425 -0.003645 0.001012 0.008912 0.005784 -0.002126 0.003266 -0.002795 -0.006249 -0.001469 0.001473 0.007379 0.004458 0.000654 -0.000909 0.004462 -0.004304 -0.002148 -0.010309 -0.009261 0.002323 -0.001838 -0.002478 0.006482 0.000909 -0.000812 -0.004436 0.001056 -0.000361 0.006408 -0.006096 -0.006921 0.001351 0.004261 -0.009578 0.008214 0.010777 -0.005269 -0.002202 0.002433 0.001539 -0.004901 -0.002636 0.002416 0.008736 -0.002332 -0.005039 0.002154 -0.000715 -0.005737 0.002394 -0.001054 -0.010414 0.001580 0.010278 0.003843 0.001710 0.007065 -0.004094
Sepal_Width_3.1_value -0.002422 0.002453 0.003675 0.005675 -0.000490 -0.003081 -0.005386 -0.001134 -0.005393 0.002822 0.003659 0.001248 0.000123 -0.000715 -0.005553 -0.004059 -0.003423 0.000176 -0.003647 0.002023 -0.003956 0.000680 -0.002398 0.001663 -0.000993 -0.003689 0.003177 0.001173 0.004137 0.003377 -0.005316 -0.001344 -0.006287 -0.000659 0.003374 -0.003681 -0.001342 -0.004418 0.000519 0.007262 -0.004608 0.000940 -0.000994 0.006317 0.004387 0.001945 0.001668 -0.003744 0.003967 -0.001467 -0.001782 0.006345 0.002152 -0.005442 0.003192 0.001612 0.002730 0.001763 -0.001518 -0.001853 0.001334 -0.004679 -0.001021 0.003293 0.003938 -0.000140 -0.005840 -0.004506 0.004474 -0.001819 -0.004562 0.002678 -0.006884 0.003788 0.003784 -0.002501 0.002597 0.001730 0.000705 0.003362 -0.002751 0.001889 -0.000751 -0.005263 -0.003081 0.001688 -0.001749 -0.003453 -0.002946 0.003532 -0.000960 0.002994 -0.002605 -0.000702 0.001353 0.003045 -0.003951 -0.000127 0.005241 -0.000467
Petal_Width_1.8_value -0.003568 -0.007942 0.002788 0.012158 0.004003 -0.003881 -0.010048 -0.000450 -0.002616 0.003302 0.009104 0.004108 -0.015153 -0.008798 -0.004747 -0.000403 0.000054 0.005911 0.008976 0.000660 -0.017028 -0.002738 -0.003799 -0.004645 -0.005988 0.004174 -0.002405 -0.000887 0.000351 -0.005503 -0.004073 -0.002672 -0.003344 0.003247 0.001376 0.002539 -0.004397 -0.006081 -0.011021 0.014538 -0.001524 0.000093 0.002025 0.014563 0.000821 0.000628 -0.009517 -0.004858 -0.004585 -0.003012 0.001555 0.004897 -0.001262 -0.001256 0.000024 -0.005677 0.006606 -0.004354 0.000923 -0.013621 -0.005801 0.003584 0.007043 0.003712 0.010340 -0.001364 -0.015746 -0.008569 0.001666 -0.000463 0.003842 -0.003296 -0.017287 0.001752 -0.000664 -0.010565 0.008159 0.013076 -0.001635 -0.000912 -0.000637 -0.006402 -0.004824 -0.004740 0.005691 0.011154 0.002360 0.006165 0.003496 -0.003589 -0.013787 -0.003393 -0.002359 -0.013023 0.000752 0.011446 0.003072 -0.007001 0.005318 -0.004856
Sepal_Width_3.4_value 0.002537 0.000108 -0.001805 -0.002662 -0.003674 -0.003633 0.001811 0.001216 -0.002902 0.000496 0.002734 0.001734 0.000906 0.001212 0.002472 0.001093 0.002353 0.005475 -0.005260 0.002280 -0.000746 0.001065 -0.003045 0.003427 0.005735 0.004472 0.001238 -0.000945 0.000923 0.003601 -0.003971 0.001658 0.002511 0.003139 -0.001489 0.002131 -0.002305 -0.000898 -0.003191 -0.002182 -0.000545 -0.004035 0.000654 0.000833 -0.001047 0.000259 -0.002291 0.001791 0.000458 -0.002726 0.003214 0.000279 0.003740 -0.004959 0.000689 -0.000715 0.003608 -0.003650 -0.004707 0.000099 0.002500 0.005750 0.000535 -0.003479 -0.002050 0.002291 -0.001380 -0.003102 -0.002318 -0.005298 0.002250 -0.001418 0.003946 0.002099 -0.000839 0.004781 0.004070 0.002713 0.004822 0.005868 0.004378 0.002701 -0.002704 0.002650 0.005010 -0.003927 0.002674 -0.003039 0.004506 -0.000738 -0.001163 -0.002293 0.003350 0.002295 0.000907 -0.003947 -0.003963 -0.003093 0.000359 0.003575
Petal_Width_1.5_value -0.005155 -0.013463 0.004316 0.017854 0.003907 -0.004107 -0.007238 0.002444 -0.000757 0.004835 0.005904 0.021099 -0.024086 -0.011394 -0.013438 -0.003647 0.004025 0.001349 0.014328 0.013284 -0.024780 -0.001320 -0.004159 -0.012700 -0.013791 -0.000772 0.000482 -0.002685 -0.009576 -0.006151 -0.002331 0.000869 -0.018562 0.012308 -0.005643 -0.000589 -0.006139 -0.012848 -0.024888 0.022841 -0.012377 0.008041 -0.003159 0.021079 0.005098 0.008048 -0.017783 -0.008549 -0.003434 -0.013070 0.009329 0.011021 0.004703 -0.000783 -0.005481 -0.004181 0.012031 -0.003652 0.000921 -0.028059 -0.019593 -0.001195 0.014515 -0.001416 0.016495 0.000843 -0.023757 -0.015809 0.008534 0.002637 0.007739 -0.015908 -0.026330 0.009920 0.004222 -0.014494 0.016240 0.016742 -0.002127 -0.013668 0.005917 -0.011730 -0.018445 -0.018890 0.006579 0.010343 0.000350 0.006976 0.002759 0.002741 -0.017685 -0.015767 -0.007474 -0.020429 0.011141 0.023854 0.004652 -0.011280 0.012054 -0.010120
Sepal_Width_2.9_value -0.004447 -0.007140 0.005648 0.009410 0.002537 -0.003340 0.000201 0.004557 -0.004416 0.002921 0.005393 0.013078 -0.013464 -0.010328 -0.007784 -0.002500 0.003859 0.001403 0.007104 0.005637 -0.017202 -0.006896 -0.001931 -0.009684 -0.004871 0.000136 0.002366 -0.004564 -0.002070 -0.008099 0.002325 0.002865 -0.010324 -0.000337 -0.000569 0.003550 -0.004429 -0.001902 -0.014227 0.016577 -0.003573 0.002981 0.004857 0.009168 0.007530 0.005505 -0.008419 -0.005837 0.003250 -0.003474 0.000015 0.005645 0.001931 0.001097 -0.004826 -0.005164 0.000887 -0.004692 0.003451 -0.012069 -0.005367 -0.002824 0.007406 0.002354 0.010019 0.002575 -0.016229 -0.008362 0.004275 -0.005353 -0.003700 -0.011558 -0.014725 -0.002861 0.000708 -0.013365 0.006109 0.007946 -0.003902 -0.005878 -0.003019 -0.002484 -0.006782 -0.010217 -0.002180 0.006316 0.001840 0.005991 -0.000246 0.001637 -0.008528 -0.010230 -0.003434 -0.008588 0.000573 0.010984 -0.003612 -0.012850 -0.000413 -0.003741
Sepal_Length_5.0_value 0.003690 -0.002024 -0.001986 0.007802 0.005908 0.000539 -0.003804 -0.003413 -0.006454 -0.002606 -0.002495 0.008747 -0.004190 -0.005395 -0.001448 -0.000409 0.005418 0.002039 0.006996 0.007122 -0.010214 -0.005592 0.002482 -0.001545 -0.003574 -0.002472 -0.002035 -0.001395 -0.008809 0.002249 -0.004096 -0.000580 -0.006575 -0.002572 -0.000493 0.000401 -0.001315 -0.003588 -0.013036 0.002342 -0.004433 -0.004868 -0.006828 0.009713 0.000070 0.004267 -0.005277 -0.000339 -0.001685 -0.003522 -0.001810 -0.001219 0.000535 -0.000553 -0.000103 -0.002437 -0.002565 -0.007002 0.000679 -0.012794 -0.004083 0.000653 -0.000638 0.003370 0.004351 0.007056 -0.012382 0.000010 -0.002928 0.006129 0.001278 -0.003905 -0.005212 0.003313 0.001279 -0.010747 0.003828 0.010543 0.003388 -0.000766 -0.000439 -0.007696 -0.010654 -0.002623 0.003167 0.009899 -0.002402 0.002579 0.001319 0.005782 -0.009604 -0.006268 -0.001015 -0.007208 0.000435 0.007362 0.001809 -0.006931 0.005657 -0.001978
Sepal_Length_6.3_value -0.003832 -0.012232 -0.000371 0.007314 0.005164 -0.003672 -0.005527 -0.002571 -0.000261 -0.001502 0.008815 0.012179 -0.020869 -0.012839 -0.006615 -0.001029 0.002425 -0.002356 0.011575 0.012280 -0.016889 -0.002739 0.003254 -0.007807 -0.007807 -0.005547 -0.002828 -0.005100 -0.006729 -0.001145 0.002324 -0.003941 -0.007604 0.009077 -0.001522 -0.000328 0.001816 -0.007392 -0.020796 0.013609 -0.009847 0.006169 -0.002092 0.016283 0.000293 -0.000051 -0.013300 -0.010028 0.001318 -0.011288 0.002332 0.005960 0.007934 -0.002967 -0.007097 -0.009054 0.005854 -0.003081 0.004755 -0.020571 -0.016287 -0.000375 0.014766 -0.006506 0.011353 0.001613 -0.019030 -0.005799 0.005551 -0.004113 0.002621 -0.006163 -0.014378 0.006283 0.002591 -0.013683 0.008286 0.013414 0.002446 -0.011135 0.006565 -0.013524 -0.007169 -0.015114 0.007821 0.008562 0.005124 0.001948 0.000008 0.001796 -0.014657 -0.006754 -0.004340 -0.018612 0.003954 0.011142 -0.003186 -0.012806 0.001120 -0.010637
Sepal_Width_2.7_value -0.003222 0.002934 -0.003601 0.006376 -0.000090 -0.001037 0.004857 -0.004126 0.000192 -0.004130 0.002150 -0.002066 0.000100 0.004682 0.002800 -0.001223 0.001796 0.003279 0.000060 0.000876 -0.005531 -0.001500 -0.004645 0.001327 -0.000177 0.000794 0.003170 -0.000229 0.000564 -0.003267 -0.005011 0.000926 -0.005913 -0.001770 -0.000259 0.005680 -0.004987 0.001393 -0.000940 0.005231 -0.002666 -0.002465 0.001005 0.003910 -0.003853 0.003044 -0.003593 -0.004760 -0.005332 -0.001398 -0.001052 0.003343 -0.004092 -0.004216 -0.005159 -0.003721 0.003137 -0.000892 -0.001309 -0.000895 0.003924 0.003099 0.003918 0.004358 -0.002727 -0.005178 -0.002346 -0.003221 0.004988 -0.001013 -0.000224 0.003402 -0.002891 0.004507 -0.001955 -0.003456 -0.001583 0.000364 -0.003063 0.001567 -0.004971 -0.005542 0.003422 -0.003792 -0.001846 0.000218 0.000588 -0.003893 0.003622 0.004310 0.002527 -0.003881 -0.000755 -0.001799 0.000299 0.005649 -0.001560 -0.000419 -0.001225 0.001743
Sepal_Length_5.1_value 0.000079 -0.002404 -0.000611 0.009818 0.006601 -0.007954 -0.005512 0.004556 -0.004011 0.002811 0.001649 0.003929 -0.011296 -0.008654 -0.002051 0.004191 0.003325 -0.000092 0.008377 0.000033 -0.013265 -0.004898 0.001233 -0.004822 -0.006023 -0.004777 -0.001121 -0.002383 -0.007900 0.003165 -0.004944 -0.005532 -0.008714 0.003916 -0.006967 -0.005296 0.003337 -0.002868 -0.012073 0.003519 -0.009201 -0.003298 -0.002259 0.007988 0.006486 0.002142 -0.010017 -0.000187 -0.002883 -0.005549 0.003574 -0.000157 0.005969 0.002718 -0.006130 -0.007214 0.002073 -0.001506 0.002557 -0.015139 -0.009671 0.001365 0.006057 -0.001218 0.001047 0.003532 -0.010312 -0.002463 0.000859 0.004663 0.000820 -0.003203 -0.014551 0.004041 0.002541 -0.005847 0.012312 0.006257 -0.000970 -0.006924 0.008383 -0.002019 -0.004117 -0.008968 0.000867 0.013445 0.000521 0.003955 0.003636 -0.002425 -0.005755 0.001137 0.002515 -0.012745 0.009429 0.005055 0.003851 -0.008856 0.002817 0.000815
Sepal_Length_5.7_value 0.002936 -0.023444 0.003116 0.017129 0.011058 -0.013303 -0.017292 0.003674 -0.002002 0.006494 0.012654 0.027836 -0.034705 -0.025462 -0.019694 -0.006097 -0.000710 0.003502 0.024274 0.015795 -0.040695 -0.006199 -0.003676 -0.029450 -0.017581 -0.007215 0.004554 -0.004756 -0.019219 -0.001030 -0.002834 -0.001242 -0.030961 0.009198 -0.008782 -0.002475 -0.004865 -0.013237 -0.034614 0.027266 -0.023175 -0.000249 -0.005086 0.040583 0.015959 0.014770 -0.031882 -0.016780 -0.001473 -0.013315 0.008593 0.006938 0.014381 -0.007018 -0.010254 -0.010471 0.008107 -0.011424 0.001846 -0.034553 -0.029763 -0.000706 0.023369 -0.000915 0.019991 0.003077 -0.041951 -0.024412 0.009099 0.006173 0.007351 -0.022912 -0.038494 0.003967 0.003632 -0.033784 0.028123 0.029585 0.004266 -0.015366 0.012171 -0.017955 -0.024774 -0.033783 0.010671 0.022556 0.006568 0.007768 0.007673 0.003097 -0.032328 -0.020386 -0.009845 -0.037713 0.019471 0.028844 0.001380 -0.024577 0.010466 -0.015859
Sepal_Width_2.5_value 0.000983 -0.008906 -0.001550 0.011174 0.005557 -0.001747 -0.001836 -0.000450 0.002336 0.003260 0.005581 0.001557 -0.004597 -0.001914 -0.000917 0.000987 -0.003654 0.004785 0.000818 0.005314 -0.016097 0.001119 -0.003337 -0.008054 -0.000246 -0.001566 0.004055 -0.002710 0.003026 0.002352 -0.002764 0.004507 -0.003333 0.001137 -0.002859 -0.002459 0.003494 -0.005203 -0.003881 0.007320 0.000571 0.003763 -0.002910 0.008026 0.004656 0.001418 -0.013220 -0.005622 0.003555 -0.007180 -0.001220 0.005729 0.003481 -0.001487 -0.002569 -0.001327 0.006621 -0.004777 0.005413 -0.008947 -0.006113 0.000556 0.002585 0.004156 0.008779 0.002456 -0.011048 -0.003746 -0.000061 0.002073 -0.004203 -0.008778 -0.009678 0.003739 -0.000413 -0.002626 0.010690 0.006090 0.002289 -0.002226 0.002935 -0.007444 -0.009745 -0.001409 0.003886 0.003734 0.001855 -0.001149 -0.001424 0.000136 -0.008753 -0.009145 -0.002871 -0.003354 0.005920 0.007834 -0.000835 -0.008445 0.007267 -0.002125
Petal_Length_4.5_value -0.005239 -0.017328 0.002213 0.015972 0.004844 -0.008285 -0.016430 0.004649 -0.005589 0.001904 0.014526 0.022736 -0.026854 -0.019879 -0.012669 -0.002350 0.007760 -0.000314 0.014401 0.009396 -0.034517 -0.009225 -0.003714 -0.020134 -0.008397 0.000356 -0.000727 0.003714 -0.014756 0.001353 -0.001978 -0.005775 -0.016407 0.013721 -0.004501 -0.004498 -0.003005 -0.005963 -0.022583 0.017454 -0.017197 0.006838 -0.003806 0.023516 0.011342 0.004446 -0.029854 -0.014300 0.001114 -0.010977 0.003972 0.010589 0.012246 -0.001998 -0.009075 -0.013585 0.011922 -0.005916 0.000288 -0.027940 -0.018276 0.000819 0.013199 -0.005623 0.014653 0.005918 -0.030170 -0.018646 0.002407 0.000521 0.000096 -0.016261 -0.025678 0.006758 0.003015 -0.021306 0.019732 0.018761 0.003984 -0.014188 0.008844 -0.016206 -0.017098 -0.025686 0.007870 0.014397 -0.001602 0.003054 0.005734 -0.001423 -0.024730 -0.011295 -0.003957 -0.023122 0.006557 0.026038 -0.004067 -0.017778 0.013334 -0.012803
Sepal_Length_6.7_value 0.001435 -0.010734 -0.002524 0.019864 0.001551 -0.004126 -0.015845 0.001643 -0.008060 0.004794 0.013656 0.020727 -0.028592 -0.019580 -0.013977 0.002926 0.000052 0.004814 0.013661 0.008316 -0.031618 -0.007002 -0.007611 -0.011656 -0.010946 -0.000972 0.002678 -0.004605 -0.009604 -0.000345 -0.000931 -0.001072 -0.022637 0.009874 -0.005645 -0.002574 0.003448 -0.010546 -0.022386 0.017275 -0.016814 0.007036 -0.008276 0.020353 0.010486 0.004098 -0.025494 -0.008713 0.001259 -0.014433 0.008833 0.004500 0.007487 -0.005326 -0.000787 -0.008431 0.005975 -0.012231 0.001960 -0.019238 -0.016750 0.000594 0.013883 -0.002285 0.011751 0.004739 -0.027434 -0.018652 0.007949 -0.002156 0.007170 -0.019782 -0.024802 0.006114 0.005210 -0.023739 0.018103 0.015622 -0.002287 -0.007889 0.008859 -0.016760 -0.011981 -0.023382 0.007383 0.011498 0.007383 0.004512 0.005129 -0.001889 -0.015939 -0.011886 -0.012946 -0.026530 0.009407 0.016582 -0.001565 -0.018458 0.003334 -0.007225
Petal_Width_2.3_value -0.000179 0.000757 -0.003854 0.006101 0.002438 0.003094 -0.002498 0.002169 -0.001919 0.003825 0.005339 0.000717 -0.009145 -0.006539 -0.006800 -0.003322 -0.000524 0.002437 0.001761 0.002436 -0.003845 0.002260 0.000912 -0.000687 -0.004664 0.002912 0.003815 -0.005017 -0.001443 -0.002699 -0.000923 0.001645 -0.006811 0.005596 -0.003423 0.002019 0.003476 0.002156 -0.000553 0.007556 -0.001177 0.002750 0.000229 0.003954 -0.003934 0.004321 -0.007021 -0.005189 0.001584 -0.000935 0.005468 -0.001107 0.000151 -0.000329 -0.002758 -0.003676 0.002177 -0.005752 -0.003870 -0.002108 -0.008377 0.001879 0.003858 0.004245 0.006713 -0.001449 -0.007954 -0.007738 0.000179 -0.003284 -0.001216 -0.002310 -0.002955 -0.002638 0.003516 -0.001097 0.000449 0.001073 0.002858 -0.007861 0.000069 -0.008396 0.000150 -0.009137 -0.002525 -0.000177 0.006029 0.000405 -0.003240 -0.002981 -0.005129 -0.003883 -0.006362 -0.009766 0.005390 0.002162 -0.003546 -0.005795 0.001134 -0.002067
Petal_Width_1.4_value 0.001489 -0.018698 0.005035 0.016696 0.007553 -0.006809 -0.012374 0.002744 -0.001210 0.007955 0.011548 0.027217 -0.025697 -0.016025 -0.013416 -0.007434 0.006356 0.003377 0.014782 0.010542 -0.033702 -0.006581 -0.009095 -0.018556 -0.017664 0.001297 0.003833 0.004161 -0.013501 -0.007106 -0.001795 0.002408 -0.022364 0.012784 -0.006569 -0.000035 0.003125 -0.015374 -0.029806 0.022968 -0.014907 -0.000129 -0.007693 0.034323 0.010354 0.011819 -0.033690 -0.017051 0.000940 -0.009922 0.004248 0.011847 0.012311 -0.007701 -0.006341 -0.011522 0.005125 -0.009940 0.007518 -0.026567 -0.027385 -0.000682 0.017565 0.000568 0.021311 0.007601 -0.031247 -0.020818 0.012662 0.004036 0.000630 -0.015395 -0.037643 0.005982 0.003388 -0.021949 0.023712 0.025756 -0.000713 -0.010125 0.011126 -0.013062 -0.021773 -0.026500 0.010577 0.023667 0.003734 0.004077 0.008789 0.003761 -0.022234 -0.018663 -0.012056 -0.027624 0.012935 0.024392 0.000738 -0.017951 0.012592 -0.007293
Petal_Length_5.1_value 0.002993 -0.008323 -0.004000 0.009245 0.007273 -0.002383 -0.003665 -0.001706 -0.001955 0.000315 0.002599 0.010981 -0.005289 -0.006050 -0.004715 -0.000306 0.003824 0.001185 0.005952 0.000816 -0.013941 0.001652 0.001898 -0.002486 -0.009780 -0.000766 0.001238 -0.005103 -0.001930 0.001731 0.000049 0.003322 -0.006527 0.007254 -0.005579 0.002428 -0.001367 -0.001719 -0.009747 0.013081 -0.006166 0.005206 -0.006532 0.013568 0.000222 0.004605 -0.005660 -0.001103 -0.003355 -0.005639 0.002505 0.004192 -0.001624 -0.002782 -0.003951 -0.006133 0.003452 -0.004783 0.001799 -0.013166 -0.008274 -0.005236 0.001754 -0.001593 0.001283 -0.000366 -0.012821 -0.008548 0.001385 -0.002517 0.002654 -0.009495 -0.015073 0.005537 -0.000868 -0.010805 0.009530 0.009855 0.001600 -0.006856 0.003709 -0.005810 -0.002185 -0.009039 0.000168 0.006825 0.005322 0.003197 0.004851 0.002672 -0.005503 -0.009594 -0.006801 -0.012682 0.007290 0.008049 0.002955 -0.004174 0.006428 -0.006420
Petal_Width_0.4_value -0.000906 0.003107 -0.005733 -0.003011 -0.003840 -0.004384 -0.002550 -0.001504 -0.001310 0.000362 -0.002194 0.000869 -0.001448 0.004334 -0.003694 0.001833 -0.001052 0.000616 -0.004497 -0.003673 0.004918 0.005274 -0.001564 0.002950 0.004679 0.003620 -0.004060 -0.004220 -0.003630 0.003655 -0.003712 -0.001142 0.005599 -0.000538 0.002511 -0.002326 0.002027 0.003898 -0.003792 0.000637 0.005319 0.001500 -0.002859 0.001657 -0.003430 -0.000933 0.005756 -0.000901 -0.001406 -0.003204 -0.004843 0.000948 -0.003335 -0.001975 0.000250 -0.003661 0.000000 -0.003596 0.000717 0.003436 -0.003514 -0.000664 0.000016 -0.000900 -0.005410 0.000911 0.003222 0.001052 0.003835 0.001256 0.004183 -0.002883 -0.001914 0.002091 -0.001618 -0.001736 0.003999 -0.002105 0.002825 0.003437 0.004421 0.002594 0.002773 -0.000628 -0.002567 0.004055 -0.001078 0.004383 0.001574 0.001838 -0.003119 0.006047 0.000571 0.001661 -0.001209 -0.003589 0.003730 0.002358 -0.005323 0.001981
Sepal_Length_6.4_value 0.002688 -0.002278 0.002648 0.007884 -0.000843 -0.002392 -0.006882 -0.002217 -0.000959 -0.001044 0.009143 0.012826 -0.012976 -0.010388 -0.007822 -0.000493 0.003479 -0.001877 0.004120 0.007847 -0.013889 -0.001176 -0.004295 -0.011235 -0.005217 -0.000499 -0.002935 0.000605 -0.003474 0.001039 -0.005171 0.002287 -0.010369 0.004007 0.000014 -0.005751 -0.001905 -0.000702 -0.006852 0.010414 -0.002410 0.006496 0.002376 0.014074 -0.001419 0.004619 -0.007950 -0.004249 0.001124 -0.009841 0.005456 0.005808 0.000946 -0.004190 -0.000769 -0.005832 0.006767 -0.003527 0.004469 -0.006098 -0.009429 -0.003948 0.011544 -0.000958 0.011271 0.001519 -0.006991 -0.005809 0.002590 -0.003617 0.000418 -0.010762 -0.015066 0.005314 -0.004513 -0.010536 0.010558 0.010289 0.002124 -0.008512 0.001207 -0.005828 -0.001412 -0.010938 0.000638 0.003394 0.004170 0.001777 -0.002559 -0.000382 -0.010999 -0.002654 -0.006107 -0.014861 0.005081 0.012259 -0.000688 -0.004785 0.003654 -0.003840
Petal_Width_0.3_value 0.004895 -0.003017 -0.001806 0.004895 0.003191 0.003102 -0.005193 -0.000732 -0.003523 -0.001818 0.001243 0.002785 -0.001205 -0.002625 0.001126 0.000855 0.000447 0.002548 -0.000607 0.003359 -0.004325 0.001741 0.004385 -0.005197 0.002265 -0.004061 0.001816 0.001524 -0.004127 0.003229 0.000949 -0.003551 0.001526 -0.004179 0.000437 -0.005328 0.000449 -0.002850 -0.000266 0.002441 -0.001381 -0.000052 0.001190 0.004182 0.002906 -0.000346 -0.001222 0.004397 0.003639 -0.004001 0.001306 0.003714 -0.002704 0.003183 0.003369 0.000093 -0.005080 -0.004743 0.004759 -0.005983 -0.002963 0.001131 -0.003703 0.004460 -0.002586 0.001823 0.000241 -0.002618 -0.000320 0.000419 0.003463 -0.000457 -0.001246 0.001017 -0.001439 0.000015 0.003838 -0.001189 0.002834 0.001339 0.007098 -0.002476 -0.002565 0.003578 0.002353 0.004878 -0.000580 0.002078 0.005192 -0.002017 0.001046 0.005146 -0.004319 -0.004970 -0.002802 0.003670 -0.004805 0.005845 -0.000654 0.004866
Petal_Width_1.0_value -0.000833 -0.017507 -0.003451 0.008236 0.002994 -0.002628 -0.015329 -0.002190 -0.007493 0.004962 0.010977 0.015437 -0.023342 -0.014217 -0.005115 0.001011 0.002206 0.002970 0.016296 0.012892 -0.023803 -0.001529 -0.004755 -0.009646 -0.010239 -0.004496 0.004708 0.000747 -0.009940 -0.003015 -0.001986 -0.003417 -0.013253 0.007768 -0.007383 -0.002158 -0.006157 -0.008757 -0.021220 0.016286 -0.015027 0.005528 -0.003510 0.022839 0.003218 0.003866 -0.016430 -0.007508 -0.001389 -0.015984 0.000821 0.001018 0.011002 -0.008219 -0.002901 -0.006930 0.009042 -0.007775 -0.000342 -0.020648 -0.015651 -0.000160 0.014299 -0.004050 0.008155 -0.002101 -0.026128 -0.014603 0.007231 0.001781 0.000080 -0.011230 -0.018113 0.006509 0.001214 -0.014428 0.011895 0.012478 0.002987 -0.005101 0.004059 -0.011107 -0.018453 -0.015708 0.007729 0.012352 0.004029 0.005815 0.007150 0.002536 -0.014141 -0.011651 -0.010580 -0.022997 0.012892 0.015260 -0.003604 -0.010151 0.012100 -0.006863
Petal_Width_40.0_percentile -0.002195 -0.001723 -0.002790 0.002518 0.005195 -0.003799 -0.001941 0.003211 -0.005055 0.004425 -0.000925 0.000267 -0.001561 -0.004367 0.002927 0.004292 0.003637 0.000197 -0.002391 0.001947 0.001126 0.002653 0.001561 -0.002773 -0.001825 -0.002185 -0.001419 0.001576 -0.006462 0.000192 -0.001099 -0.001630 0.000383 -0.004051 -0.002961 -0.004510 0.001311 -0.004285 -0.003251 0.006919 0.000921 0.000757 0.002284 0.000348 0.004525 -0.003832 0.001796 -0.003377 -0.002936 -0.005222 0.002167 0.003905 -0.003350 -0.000978 0.003468 0.003932 0.005470 -0.002989 0.001591 -0.004580 -0.006136 0.002844 -0.001730 0.001170 0.004905 -0.001304 -0.002955 -0.002158 -0.004553 0.002467 0.004050 -0.001328 -0.000420 -0.004822 -0.004043 -0.001239 0.004347 0.005692 0.000749 0.000579 0.003356 -0.004125 -0.006068 -0.004009 0.005180 0.003861 0.002287 -0.001603 -0.001780 0.001601 -0.005605 0.003893 0.002782 -0.007480 -0.001911 0.002193 -0.002410 -0.002747 0.005540 -0.001669
Petal_Length_1.6_value 0.002994 -0.002184 -0.000370 0.003734 0.007400 -0.005054 -0.005952 0.001962 -0.001979 0.002395 0.004048 0.002928 -0.006551 -0.003868 -0.004419 0.004542 -0.000483 0.003332 0.010034 0.007935 -0.012267 0.003057 0.003305 -0.007506 -0.007626 -0.003466 0.006401 0.004292 -0.007931 -0.002732 -0.003012 -0.006757 -0.009342 0.002925 -0.002412 -0.003575 0.000208 0.000224 -0.004018 0.003224 -0.009053 -0.006512 -0.006591 0.004259 0.000204 -0.001164 -0.003647 0.002482 0.002959 -0.005876 0.003626 0.003535 0.003043 0.000343 -0.000932 0.000517 0.003576 -0.006113 -0.001851 -0.006722 -0.009500 0.000569 0.000303 0.003560 0.002480 0.006320 -0.010206 -0.002517 -0.002104 0.000807 0.001466 -0.010340 -0.011780 0.003926 -0.001435 -0.003091 0.009205 0.007081 -0.000408 0.001496 0.009216 -0.003051 -0.004568 -0.003111 0.003421 0.007885 0.002837 -0.000350 0.001923 -0.002823 -0.003338 -0.002595 0.000160 -0.013610 0.003831 0.004372 -0.001775 -0.002125 0.006467 -0.004252
Sepal_Length_5.5_value 0.001401 -0.014737 0.005586 0.016145 0.011230 -0.006960 -0.014680 0.003735 -0.000966 0.000236 0.016297 0.026507 -0.028456 -0.023253 -0.018282 -0.007252 0.006706 0.004815 0.024575 0.014914 -0.039199 -0.007751 -0.001237 -0.019211 -0.012679 0.000877 0.006690 0.005976 -0.012669 -0.000846 -0.001690 -0.004386 -0.030220 0.014173 -0.007386 -0.008677 -0.004205 -0.011368 -0.032048 0.023760 -0.024352 0.003526 -0.010427 0.028734 0.012157 0.004730 -0.031929 -0.017861 -0.006950 -0.010364 0.009595 0.012239 0.012050 -0.001527 -0.002170 -0.009246 0.009576 -0.008536 0.006613 -0.027746 -0.026390 -0.003022 0.013961 0.002724 0.024799 0.004060 -0.033291 -0.015375 0.005730 0.000976 0.003999 -0.021330 -0.030094 0.006878 -0.004651 -0.024307 0.022992 0.025265 0.000527 -0.012352 0.012734 -0.021407 -0.020574 -0.021113 0.012212 0.026157 0.000796 0.000129 0.010268 0.002140 -0.028430 -0.013447 -0.007182 -0.031111 0.010673 0.032357 0.002697 -0.022562 0.007227 -0.008154
Petal_Width_70.0_percentile -0.001600 0.007895 -0.003893 -0.013183 -0.000396 0.007449 0.003431 -0.001598 0.004080 -0.001665 -0.009082 -0.007126 0.019103 0.015240 0.004564 -0.003475 0.001450 0.001135 -0.012370 -0.008482 0.018307 -0.001008 0.003173 0.008671 0.009772 -0.000847 -0.006469 -0.001271 0.008078 0.001062 -0.001335 0.003081 0.016313 -0.006479 0.001918 -0.001354 0.004480 0.003683 0.010892 -0.009294 0.014470 0.001711 0.003397 -0.012169 -0.010747 -0.003706 0.013598 0.005430 0.002257 0.008318 -0.000894 -0.005424 -0.009006 -0.001388 -0.002664 0.007390 -0.004508 0.002591 -0.004961 0.011932 0.008501 -0.000743 -0.010814 0.001135 -0.006477 -0.006123 0.018765 0.008676 0.000453 0.002932 -0.001789 0.013615 0.011558 -0.005645 -0.000384 0.009476 -0.013210 -0.018619 -0.001354 0.000833 -0.008539 0.008587 0.007268 0.008601 -0.009385 -0.011488 0.002185 0.003793 -0.002458 -0.004312 0.010986 0.005520 0.007092 0.017530 -0.009535 -0.013008 -0.000934 0.011114 -0.009186 0.001314
Sepal_Length_5.8_value -0.004105 -0.010050 -0.001976 0.012237 0.005395 -0.002541 -0.015089 0.003366 -0.005426 -0.002654 0.012143 0.018598 -0.028527 -0.013528 -0.010099 0.000540 0.000037 -0.002381 0.021444 0.014756 -0.035998 -0.003071 -0.005081 -0.018776 -0.008990 0.001888 0.000750 0.000897 -0.011707 -0.000409 -0.001883 -0.000698 -0.020382 0.011376 -0.009344 -0.006484 0.003958 -0.009995 -0.030083 0.017176 -0.013984 0.005749 -0.001536 0.024479 0.010139 0.009813 -0.020166 -0.006528 -0.004204 -0.007233 0.003332 0.012754 0.010834 -0.000844 -0.001942 -0.012277 0.011265 -0.011009 -0.000824 -0.022422 -0.014708 0.001473 0.013553 -0.002655 0.013339 0.002434 -0.022254 -0.014392 0.004295 -0.000539 0.009093 -0.015427 -0.024774 0.007608 0.001427 -0.025071 0.016508 0.017489 -0.000237 -0.011523 0.003341 -0.010669 -0.019028 -0.024973 0.003651 0.015208 0.003765 0.007405 0.007968 -0.000390 -0.018592 -0.009326 -0.012170 -0.027366 0.013259 0.020393 0.004346 -0.019188 0.011964 -0.010877
Petal_Length_1.3_value 0.000549 -0.000820 0.001465 0.003162 -0.000307 0.002574 -0.005147 -0.000258 -0.000741 0.003435 0.001719 0.006244 -0.009338 -0.004631 -0.001303 -0.002268 0.000794 0.000115 0.008085 0.001838 -0.006179 0.000014 0.000417 0.000217 -0.002080 -0.001026 0.001041 0.005093 -0.001726 0.003649 0.001613 -0.002403 -0.002171 -0.002404 -0.004192 0.000044 -0.004599 -0.000132 -0.003303 0.001090 -0.007806 -0.004595 -0.000866 0.007538 -0.000762 -0.003200 -0.004864 0.000101 0.001842 -0.004860 0.004667 -0.003441 0.006526 0.003221 0.003140 -0.005738 0.002843 -0.001582 -0.000309 -0.006914 -0.003621 -0.002089 0.002323 -0.000593 0.004616 -0.000495 -0.007971 -0.004702 0.004471 0.002042 0.001850 0.000878 -0.000894 0.003364 -0.002488 -0.002668 0.004452 0.009641 -0.004733 0.000727 0.007126 0.000137 0.000512 -0.003364 -0.001997 0.009780 -0.003941 -0.005104 0.000613 -0.002486 0.000528 -0.005876 0.004375 -0.010120 -0.000439 0.006053 0.003545 -0.005465 0.003985 0.004075
Sepal_Length_6.1_value -0.003361 -0.012871 -0.003037 0.014676 0.010540 -0.005124 -0.010488 0.003125 -0.000950 0.005686 0.009622 0.018331 -0.024753 -0.017829 -0.016041 -0.000853 -0.001577 -0.000199 0.021023 0.007171 -0.035345 -0.010452 0.001929 -0.017821 -0.015303 0.001969 0.003473 -0.000518 -0.010472 -0.003431 -0.005451 -0.003165 -0.023313 0.010706 -0.005890 -0.008038 0.004093 -0.009069 -0.024120 0.025904 -0.021085 0.003291 -0.005170 0.028789 0.008324 0.009521 -0.023591 -0.009962 -0.002332 -0.016875 0.009464 0.011395 0.014292 -0.006719 -0.008551 -0.012342 0.006769 -0.005947 0.004715 -0.025212 -0.020809 -0.005956 0.012879 -0.003290 0.013292 0.005164 -0.028449 -0.013507 0.006725 -0.002303 0.002383 -0.017817 -0.031799 0.002199 0.002858 -0.020326 0.017139 0.025669 0.000264 -0.010692 0.008836 -0.015115 -0.020590 -0.021118 0.012727 0.016669 0.006380 0.008309 0.003236 0.001796 -0.018387 -0.018243 -0.005311 -0.030297 0.014809 0.025274 -0.001363 -0.020670 0.011119 -0.006469
Sepal_Width_3.5_value -0.003435 0.001770 0.001150 -0.001700 -0.005063 0.000005 0.000488 0.003325 -0.002848 -0.001347 -0.004287 0.000406 0.006467 -0.002515 0.004278 -0.002053 -0.004459 -0.002606 0.002536 0.003192 -0.001070 0.004945 0.003377 0.000579 0.000623 0.001864 -0.002744 -0.005289 -0.002613 -0.005531 0.001222 0.000446 -0.000662 0.001761 -0.003102 -0.002965 -0.002677 -0.002531 -0.003319 0.002522 -0.003781 0.000999 -0.004685 -0.006003 0.000467 0.003757 0.005538 -0.000956 -0.003368 0.002976 0.002879 0.002531 0.000988 0.002609 0.004519 0.000610 0.000108 -0.000271 0.002151 0.002425 0.000557 0.004085 -0.001271 0.002640 -0.002919 -0.002807 0.005582 0.003425 -0.003005 0.000481 0.004673 -0.003743 -0.002587 -0.000136 -0.003527 0.004105 0.000570 0.000735 -0.004008 -0.002472 0.001915 0.000384 -0.003930 0.000145 0.002265 -0.003488 0.004508 0.004779 0.004448 0.002569 -0.000868 0.003468 -0.001572 -0.001226 0.001029 -0.000565 0.003202 -0.000416 0.002063 0.005823
Sepal_Length_5.4_value 0.002052 -0.007058 0.002024 0.004114 0.007609 -0.005715 -0.001603 -0.001587 -0.002442 0.003880 0.006267 0.011455 -0.011830 -0.004995 -0.000568 -0.001139 0.001447 -0.002590 0.006531 0.004812 -0.010371 -0.006185 0.001019 -0.007253 -0.004176 -0.006126 -0.001658 -0.001923 -0.010571 0.000957 0.002396 -0.000822 -0.008442 0.005038 -0.005044 -0.003573 0.000458 -0.001835 -0.015025 0.007729 -0.005245 -0.001274 -0.007429 0.008069 0.001766 0.003337 -0.009298 -0.000569 0.003464 -0.007514 0.005719 0.000943 0.003289 -0.003685 -0.003021 -0.007448 0.001291 -0.008398 0.006193 -0.011802 -0.004638 0.001511 0.005643 0.001780 0.008208 -0.000167 -0.012260 -0.004067 0.000787 -0.003840 0.000242 -0.004935 -0.007818 0.003394 -0.003970 -0.006659 0.009060 0.012630 0.004163 -0.001043 0.005703 -0.002661 -0.006093 -0.006931 0.007614 0.013329 0.005173 0.000481 -0.001918 0.003881 -0.009960 -0.004861 0.000015 -0.016778 0.009183 0.005645 0.002000 -0.005750 0.005481 -0.005005
Sepal_Width_3.8_value -0.002181 -0.002599 -0.002445 -0.003403 0.000263 0.002075 0.003740 0.000519 0.000005 -0.002092 -0.003988 -0.002681 0.001189 0.001225 -0.003270 -0.000510 0.001058 -0.002405 0.003067 0.001670 -0.001215 0.001873 0.004463 -0.000177 0.003458 -0.000661 0.002480 0.003975 0.000196 -0.002774 0.000503 -0.001857 -0.002713 0.001007 -0.003673 -0.000937 0.003809 -0.001887 -0.005108 0.000878 0.002060 0.002740 0.001879 -0.003223 -0.001190 0.005582 -0.004661 -0.000584 0.003930 -0.004925 0.002218 -0.000303 -0.002554 0.003131 -0.003199 0.001275 0.002665 -0.000693 0.001854 -0.005918 -0.003642 0.001248 -0.000936 0.001202 0.004552 -0.002155 0.001976 -0.001685 0.004436 0.001252 0.003627 -0.001287 -0.001281 -0.002366 -0.004430 -0.001933 -0.000864 -0.003040 -0.002258 -0.002980 0.005284 -0.004546 -0.005080 0.001166 0.005463 -0.000504 -0.004211 0.005246 0.002218 -0.001460 -0.002587 0.000751 -0.001422 0.001577 0.003443 0.005787 -0.001944 0.004500 0.000303 0.001729
Petal_Width_0.1_value 0.001613 0.001323 -0.001941 0.001625 0.004192 0.000154 -0.006796 -0.001481 0.003467 0.004195 -0.001367 0.006579 -0.003458 -0.005327 -0.002995 -0.002369 -0.004059 0.000767 0.006349 0.001504 -0.003935 -0.003207 -0.005184 -0.005972 -0.004395 0.002899 0.005825 -0.004425 -0.002777 -0.001719 -0.000253 0.000167 -0.003755 -0.002726 -0.000064 -0.006041 0.003781 -0.000155 -0.007818 0.003259 -0.006422 -0.005017 -0.004109 0.005618 0.004249 0.001414 -0.005003 -0.000561 0.004846 -0.004769 0.003380 0.004067 0.003162 -0.003670 -0.004578 -0.001297 -0.003233 0.001703 0.000642 -0.006049 -0.002503 -0.002882 0.001998 -0.003084 -0.000823 0.001453 0.000284 0.000011 -0.003819 -0.003036 -0.000071 -0.004200 0.000120 0.004456 -0.004981 -0.005705 0.002500 0.000337 0.003686 -0.003950 0.004289 0.003514 -0.003202 0.001174 0.000559 0.006863 0.002674 0.004582 -0.000883 0.003440 0.001072 0.002321 0.003051 0.000532 -0.000866 0.002482 -0.004212 0.002870 -0.000027 0.003529
Petal_Length_5.6_value 0.003302 -0.000756 -0.000643 0.001746 -0.000715 -0.004524 -0.002658 -0.003049 0.004964 0.002663 -0.000152 0.003386 -0.003070 -0.000406 -0.003783 -0.002556 -0.000291 -0.004864 0.004218 0.004785 -0.003745 -0.000465 0.003782 -0.002992 0.000252 -0.000501 -0.001136 0.002510 -0.000724 0.000048 0.004693 0.004652 -0.003356 -0.001927 0.001056 -0.000680 0.002403 0.001839 0.002113 -0.001357 0.004519 0.001001 -0.004057 -0.002636 0.000165 0.000292 0.003420 0.003089 -0.001269 -0.003727 0.000684 -0.001320 0.001704 0.000086 0.003310 -0.004321 -0.001982 0.001089 0.001337 -0.001746 0.003600 0.003285 0.001751 -0.001261 -0.000620 -0.004475 0.003171 -0.003233 -0.003148 0.000216 -0.000296 -0.004704 -0.000032 0.002727 0.000287 -0.005339 -0.003081 -0.003340 0.001103 -0.005440 -0.001448 -0.004568 -0.001018 0.000270 -0.000972 0.003671 -0.000697 0.004962 0.003346 -0.004346 -0.004371 -0.004507 0.000346 0.001221 0.003224 0.001102 0.001615 0.000791 -0.001405 0.000604
Petal_Width_20.0_percentile -0.005146 0.003395 0.000365 0.002450 -0.003598 0.000394 -0.001472 0.003769 -0.005359 0.000896 -0.000320 0.002706 -0.004238 0.003152 -0.001032 -0.001404 -0.002885 0.005410 -0.002187 0.000373 -0.001906 -0.004203 0.003536 -0.006243 -0.004088 -0.004778 -0.000417 0.001269 0.000756 0.003270 -0.001844 0.001425 -0.006613 0.003560 -0.002464 -0.003617 -0.001536 -0.005031 -0.005072 -0.002378 -0.004537 0.002494 0.002030 0.001314 0.001022 -0.002279 -0.004299 -0.001645 -0.003901 -0.002771 0.000866 -0.004525 0.000480 -0.003303 -0.003616 -0.003676 -0.003214 0.003279 -0.002760 -0.002539 -0.005787 -0.002836 0.003014 -0.000253 -0.001501 -0.003205 0.001052 -0.003819 0.004909 0.004232 -0.002583 -0.001731 -0.007283 -0.003490 0.001579 -0.004616 0.007499 0.006245 -0.004630 -0.001581 -0.002509 -0.000604 -0.005848 0.001688 -0.001618 0.002866 0.003008 0.000324 0.000911 0.004123 -0.005133 -0.004569 0.000310 -0.006818 -0.000721 0.000846 0.004589 -0.002402 0.000779 0.003905
Sepal_Length_6.0_value 0.001676 -0.014496 0.001181 0.007910 0.006922 -0.002074 -0.007013 0.001176 -0.004854 0.004373 0.011876 0.013569 -0.015981 -0.009316 -0.005746 -0.000912 0.004980 0.004008 0.011976 0.011866 -0.023351 -0.004182 -0.000387 -0.015806 -0.006040 -0.001343 0.000034 -0.000669 -0.007606 -0.002948 0.002228 0.002394 -0.014821 0.003192 -0.008671 0.001387 0.001887 -0.011215 -0.020153 0.018794 -0.006102 0.001515 -0.005725 0.019953 -0.000221 0.005929 -0.019777 -0.006140 -0.006554 -0.009632 0.000667 0.004105 0.002472 -0.002704 -0.001739 -0.008134 0.010365 -0.002448 0.002773 -0.016110 -0.013619 -0.000987 0.013812 -0.006242 0.010123 0.004353 -0.015073 -0.012869 0.006883 0.001758 0.002909 -0.008855 -0.016649 0.000661 -0.000246 -0.017199 0.012763 0.011051 0.000572 -0.006347 0.006209 -0.006956 -0.010637 -0.009590 0.000054 0.014596 0.000182 0.005879 0.007615 0.003638 -0.011400 -0.007443 -0.001478 -0.016404 0.003136 0.009900 0.004175 -0.016533 0.010380 -0.006553
Petal_Width_2.1_value 0.001842 -0.002363 -0.001119 -0.002074 -0.004417 -0.004187 -0.001562 0.002460 -0.004820 -0.002561 -0.003421 0.005123 -0.003346 -0.003431 0.001706 -0.002426 -0.002045 0.004763 -0.001950 -0.003723 0.001657 -0.002500 -0.001276 0.001329 -0.002297 -0.003875 0.002980 -0.003815 -0.003464 -0.003843 -0.003109 -0.002495 0.000664 -0.003254 0.001252 0.004062 0.001153 -0.002561 0.001280 0.006209 -0.001147 0.001128 0.000918 -0.001415 -0.000807 0.003784 -0.002166 0.003186 0.000832 0.001798 -0.002002 0.001494 0.003858 -0.003825 -0.000129 0.000238 -0.002265 0.000727 -0.004018 0.000557 -0.003319 -0.000429 0.000492 -0.001845 0.006377 0.003788 -0.004671 -0.004861 0.000917 -0.003635 0.001728 -0.004002 -0.006651 -0.004246 0.003739 -0.005529 0.000417 -0.002361 -0.003744 -0.002492 -0.003094 0.000687 -0.005104 0.000624 0.003853 -0.002880 -0.004381 0.000352 0.001321 0.001777 -0.001969 -0.000884 -0.000329 0.000073 -0.002477 -0.002747 0.000244 0.002775 -0.004033 0.000230
Sepal_Length_5.6_value 0.001854 -0.008906 -0.000304 0.011184 0.004964 -0.005218 -0.009394 0.001412 0.000370 0.003717 0.010463 0.011336 -0.022366 -0.008057 -0.006234 -0.005080 -0.002270 -0.002258 0.015956 0.013608 -0.020675 -0.000937 -0.006789 -0.009491 -0.007145 -0.002540 0.001601 0.004191 -0.011540 -0.003894 -0.005610 -0.000076 -0.017587 0.003047 -0.005271 0.001578 0.001515 -0.012467 -0.023140 0.017032 -0.014514 0.005765 -0.004564 0.018561 0.006453 0.009973 -0.021407 -0.004901 -0.004821 -0.012541 0.004159 0.010201 0.002532 -0.006330 -0.002554 -0.008677 0.006470 -0.002547 -0.000510 -0.020734 -0.016539 -0.005414 0.012756 -0.004334 0.015893 -0.003777 -0.016911 -0.010483 0.008742 -0.003860 0.001431 -0.012123 -0.023191 0.004474 -0.004236 -0.015047 0.016657 0.010853 0.004714 -0.008014 0.001272 -0.011695 -0.013864 -0.014312 0.002642 0.011204 0.004902 0.002896 0.005375 0.003657 -0.010939 -0.005607 -0.003079 -0.020977 0.007045 0.015206 -0.002895 -0.017446 0.004553 -0.004260
Petal_Length_70.0_percentile 0.002485 -0.000680 -0.000287 -0.002401 -0.002479 -0.002060 -0.002985 -0.001912 -0.003588 -0.000571 -0.002862 0.000172 0.001429 -0.004243 0.004657 -0.002191 -0.003996 0.002115 -0.003016 0.000234 -0.000830 0.003989 0.003632 -0.000747 0.003476 0.002390 -0.002276 0.002087 0.000565 0.001626 -0.000765 -0.005663 -0.002034 -0.004486 -0.002619 0.002205 0.000026 -0.003638 0.002684 -0.003110 0.000710 -0.003398 -0.005541 0.000456 -0.000405 0.001105 -0.005931 -0.000348 -0.000796 -0.003684 0.003317 -0.003042 -0.000816 -0.004416 0.003066 0.003180 0.004423 0.003168 0.000149 -0.003116 0.001061 0.002434 0.003160 -0.002907 -0.000514 0.003940 -0.003883 -0.000480 0.003099 0.001519 -0.002263 -0.001467 0.004239 -0.003761 -0.003364 -0.001285 0.004722 0.005468 0.003214 -0.001017 -0.000318 0.001082 -0.001237 -0.002708 -0.001299 0.003461 -0.000936 -0.000369 -0.000244 0.001653 -0.006326 0.000063 0.004616 -0.005667 0.005444 -0.001765 -0.000380 0.000082 -0.002213 0.001310
Sepal_Length_4.9_value -0.001792 0.002806 0.002231 0.001063 -0.003161 0.003364 -0.000639 -0.004399 0.001084 -0.002158 -0.000076 0.005441 -0.004785 -0.005163 0.000650 0.001670 0.005014 -0.001635 0.005778 0.001560 -0.006224 0.003871 0.000327 -0.001455 -0.000749 -0.000656 0.002069 0.001767 -0.004684 0.000166 -0.003075 -0.001172 -0.005456 0.004688 0.002903 -0.003729 -0.002416 -0.000210 -0.006735 0.005789 -0.003363 -0.002742 0.003054 -0.000749 0.000474 -0.002587 -0.005743 0.003959 -0.002118 0.002083 -0.002780 0.001684 -0.001231 0.002240 -0.004983 0.000525 -0.004438 0.000758 -0.001470 0.000500 -0.002309 0.000137 -0.002735 -0.002227 0.000623 -0.003705 0.002013 -0.001244 -0.002834 -0.003029 -0.003128 -0.001443 0.003054 0.003712 0.003686 -0.001340 -0.003153 0.004824 0.004122 -0.005192 -0.002054 -0.000412 -0.002267 0.003145 0.005438 -0.001278 -0.001481 0.000718 -0.000372 0.000449 0.002154 -0.004780 0.004166 -0.004065 0.003232 -0.000406 0.002314 0.002241 0.001491 -0.004368
Petal_Width_2.0_value 0.004019 -0.003799 -0.004574 0.001644 0.001526 0.001365 0.000074 0.001999 0.001882 0.003700 0.002031 -0.003139 0.002287 -0.001800 -0.001348 0.001028 -0.002063 0.004616 0.002616 -0.003119 -0.003995 -0.003468 -0.001318 -0.004385 -0.004967 -0.001459 -0.003866 -0.005058 -0.000140 0.000749 -0.003556 -0.001052 -0.001736 -0.001927 -0.001886 -0.002187 0.001432 -0.001884 -0.002052 0.000162 0.000096 -0.000041 0.000070 -0.001029 0.000010 -0.000078 -0.001728 -0.001271 0.001635 -0.002478 -0.002329 0.005102 -0.000698 0.002596 0.003218 0.000792 0.003691 0.003603 0.000366 -0.003008 0.000932 0.000841 -0.002299 0.002741 -0.001484 -0.003155 0.001106 0.001486 0.003282 0.004274 0.004453 -0.004523 -0.003000 -0.001409 0.004091 -0.005649 -0.003448 0.005906 0.000442 -0.003097 -0.001990 -0.005105 0.004064 0.002384 -0.002353 -0.001184 -0.002843 0.000721 0.004992 0.000635 0.000319 0.000387 -0.004048 -0.004155 0.000603 0.001203 -0.001451 0.000514 -0.001627 0.003134
Sepal_Width_3.3_value -0.002594 -0.005122 -0.002904 -0.001137 -0.005179 -0.003784 -0.001257 -0.001280 -0.004077 0.003779 0.001044 -0.000463 -0.000161 0.002646 0.003514 0.001156 -0.003102 0.002002 0.003906 0.004106 -0.000396 0.000303 -0.002643 0.002028 0.003886 0.005311 -0.002970 0.003565 -0.000146 -0.003711 -0.003092 0.000219 0.002767 -0.004361 0.002664 -0.000815 -0.000392 -0.002748 0.004493 -0.001361 0.001085 -0.005213 0.000210 0.004318 -0.000023 -0.004036 0.001240 0.001127 0.003174 -0.001627 0.002997 -0.004901 0.003737 -0.004641 -0.000246 -0.004057 -0.003398 -0.003873 -0.004127 -0.002928 -0.001715 -0.000173 0.001237 -0.005166 0.002057 -0.003852 -0.005129 0.002253 -0.002201 0.002100 -0.001664 0.001012 -0.001806 -0.002862 0.002455 0.000670 0.001802 0.000941 0.001473 0.001907 -0.002515 0.004798 -0.003276 -0.001771 0.002632 -0.004186 0.002443 0.001900 -0.004747 0.002671 0.002728 0.000059 -0.004969 -0.004164 0.002892 0.002419 -0.000120 0.003859 -0.002486 -0.003167
Sepal_Length_4.8_value 0.001557 0.000270 -0.004590 0.000044 -0.001404 0.001981 -0.000865 0.001582 -0.003673 0.003582 0.000094 0.008502 -0.003219 -0.004221 -0.005133 0.004790 -0.002885 -0.001384 0.003028 0.001268 -0.010442 0.001187 -0.003694 -0.001829 0.000307 -0.004206 0.002755 0.002959 -0.002451 0.000215 -0.002486 0.000689 0.000135 0.000584 0.001443 -0.006319 0.003215 -0.005507 -0.007217 0.001797 -0.008727 0.002240 -0.004374 0.005669 0.003541 -0.001932 -0.007556 -0.005178 0.001119 -0.004945 0.000309 -0.003398 0.005509 -0.004538 0.003856 -0.005356 0.001240 -0.007403 0.003586 -0.008919 -0.004429 0.001812 -0.001875 0.000167 0.000447 0.004878 -0.003234 -0.005365 0.004510 -0.003948 0.005444 -0.003718 -0.006486 0.002959 0.001452 0.000866 0.003019 0.000810 0.004269 0.001675 0.005760 -0.001839 -0.003076 -0.001242 0.001279 0.008713 0.002862 0.001488 0.000387 0.002981 -0.010540 0.001125 0.003361 -0.009184 -0.000896 0.002213 -0.002306 0.002052 0.002389 -0.003066
Petal_Length_4.0_value -0.003071 -0.012931 0.002650 0.009387 0.003746 -0.003548 -0.006279 -0.000157 -0.003766 0.002635 0.006017 0.014795 -0.019802 -0.009816 -0.005718 -0.001959 0.005401 0.000194 0.013377 0.004696 -0.022562 0.000106 -0.000132 -0.010284 -0.009640 -0.000913 0.004946 -0.005350 -0.006206 0.004605 -0.002472 -0.003514 -0.010260 0.004803 -0.003301 -0.001536 0.004455 -0.006568 -0.014377 0.011252 -0.005900 0.000800 -0.003915 0.023025 -0.000905 0.008257 -0.013629 -0.009816 -0.006471 -0.006568 0.004037 0.002721 0.010185 0.000782 -0.003770 -0.004182 0.005801 -0.003752 0.001244 -0.018387 -0.015933 0.004365 0.010442 -0.005906 0.006832 -0.005515 -0.018579 -0.010420 0.007849 0.001006 0.005720 -0.008832 -0.016169 0.004171 0.002320 -0.018959 0.009443 0.010317 0.000435 -0.013418 0.002534 -0.006913 -0.012110 -0.009940 0.007201 0.008857 0.006000 0.005153 0.000498 0.001943 -0.015038 -0.011654 -0.009313 -0.015512 0.005532 0.018442 -0.001968 -0.012208 0.006343 -0.003818
Sepal_Length_6.5_value 0.004267 -0.003078 -0.003867 0.006205 0.001244 -0.002389 0.002475 0.004301 -0.002965 -0.002690 0.002969 0.006684 -0.005580 -0.001501 -0.005311 -0.003249 0.003242 -0.003282 0.000154 0.003389 -0.009553 -0.005576 -0.002583 -0.004429 -0.003618 0.002913 -0.004519 -0.001830 -0.000034 -0.003453 0.002955 0.001357 -0.006529 -0.001337 0.001470 -0.001175 -0.000002 0.002079 -0.007134 0.008518 -0.006753 -0.002874 -0.003014 0.007030 0.000139 0.002684 -0.006992 -0.005488 -0.000794 0.000394 0.000459 0.005014 0.002706 -0.003140 -0.003470 -0.003062 0.004041 0.003504 0.004081 -0.006420 -0.003438 0.001134 0.003650 -0.001763 -0.001714 0.001843 -0.008510 0.001166 0.004485 0.001998 0.000540 -0.000116 -0.005363 0.004219 0.003212 -0.007089 0.000537 0.001398 -0.001258 -0.001756 -0.004190 -0.001016 -0.004886 -0.003753 0.000645 0.000195 -0.000562 -0.002241 -0.003693 0.000100 -0.001787 -0.005732 -0.004391 -0.005694 0.004727 -0.000342 0.000750 -0.002002 -0.000388 -0.003191
Petal_Width_1.2_value -0.000029 -0.017341 -0.000613 0.018869 0.001326 -0.009027 -0.009231 0.006357 -0.008135 -0.002343 0.009737 0.017991 -0.028339 -0.016370 -0.011128 0.001860 0.001178 0.004642 0.021492 0.008718 -0.036342 -0.007370 -0.007150 -0.021092 -0.013044 -0.004001 0.005436 0.005421 -0.008473 0.003049 0.001926 -0.003490 -0.022826 0.012774 -0.006338 -0.006315 -0.005333 -0.010175 -0.029440 0.024895 -0.014140 0.000955 -0.008331 0.023438 0.010229 0.004183 -0.027657 -0.006346 -0.000238 -0.014425 0.004873 0.011541 0.015295 -0.004812 -0.009747 -0.007123 0.007939 -0.007953 0.004143 -0.024319 -0.016873 -0.004279 0.019031 -0.005253 0.018264 0.000725 -0.027810 -0.017998 0.005480 0.003448 0.002355 -0.017646 -0.025976 0.011029 -0.002803 -0.020770 0.020478 0.021780 0.004145 -0.010784 0.009406 -0.012587 -0.013968 -0.021769 0.006499 0.015092 -0.000487 0.000658 0.007561 -0.002519 -0.019550 -0.012585 -0.003845 -0.023301 0.012906 0.019116 0.000686 -0.015206 0.007346 -0.009914
Petal_Width_1.9_value -0.003741 0.002730 0.004822 0.002915 -0.003064 0.002353 -0.003294 0.002436 0.004679 0.004436 0.001505 0.002235 -0.003120 0.003239 0.002651 -0.004535 0.000533 -0.000935 0.001154 -0.002781 0.001113 -0.004227 -0.003481 -0.005678 -0.005081 -0.003371 -0.000881 0.003548 -0.003577 0.004883 0.003847 -0.003212 -0.000188 0.001286 0.002864 -0.003684 -0.004156 0.003930 -0.001725 0.005030 0.002606 0.004377 -0.002864 -0.002820 -0.000985 0.003541 -0.005073 -0.004218 -0.003939 -0.003338 -0.001523 -0.003350 -0.001113 -0.002592 -0.003656 -0.002253 0.000856 0.001576 -0.001850 -0.001424 0.001303 0.004565 -0.002327 -0.001440 0.004642 0.002062 0.001396 -0.005965 0.003499 -0.004567 -0.001534 -0.003145 0.003054 0.000231 -0.001925 -0.002216 -0.003187 0.003443 0.003221 -0.005757 -0.001938 0.003043 0.000329 -0.004167 -0.000949 0.001153 0.003149 0.005386 0.004976 -0.000936 0.003421 0.001271 -0.004400 -0.000246 0.000705 0.005323 0.002218 -0.000988 0.004520 -0.004778
Sepal_Width_2.6_value 0.002535 -0.005441 -0.001853 0.007552 -0.000070 -0.001017 -0.004308 -0.002260 -0.004131 -0.003900 0.006524 0.001864 -0.005401 0.001105 -0.006412 -0.000101 0.002819 -0.003997 0.003681 0.006090 -0.004810 0.000594 0.002548 -0.003432 -0.003400 -0.001051 -0.001390 -0.001316 0.002113 0.000076 -0.004972 0.001767 -0.002705 0.001453 -0.003832 -0.004127 -0.000038 -0.004733 -0.001530 0.008358 -0.001344 0.005122 0.004326 0.006544 0.006701 0.001849 -0.007984 -0.002956 -0.002023 -0.001628 0.001100 0.000698 0.004080 0.002462 -0.005558 -0.003129 0.003477 -0.006819 0.004214 -0.003630 -0.001843 -0.000836 0.008221 -0.002787 0.008483 0.005113 -0.010619 -0.005010 0.006912 0.000308 0.004157 -0.006479 -0.006118 0.001686 -0.000999 -0.004379 -0.000559 0.001780 -0.001251 0.000982 0.000622 0.000763 -0.003363 -0.010013 0.002848 -0.000364 0.002077 -0.000176 0.001343 0.002881 -0.000968 0.001267 0.000862 -0.010168 0.003204 0.003464 0.001852 -0.006588 0.002753 0.001267
Petal_Length_4.9_value 0.002796 -0.005420 0.003061 0.007106 -0.001127 -0.005308 -0.001858 0.004395 -0.002376 -0.000233 0.000977 0.006965 -0.009114 -0.001333 -0.000622 -0.000874 0.003348 -0.003320 0.005479 0.000728 -0.007733 0.002034 0.003503 -0.006069 -0.006423 -0.000701 0.002053 -0.001285 -0.006531 0.003687 0.003146 0.003747 -0.004685 0.005255 -0.002552 -0.002805 -0.002019 -0.001086 -0.010222 0.004389 -0.001628 0.003687 0.003221 0.008969 -0.002066 -0.000826 -0.001451 -0.001447 -0.003825 -0.006363 -0.002039 0.006312 0.004540 -0.003004 0.001393 0.001015 0.003304 0.002847 0.001912 -0.009955 0.000936 0.004699 0.008452 0.001562 0.008075 0.004586 -0.011587 -0.007087 0.005467 -0.003645 0.000481 -0.000102 -0.004444 0.003751 0.001099 -0.009467 0.001301 0.007211 0.004217 -0.003775 0.001660 -0.002704 -0.004536 -0.004527 0.000728 0.000512 0.001596 0.005638 -0.002214 0.002231 -0.005293 -0.002392 -0.001646 -0.010378 0.005553 0.000505 -0.004054 -0.004775 0.004593 0.001046
Petal_Length_4.7_value 0.001120 -0.003378 0.002720 0.001136 0.006581 -0.006080 -0.008063 0.001064 0.001757 -0.002042 0.007912 0.012245 -0.009392 -0.005066 -0.005901 -0.002939 -0.001726 0.000438 0.009130 0.008131 -0.015491 -0.002473 -0.000432 -0.001897 -0.007202 0.002935 0.003989 -0.001607 -0.002022 -0.000443 0.002980 0.003739 -0.011397 -0.000935 -0.000770 -0.005330 0.004601 -0.000160 -0.007741 0.011568 -0.004029 0.002859 0.001247 0.007604 0.004202 -0.001017 -0.013125 -0.009099 -0.007326 -0.000102 0.004461 0.000133 0.001302 -0.000243 0.001685 -0.003119 0.004735 -0.005408 0.005568 -0.007571 -0.010639 0.004192 0.002903 -0.000121 0.002176 -0.005446 -0.013676 -0.003902 0.004052 0.001479 0.002934 -0.001275 -0.012062 0.007234 -0.001691 -0.007925 0.005982 0.008597 -0.002314 -0.003786 0.005239 -0.004307 -0.003165 -0.006648 0.006796 0.005674 0.000633 0.000850 -0.002708 0.003723 -0.010950 -0.003462 -0.005853 -0.010889 0.006845 0.005764 0.001145 -0.003856 0.007199 -0.006436
Sepal_Length_4.6_value -0.005141 -0.002388 0.001248 0.005652 -0.001901 0.001886 -0.003722 0.004748 -0.005850 -0.003883 0.005529 0.004396 -0.005079 -0.006494 0.000363 -0.004486 -0.001516 -0.000629 0.004081 0.003293 -0.002020 0.003417 0.001142 -0.001812 -0.002838 0.003621 -0.002093 0.004347 -0.004767 -0.000110 0.001412 -0.003938 -0.006649 0.001123 0.001684 0.000497 -0.003897 0.002202 -0.004951 0.007478 -0.002990 -0.005409 -0.005242 0.007641 0.004799 0.005161 -0.005463 -0.000630 0.002275 -0.000997 -0.001350 -0.000155 -0.000454 0.003067 0.004000 -0.006034 0.002623 -0.003782 0.001864 -0.006918 -0.002164 -0.001777 -0.000693 0.003921 0.007035 0.002791 -0.007086 0.002767 0.003235 0.003265 -0.001397 0.000023 -0.006962 0.001760 0.001561 -0.000701 0.002895 0.006983 0.003846 -0.000580 -0.001439 -0.005355 -0.007851 -0.006436 -0.001906 0.007398 -0.004353 -0.002294 0.004855 0.005356 -0.003263 0.003432 -0.005133 -0.000578 0.000251 0.006908 0.002811 0.001991 0.001149 0.003335
Petal_Length_4.8_value 0.000679 -0.000037 0.001402 0.002052 -0.000287 -0.000989 0.001032 -0.002983 -0.001323 -0.001148 0.005642 0.008596 -0.007435 -0.007242 -0.007219 -0.003097 -0.001318 0.001864 0.007788 -0.000894 -0.003851 0.000442 0.001424 0.000161 -0.004438 0.000164 0.002276 -0.000290 -0.004987 -0.004219 -0.003316 0.002321 -0.003366 0.005285 -0.001589 -0.003615 0.001218 -0.004889 -0.011363 0.010371 -0.004949 0.000417 0.001318 0.011349 -0.002528 -0.001179 -0.007950 -0.005850 -0.001073 -0.000275 0.005430 0.002836 -0.000714 -0.004444 0.001190 -0.005414 0.002688 0.000321 -0.001544 -0.010453 -0.009449 -0.003412 0.008304 -0.005189 0.001219 -0.004496 -0.005962 -0.006564 0.000394 -0.003528 0.000089 -0.004556 -0.007592 0.000828 -0.004208 -0.003159 0.001177 0.004742 -0.002125 -0.005254 0.003277 -0.003868 -0.007149 -0.005226 0.000732 0.005784 -0.001394 0.004991 0.001457 -0.000260 -0.007837 -0.006389 -0.002924 -0.001897 -0.000785 0.003448 0.003161 -0.002621 0.000083 -0.004296
Petal_Length_4.2_value 0.000494 -0.004067 -0.003276 0.003729 0.003612 -0.000621 -0.004818 -0.001208 -0.006399 -0.000175 0.003278 0.005345 -0.010848 -0.003317 -0.007293 -0.002909 0.002395 0.004247 0.011454 0.007541 -0.016256 -0.000837 -0.004091 -0.011162 -0.004301 0.003519 -0.001974 -0.002708 -0.010163 -0.000679 -0.004613 0.000678 -0.007521 0.000994 -0.007814 0.002561 -0.001119 -0.005152 -0.007862 0.013849 -0.009709 -0.001109 -0.001528 0.011235 -0.001820 0.006333 -0.013173 -0.005576 -0.000070 -0.002192 0.004276 0.002311 0.000270 -0.006535 -0.004299 -0.003863 0.006458 -0.006833 -0.002421 -0.014999 -0.008397 0.002509 0.008903 -0.003837 0.008413 -0.002512 -0.012671 -0.004344 0.004633 0.000913 0.000092 -0.003678 -0.008379 0.006191 0.001154 -0.014657 0.006164 0.008193 -0.001320 -0.007580 0.003797 -0.010719 -0.009738 -0.013793 0.002306 0.007060 0.001854 0.007450 0.007052 -0.001096 -0.005289 -0.009777 -0.004558 -0.012961 0.010261 0.013979 -0.002651 -0.009045 0.001220 -0.004649
Sepal_Length_6.9_value -0.002728 -0.005146 0.005102 0.000758 -0.002575 -0.003961 0.000019 0.002060 -0.001317 0.003365 0.002881 0.003210 -0.008706 0.000817 -0.004685 0.000829 0.005455 -0.002944 0.007930 0.003716 -0.009467 0.001645 0.003995 -0.002880 -0.000697 -0.005061 0.004934 -0.001964 -0.006370 0.003248 0.004117 0.002214 -0.008517 -0.002463 -0.000471 -0.002016 0.004062 0.001670 0.000390 0.006689 0.001124 -0.000591 -0.004153 0.008510 -0.000955 0.000580 -0.003318 -0.001385 -0.001961 -0.003517 -0.002530 0.002158 -0.001168 0.001899 0.000812 -0.006441 0.006626 0.001550 -0.002112 -0.009439 -0.003434 -0.001755 0.004144 0.001119 0.005868 -0.004935 -0.003206 -0.005051 0.005971 0.003644 0.001401 -0.001765 -0.008358 -0.001160 -0.003121 -0.005574 -0.000851 0.003965 0.001565 -0.006726 -0.000863 -0.007385 -0.002410 -0.002352 0.002389 0.005661 -0.002042 0.002077 -0.001061 -0.004458 -0.005463 -0.006794 0.002598 -0.002223 -0.002106 0.006962 -0.001195 0.000506 0.001618 0.001526
Petal_Width_1.6_value -0.000119 -0.009894 0.002997 0.007420 0.000876 -0.008411 -0.011825 0.003744 -0.007499 0.002214 0.005628 0.017571 -0.016289 -0.005515 -0.006674 -0.000998 -0.000464 -0.000335 0.010010 0.004836 -0.025376 -0.003982 -0.006694 -0.009073 -0.008895 -0.000688 -0.001324 0.002000 -0.002356 -0.004383 -0.006862 -0.002422 -0.012123 0.004186 -0.001283 0.001997 -0.002295 -0.008019 -0.021320 0.015619 -0.012584 -0.001608 -0.005785 0.013344 0.001934 -0.000153 -0.011491 -0.006297 -0.002974 -0.011938 -0.000189 0.009402 0.005944 -0.006359 -0.006202 -0.004552 0.005092 -0.009128 0.001689 -0.021305 -0.014724 -0.002110 0.010329 0.002055 0.008140 0.001515 -0.021678 -0.013069 0.003714 -0.003052 0.003236 -0.011686 -0.014319 0.006200 -0.003641 -0.012580 0.010817 0.013740 0.002066 -0.011291 0.002264 -0.010551 -0.010235 -0.015561 0.004465 0.009317 0.002147 0.000631 0.006652 0.002182 -0.010695 -0.012597 -0.008555 -0.015688 0.001981 0.014952 -0.001029 -0.013278 0.003067 -0.011474
Sepal_Length_5.2_value -0.002864 -0.002952 -0.003795 0.001852 0.000857 -0.000019 0.000427 -0.000017 0.000797 -0.002997 -0.001805 0.004825 -0.003886 -0.007074 0.000753 -0.002703 -0.003538 0.001004 -0.000399 0.004891 -0.005411 0.003520 0.000937 -0.004340 -0.007290 -0.000806 -0.002562 0.003365 -0.002686 -0.003244 0.001375 -0.002725 -0.003339 0.004714 -0.006011 -0.001267 -0.003886 -0.001094 -0.008443 0.006560 -0.008839 0.003226 -0.002208 0.009138 0.000323 0.000128 -0.003239 0.001313 -0.000870 0.001340 0.002664 -0.002881 0.002178 -0.004099 0.000849 -0.004323 -0.001474 0.000935 0.003960 -0.008169 -0.006086 -0.005046 0.000013 0.001990 0.004515 0.004569 -0.006603 -0.000484 0.001288 0.001595 -0.001493 -0.003828 -0.009925 0.002094 -0.003829 -0.008318 0.007830 0.001707 -0.001226 0.000901 -0.001413 -0.004581 -0.008650 -0.001297 -0.001811 0.003038 -0.000401 0.002274 -0.000198 -0.002336 -0.006807 -0.001821 0.003343 -0.008464 0.001299 0.007854 -0.002053 -0.005065 0.007383 -0.001290
Sepal_Length_7.7_value -0.004614 0.000517 0.003137 0.005328 0.005166 -0.000611 -0.004941 0.004433 -0.002762 0.004507 0.005209 -0.001269 0.002101 0.001101 0.002860 0.004515 -0.002678 -0.001165 0.002521 0.001045 0.003874 -0.000757 0.001144 -0.004730 -0.003309 -0.003610 0.002393 -0.005173 0.004342 0.003630 0.001552 -0.004631 -0.002606 -0.003290 0.001999 -0.004134 0.004108 0.000267 -0.004217 0.000387 -0.003776 0.000021 0.002366 0.002615 -0.002013 -0.001242 -0.004811 -0.004759 -0.005039 -0.004647 -0.001214 0.003499 -0.001720 -0.000023 0.001083 0.000560 -0.003234 0.001398 0.000305 0.001986 0.001641 0.000097 0.005484 -0.002710 0.002231 -0.003490 0.000821 -0.002975 -0.002788 -0.001415 0.000106 0.001803 -0.002473 -0.000832 0.002888 -0.002452 -0.004436 -0.004437 -0.003547 -0.001015 -0.001576 0.001189 -0.003847 -0.003739 0.004841 -0.001330 0.004395 -0.002133 0.004859 -0.004103 0.002751 0.004361 -0.000800 -0.000394 -0.002932 0.001299 -0.002474 0.001585 -0.000168 -0.003086
Petal_Length_5.0_value 0.003234 -0.000964 0.000362 0.007575 -0.002793 -0.002371 -0.004693 0.001967 0.002802 0.002523 -0.000851 0.006163 -0.005983 -0.002816 -0.008290 -0.002385 -0.003494 -0.001089 0.006413 0.000679 -0.006185 -0.000042 -0.002540 -0.004791 -0.006863 -0.004505 0.003565 -0.003789 -0.006173 0.004962 -0.005451 0.001533 -0.005837 -0.000556 -0.004141 0.001702 0.003696 -0.005100 -0.007396 0.004735 -0.000328 0.004470 -0.003738 0.006928 0.003795 0.001558 -0.005336 -0.006160 0.000113 -0.007773 -0.000125 0.001210 0.003055 0.003399 -0.003970 -0.002309 0.005237 -0.000738 0.003109 -0.010134 -0.000947 -0.001782 0.003950 -0.004783 0.005282 0.003096 -0.007345 -0.007653 -0.002247 -0.003301 0.001051 -0.002617 -0.011017 -0.002482 0.005359 -0.007539 0.003577 0.006038 0.002676 -0.008012 -0.002691 -0.000042 -0.005254 -0.002782 0.004396 0.002955 -0.003272 0.005631 0.004332 -0.001299 -0.005373 -0.003098 -0.004184 -0.005858 0.002541 0.003038 0.003561 -0.008839 0.000737 0.000155
Petal_Length_50.0_percentile 0.003369 0.001284 -0.002431 -0.003260 -0.001322 -0.003833 0.003911 -0.002952 -0.002134 0.001715 -0.000578 0.001724 0.002490 0.000028 -0.000281 0.003374 0.003042 0.004980 0.005223 0.004721 -0.001169 0.002277 0.001133 0.001720 -0.001683 0.003770 0.004203 0.002206 -0.003261 -0.000046 -0.002872 -0.004448 -0.000087 0.000052 -0.002844 -0.001050 -0.003501 -0.000212 0.003568 0.003718 -0.005876 -0.004377 -0.005583 -0.000938 0.005573 -0.000187 -0.001713 -0.000994 0.003489 0.000302 -0.003441 -0.000442 -0.003031 0.001600 -0.003971 -0.004552 0.001998 -0.001427 0.005013 -0.000599 0.001881 0.003585 0.003131 -0.002929 0.002329 -0.004513 0.002066 -0.003119 0.004988 0.004851 0.001265 -0.004261 0.001233 -0.000734 -0.000537 -0.002604 0.004736 0.000887 0.003166 0.002612 0.001399 -0.001364 0.000803 0.000997 -0.002691 0.003919 -0.003355 -0.001624 0.003957 0.001014 -0.003493 0.004128 0.001496 -0.000670 0.005521 0.004399 0.001513 -0.004400 -0.000911 -0.000245
Petal_Length_4.4_value -0.003496 -0.000945 0.004701 0.001734 -0.001111 -0.003850 0.001570 0.000575 0.002968 -0.001803 -0.001418 0.004339 -0.008686 -0.003257 -0.002704 -0.002419 -0.000658 -0.005040 0.002791 0.000826 -0.005661 0.002394 -0.000395 -0.008413 0.000824 0.003205 -0.001146 -0.002561 0.001993 -0.001047 0.000302 0.004874 -0.008799 0.000626 -0.004495 0.003967 0.000598 -0.007023 -0.002855 0.007297 -0.001753 0.006875 0.003369 0.008711 -0.002361 -0.001981 -0.008097 -0.006491 -0.001269 -0.001766 0.001533 -0.002578 0.000122 0.003471 0.000922 -0.003942 0.004254 -0.003698 -0.003299 -0.005772 -0.005970 0.000239 0.008768 0.000206 0.005316 -0.004823 -0.006913 -0.004564 0.002884 -0.002235 -0.000394 0.001804 -0.009780 -0.001125 -0.002229 -0.003341 0.005233 0.006692 -0.000680 -0.000134 0.002488 -0.001953 0.000649 -0.003265 0.001335 -0.002547 0.002101 0.002438 0.001858 -0.002497 -0.003578 -0.006894 -0.001377 -0.009711 0.006156 0.001630 -0.001944 -0.000276 0.005734 0.000683
Sepal_Length_6.2_value -0.004557 -0.011762 -0.003403 0.012124 0.002166 -0.003714 -0.007153 -0.000413 0.000784 0.000332 0.007840 0.017221 -0.010078 -0.012379 -0.007989 -0.001476 -0.000249 -0.001059 0.013186 0.011589 -0.021366 0.000718 -0.002526 -0.009149 -0.009525 0.003575 0.004271 -0.003670 -0.004679 0.004229 -0.004208 -0.001813 -0.014501 0.007161 -0.000356 -0.003099 -0.003939 -0.007933 -0.013640 0.015718 -0.007880 -0.000908 0.002581 0.012262 0.004738 0.008431 -0.009817 -0.003787 -0.006300 -0.003616 0.002139 0.006028 0.001643 -0.002266 -0.003235 -0.011129 0.003168 -0.008396 0.000563 -0.017616 -0.011087 0.002036 0.005339 -0.004076 0.013919 -0.004223 -0.016231 -0.004158 0.005008 -0.003723 -0.001256 -0.005488 -0.012411 0.004357 -0.001923 -0.012756 0.007414 0.013729 0.002113 -0.005713 0.003072 -0.014082 -0.006500 -0.015185 0.001947 0.009534 0.005113 0.007484 0.000087 0.003548 -0.008209 -0.005817 -0.007096 -0.014262 0.003060 0.013814 0.000957 -0.009655 0.009360 -0.005671
Petal_Length_1.7_value -0.000761 0.002961 0.001621 -0.002391 0.001292 0.003749 -0.000767 0.005070 -0.001742 -0.001961 0.003664 0.004754 -0.004419 0.001217 0.000678 0.003931 -0.003445 0.002971 0.002867 0.003434 -0.002137 -0.003082 -0.002305 -0.002859 0.002791 -0.000076 0.000917 -0.002077 0.002380 0.001894 0.003724 -0.004115 0.002446 -0.004282 0.003317 -0.002997 0.003844 -0.001786 0.001900 0.001387 -0.000440 0.004299 0.003866 -0.002588 -0.000414 -0.001977 -0.001802 -0.004093 0.000375 0.003050 -0.000992 -0.003345 -0.001299 0.002235 -0.004530 0.001700 0.001321 0.001804 -0.004737 0.000671 -0.002907 0.001210 -0.003923 0.000471 0.005251 -0.001297 -0.001165 -0.001473 0.000914 -0.004062 -0.000887 -0.000620 -0.005589 -0.000272 0.002523 -0.001649 0.000214 -0.000857 -0.004585 0.002281 0.000606 -0.003814 -0.005594 0.001510 0.001345 0.002075 -0.002859 0.000943 0.004612 0.002515 -0.000533 0.003236 0.004828 0.002037 -0.002477 0.003194 -0.002040 -0.004960 -0.003470 0.002287
Sepal_Width_2.3_value -0.004986 0.002124 0.002995 -0.001492 -0.004045 -0.000340 0.003312 -0.004551 0.002230 0.000790 -0.000785 0.000224 -0.002037 -0.003498 -0.003552 -0.001181 -0.001342 -0.003080 -0.004148 -0.000299 0.003000 -0.003929 0.003685 0.004327 -0.000750 0.006038 -0.003743 -0.003090 0.004290 -0.003999 -0.001242 -0.002501 0.000609 -0.004606 -0.000751 0.003483 0.001703 -0.002726 0.000709 -0.002608 0.004502 0.005024 0.003592 -0.000812 -0.001416 -0.000087 -0.004118 -0.002421 0.004809 -0.005428 0.003957 -0.001370 -0.002477 0.000152 0.002805 -0.003139 0.004712 0.002782 0.003116 -0.003520 -0.002983 -0.003686 -0.003439 -0.002315 -0.000168 0.004211 -0.002579 0.000235 -0.004501 -0.002373 -0.004015 0.003879 -0.000908 0.001714 -0.004069 0.001908 0.005048 -0.003138 0.000123 -0.003294 0.003382 -0.004924 -0.004624 -0.002072 -0.004463 -0.004419 0.000202 0.005242 0.002349 -0.000323 -0.001634 -0.002627 -0.001148 -0.004349 0.000699 0.004194 0.002890 -0.001221 -0.000668 0.000683
Petal_Width_2.2_value -0.001837 0.000263 0.003911 -0.001245 0.004025 0.001334 -0.004720 0.004277 0.001887 0.004968 -0.003049 -0.003646 0.004349 0.002110 -0.004351 0.002462 0.002479 0.004251 0.001997 -0.003901 -0.004787 -0.004796 -0.004851 -0.002561 0.003625 0.000558 0.000281 0.003268 -0.003406 -0.002270 0.000811 0.004894 0.000750 -0.004848 0.003126 -0.002398 0.003006 -0.001057 0.003806 0.002690 0.000816 -0.003381 -0.003957 -0.003826 -0.004842 -0.003854 -0.002825 0.001925 0.000461 -0.004740 -0.004341 0.004786 0.000526 -0.002986 -0.002555 0.002452 -0.002895 0.000987 0.004712 0.003507 -0.002494 -0.000018 0.001425 0.003267 -0.003360 -0.004995 -0.004376 -0.000284 0.001049 0.000494 -0.001959 0.005107 0.000603 -0.001159 0.000590 0.002329 0.001472 -0.002583 -0.004389 -0.001247 0.000896 -0.003039 0.002758 -0.004207 -0.002627 0.002646 -0.003035 0.001466 0.000175 0.004133 -0.002151 -0.004438 0.002239 0.002975 0.003929 0.004219 -0.004684 -0.002821 0.001071 0.004389
Petal_Length_3.9_value 0.004299 -0.006042 0.001302 0.006839 0.000720 0.003752 -0.004818 0.000875 0.001524 -0.002567 -0.002169 0.003161 -0.000309 -0.004348 -0.000012 -0.003651 -0.000652 -0.003911 0.005249 0.004208 -0.003587 -0.003503 0.001846 -0.006232 -0.003768 -0.001405 -0.001276 -0.005009 -0.000418 0.002550 0.000408 0.001449 -0.006743 -0.001377 -0.001273 0.003425 -0.002891 -0.002439 -0.005054 0.004318 -0.006118 0.000501 -0.002706 0.008429 0.003384 0.000572 -0.003454 -0.006260 -0.001582 -0.004713 0.004511 0.003512 0.002557 -0.004662 -0.001308 0.002641 0.006391 0.000343 -0.002928 -0.003364 -0.002358 -0.000014 0.003043 0.000210 0.005864 0.001680 -0.004722 0.001164 -0.003001 0.005029 -0.003908 -0.005400 -0.005524 -0.002280 0.001715 -0.008904 0.000249 -0.001268 0.002559 -0.001634 -0.000792 -0.006381 0.000391 -0.005458 0.004498 0.001624 0.001083 -0.003320 0.002114 -0.002112 -0.006015 -0.003557 -0.003635 -0.004592 0.006843 0.002430 0.002735 -0.002993 0.005523 -0.003651
Petal_Length_4.6_value 0.000603 -0.006288 0.001720 0.009525 0.000950 -0.002624 -0.001477 0.001677 -0.001957 0.002356 0.002846 0.003329 -0.008783 -0.006870 -0.006977 0.003690 0.003168 0.001216 0.007968 0.004306 -0.008057 0.002627 0.003175 -0.009253 -0.006661 -0.004709 0.005705 -0.003025 -0.001876 -0.004085 -0.004145 -0.000311 -0.010374 0.002319 -0.002311 -0.002485 0.000470 -0.003314 -0.009265 0.009345 -0.003204 0.003835 -0.000566 0.007145 0.003127 0.006543 -0.006775 0.000553 -0.002350 -0.002042 -0.002760 0.005466 0.003169 -0.006304 -0.003866 -0.003292 0.005632 -0.006958 0.001511 -0.005602 -0.004620 0.004019 0.001479 -0.003030 0.009020 0.002585 -0.008221 -0.001457 0.006067 0.005322 0.006424 -0.008770 -0.012984 -0.001694 -0.004330 -0.002426 0.001326 0.009887 0.002319 -0.005056 0.000257 -0.006814 -0.007378 -0.002618 0.005146 0.000241 0.000474 -0.000440 -0.003333 0.003438 -0.003875 -0.006453 -0.000397 -0.009824 0.001429 0.011357 0.004652 -0.005376 0.007488 0.000431
Sepal_Width_2.4_value -0.002862 0.003474 0.001216 0.005475 -0.004818 0.001938 0.000332 0.000379 -0.002655 -0.001732 -0.002291 -0.002146 0.002225 -0.000295 -0.004469 0.002609 0.000325 0.002956 0.000313 -0.000820 0.003353 -0.004965 0.003721 0.003713 -0.001179 -0.002528 0.001333 -0.003461 0.002881 -0.003108 -0.002541 0.004641 0.003378 0.000515 0.003300 -0.001387 0.004327 -0.001042 -0.003236 -0.003450 0.004540 -0.000180 0.002507 0.002371 0.002460 -0.004057 0.003428 0.003422 0.000740 0.004117 -0.001946 0.001280 -0.000676 0.000802 -0.002225 0.003151 -0.003676 -0.005091 -0.004168 -0.004769 -0.002012 0.004474 -0.003300 0.001350 0.001156 -0.001401 -0.004442 -0.003524 -0.004325 0.001752 0.001554 -0.001185 0.000869 -0.004007 0.004278 0.002793 0.002250 -0.000810 -0.000939 -0.000144 0.004386 0.003017 -0.000947 -0.000313 0.003976 0.005130 0.001674 0.002739 -0.001486 0.004178 0.002287 -0.000315 0.003394 0.002600 0.003516 -0.002907 0.000400 0.003447 0.003032 -0.001013
Sepal_Length_6.8_value -0.002825 -0.001161 0.003669 0.001565 -0.000239 0.000456 0.000325 -0.001112 -0.002769 -0.003917 -0.002493 -0.003622 -0.000196 0.003133 -0.002251 -0.004460 -0.000482 0.000164 -0.000241 0.003650 0.003955 0.003522 0.002381 -0.000990 0.001096 -0.004661 0.004368 -0.003609 0.004181 0.003526 0.002897 -0.002019 -0.003252 -0.000069 0.003170 -0.000109 0.004656 -0.001708 0.000948 0.005610 0.001423 -0.003218 0.000194 -0.000818 -0.000368 -0.001966 -0.004604 0.000871 0.000715 0.003219 -0.003668 0.003649 0.003132 0.001393 -0.003144 -0.002868 -0.000210 0.000701 -0.000251 -0.000793 0.003312 0.003920 0.004392 0.003542 0.000938 0.003767 0.000078 0.000428 -0.001489 0.001816 -0.004565 -0.003602 -0.004306 0.002247 -0.002906 -0.002514 -0.004876 -0.002641 0.004930 -0.000995 -0.004180 -0.000681 0.004710 0.002864 -0.001086 -0.002963 0.002813 -0.002049 -0.002454 -0.004669 0.003627 -0.001258 -0.000416 0.002205 0.003091 -0.000059 -0.003099 0.002076 -0.004496 0.003531
Sepal_Length_7.2_value 0.001160 0.000474 0.002301 0.005164 0.001142 0.004596 -0.004744 -0.000322 -0.004340 0.002406 0.003838 0.001569 -0.002335 -0.005262 -0.000130 -0.002355 -0.003877 0.002473 0.003317 -0.000732 -0.005135 -0.000373 -0.004354 0.001621 -0.001309 0.004595 -0.003914 0.001655 0.002319 0.002195 -0.000771 0.000344 0.000202 -0.003791 0.004593 -0.002540 0.001508 -0.004496 -0.004895 0.001619 -0.003169 0.000488 -0.004100 0.000878 -0.002112 0.001353 -0.004729 0.003620 0.000059 0.001104 0.004620 -0.001105 0.000529 0.002508 -0.004672 0.001818 -0.003247 -0.001492 0.002203 -0.006205 0.000590 0.004855 -0.001068 -0.002872 -0.003211 -0.004207 -0.003866 0.002360 0.000403 -0.001258 -0.002810 0.004054 0.000591 -0.001165 0.004324 -0.000719 -0.001380 0.000943 -0.000712 -0.002872 0.001623 0.001841 -0.002295 -0.001751 0.005230 -0.001906 0.002574 0.004021 0.002627 -0.003028 -0.001773 0.000249 0.000047 0.002980 -0.000768 0.001525 -0.000913 0.000076 0.000033 0.003861
Petal_Width_1.1_value 0.003667 -0.007923 0.004409 0.002226 0.001790 0.000787 -0.000174 -0.001634 0.000242 -0.001257 0.008447 0.008689 -0.007254 -0.000089 -0.000899 0.003171 -0.003115 -0.001625 0.000243 0.001427 -0.009077 0.000051 -0.001271 -0.002228 -0.004855 -0.003503 -0.000840 -0.000295 -0.002176 0.003734 -0.002649 -0.001204 -0.008167 0.001223 -0.002610 0.000369 -0.002317 -0.004885 -0.003962 0.009728 -0.006843 -0.001620 -0.003689 0.008136 -0.000955 0.002816 -0.009719 0.000301 -0.002882 -0.001017 -0.001816 0.001230 0.000575 0.000561 0.000700 0.001133 -0.000865 0.000776 0.003059 -0.005322 -0.002909 -0.005086 0.000611 -0.000685 0.006638 -0.003084 -0.008132 -0.004300 0.006672 -0.004191 0.003944 0.000457 -0.009431 0.005765 -0.001854 -0.002236 0.003615 0.005993 -0.001995 -0.001775 -0.002425 -0.003494 -0.004334 -0.002131 0.001054 0.006950 -0.000485 -0.001126 0.004214 -0.000684 -0.005182 -0.002861 0.000844 -0.005039 0.001720 0.002451 0.002317 -0.001255 -0.001653 -0.003057
Petal_Length_5.5_value -0.001558 0.003430 0.002739 0.002214 0.004334 0.002782 -0.001447 -0.001978 -0.001132 -0.004386 -0.000806 -0.000543 0.002657 0.003265 0.004021 -0.001774 0.002211 0.001209 -0.001906 0.004110 -0.003985 0.002176 -0.003532 -0.004711 0.001428 0.000246 -0.000650 0.002571 -0.001855 0.003686 0.004379 0.004698 -0.002823 -0.000387 0.001934 0.003915 0.002232 0.002036 0.002974 -0.000300 -0.000167 0.000893 0.001362 0.004979 0.000972 0.005036 0.001404 -0.001509 0.000303 0.003623 0.001339 0.002461 0.001823 -0.001779 -0.003186 -0.001479 -0.003119 0.003085 0.002171 -0.002027 -0.003849 0.003933 0.002362 0.004664 -0.003559 -0.002832 -0.005348 0.001842 -0.003248 0.003858 0.000137 -0.000181 -0.005593 0.001583 -0.002525 -0.003883 0.004422 0.004553 -0.004883 0.002497 0.003985 -0.000623 0.001211 0.001922 0.002220 -0.000241 0.000887 0.001124 0.003545 -0.002828 0.001955 0.002547 0.002297 0.002274 0.003691 -0.000022 0.001157 0.001819 0.002980 0.004002
Petal_Length_5.8_value 0.000582 -0.005341 0.003662 0.000679 0.003931 -0.003330 -0.004958 0.000091 -0.000672 -0.004789 -0.003937 -0.002844 -0.006007 -0.004132 0.000075 -0.000221 0.005024 -0.004185 0.004526 0.001369 0.002025 -0.004750 -0.004145 0.002629 -0.000093 0.000581 -0.004794 0.001275 0.002852 0.004976 -0.000983 -0.001965 -0.001898 -0.002147 -0.003162 -0.000797 0.001841 0.000934 0.001349 -0.001453 0.001435 0.003328 0.000450 0.001078 -0.003184 -0.004136 -0.001642 0.000762 -0.003231 -0.001773 0.000298 0.005003 0.004171 0.003482 0.004674 0.002118 -0.002484 0.002998 -0.003147 0.002360 -0.002550 -0.002047 0.002197 -0.004652 0.004841 -0.001285 0.001268 0.001297 0.002304 0.000338 -0.000030 0.000689 0.000446 -0.002176 0.002607 0.003095 0.004051 0.003382 0.003240 -0.005751 -0.003012 -0.002505 0.001548 0.003731 0.002853 0.000429 0.004449 -0.000838 0.001624 -0.005118 -0.004245 -0.002782 -0.001782 -0.001738 0.003528 -0.001069 -0.004162 -0.000760 0.005260 -0.001590
Sepal_Width_2.2_value 0.000649 -0.004805 -0.004060 0.005602 -0.002318 -0.003527 -0.005071 0.003844 -0.003285 -0.003283 -0.000634 -0.002471 -0.001315 0.000543 0.002684 0.000559 0.004265 -0.000074 0.001442 -0.000222 0.002997 0.001871 0.000824 0.002751 0.003840 0.001181 -0.003063 -0.001976 0.004435 -0.000360 0.003061 0.000556 -0.005120 0.001219 0.004524 -0.003153 0.000878 0.001151 -0.004703 -0.000923 -0.001149 0.005322 0.001356 -0.003233 -0.004194 0.004756 0.002147 -0.001686 0.001383 -0.003358 0.000348 0.005332 0.003441 -0.003222 -0.000769 0.000604 0.001419 0.004083 -0.002252 0.000574 0.002115 -0.003776 0.001148 -0.000888 0.000700 -0.004739 -0.003749 -0.003317 0.002004 -0.004699 0.004514 -0.001543 0.002574 0.002160 -0.004509 -0.004863 -0.003849 0.000793 0.000759 -0.002368 -0.004247 0.001814 -0.003893 -0.000032 0.000091 0.000128 -0.001239 -0.004093 -0.001730 0.004277 0.003777 -0.001643 0.001766 0.000106 0.004441 0.003028 -0.001027 -0.005331 0.003405 -0.002321
Petal_Width_2.5_value -0.001193 -0.000124 0.004664 0.001337 0.000721 -0.002350 -0.000723 0.003851 -0.002687 0.003647 0.001673 -0.000326 -0.003769 -0.005111 0.002812 -0.004662 0.001193 -0.003549 0.000186 -0.002358 -0.003586 0.000650 0.002785 -0.002457 0.001324 0.000663 0.004837 -0.003698 0.002253 0.003187 0.002689 -0.000537 -0.001908 0.005843 0.003822 0.002317 -0.000347 -0.000778 0.000200 0.000508 -0.004053 -0.002559 0.000336 0.007329 -0.001675 0.003836 -0.007608 -0.001159 -0.002511 -0.003359 -0.000304 0.001434 0.003784 0.004223 -0.004144 -0.002295 -0.002474 0.002489 -0.003826 0.000685 0.000345 0.003155 0.005840 -0.003589 0.002493 -0.001767 -0.005435 -0.006604 0.000867 -0.004733 0.004446 -0.004095 -0.003403 0.002108 -0.004907 -0.006406 0.001662 0.003724 0.003187 -0.002386 0.004793 -0.000793 -0.006808 -0.000490 -0.002229 -0.002867 0.002610 0.000829 0.003368 -0.004107 -0.003703 -0.003463 -0.000228 -0.002720 0.003869 -0.000449 0.000980 -0.000655 0.000563 -0.000530
Petal_Length_5.7_value 0.000623 0.002133 0.002919 -0.002823 -0.002370 0.001492 0.002138 -0.005346 0.003799 -0.003617 0.000131 0.000013 -0.004144 -0.000185 0.000431 0.001963 0.004059 -0.004842 -0.002734 0.000055 -0.000862 -0.000617 0.005096 -0.003936 0.004416 0.001810 -0.000337 -0.000529 0.001060 -0.001689 -0.003135 0.001249 0.005588 0.000032 0.001917 0.000473 -0.002701 0.001211 0.005695 0.001241 -0.004076 -0.000887 0.001630 -0.000028 -0.004532 0.004126 -0.000410 0.002481 0.002532 -0.002575 0.001340 0.000158 -0.003808 0.002389 0.000683 -0.002574 -0.000913 0.002365 0.004856 0.001535 0.003897 -0.001437 -0.000006 0.003268 0.004078 -0.003683 0.004311 0.005228 -0.000594 -0.001999 0.003863 -0.002088 0.005891 -0.001010 -0.004016 -0.003095 -0.001164 -0.005291 -0.002296 0.003002 0.002296 0.003400 -0.003633 0.003287 0.002792 -0.006078 -0.000956 0.003779 0.004478 0.003867 0.001375 -0.001577 0.000808 0.001974 0.001387 0.000002 0.003736 -0.001027 -0.002921 -0.004728
Sepal_Length_5.9_value -0.005043 -0.007999 -0.000859 0.007970 0.002706 0.000768 -0.002855 0.004450 -0.002042 0.001225 0.007591 0.002873 -0.011861 -0.008765 -0.003302 0.001499 -0.001585 0.001226 0.008326 0.006327 -0.011917 0.000293 -0.000850 -0.010485 0.000160 0.004271 -0.002651 -0.000940 -0.002408 -0.000008 -0.002408 0.003755 -0.005332 -0.000700 -0.000736 -0.003882 -0.004379 -0.005112 -0.013598 0.004944 -0.005898 0.005973 0.002196 0.004420 0.006584 0.000531 -0.011946 -0.006178 -0.000842 -0.004567 0.004079 -0.000256 0.001880 -0.000629 0.001435 -0.004986 0.006568 -0.003827 0.005915 -0.011518 -0.008093 0.000905 0.006904 -0.002414 0.005865 0.002364 -0.014803 -0.004435 0.004493 0.003165 -0.001117 -0.004345 -0.007965 -0.001788 -0.004610 -0.003979 0.005220 0.009863 0.000973 -0.006092 0.000615 -0.001551 -0.006500 -0.007428 0.007258 0.005061 0.000011 -0.002716 0.000699 -0.003226 -0.011310 -0.005929 -0.006578 -0.011008 0.005627 0.011396 -0.001562 -0.007684 0.005494 -0.000849
Petal_Length_4.1_value 0.000797 -0.005797 -0.003667 0.007668 -0.002107 -0.002448 -0.003564 0.003334 -0.003226 0.003344 0.003819 0.010274 -0.004012 -0.005477 -0.007249 -0.000985 -0.002530 0.001376 0.006504 0.003812 -0.010205 -0.005607 -0.001983 -0.008476 -0.004512 -0.000745 0.003778 0.000963 -0.003062 0.001477 -0.002537 -0.002801 -0.003699 0.007837 -0.004789 0.000747 0.002225 -0.001435 -0.010272 0.003789 -0.002621 0.002965 0.001220 0.004415 0.002371 0.000359 -0.004135 -0.008167 -0.003124 -0.000096 -0.002479 0.002055 0.000078 -0.005934 0.000346 -0.002987 0.008352 -0.004976 -0.003004 -0.008869 -0.003388 -0.002466 0.003446 -0.006189 0.005612 -0.000352 -0.010330 -0.003375 -0.002004 0.001814 -0.002105 -0.008104 -0.004565 0.004447 0.002023 -0.011929 0.000592 0.004725 0.003612 -0.010313 0.000595 -0.008785 -0.000061 -0.005782 0.004755 0.006481 0.002390 0.006013 0.000904 -0.004107 -0.004731 -0.000357 -0.005679 -0.004776 0.005523 0.006970 -0.003573 -0.002842 0.002202 -0.000753
Petal_Width_2.4_value -0.001560 0.000615 0.000950 0.000852 -0.000611 0.000843 -0.005451 0.002928 -0.002935 -0.002960 0.000640 0.001394 -0.004463 -0.003062 0.000585 -0.004856 0.001532 0.000687 0.001143 0.002970 -0.000864 -0.004973 0.002458 -0.006129 -0.005816 0.000255 0.002183 -0.000029 -0.002257 -0.003216 0.001286 0.004577 -0.004884 -0.001579 0.004494 0.003216 0.002386 -0.005340 -0.006714 0.002267 -0.005568 -0.003335 0.000981 0.001180 0.003238 -0.001604 -0.004597 -0.002132 0.001352 0.003909 -0.000514 0.003541 0.004063 0.001283 0.002154 0.002223 0.001795 -0.001058 -0.002986 0.000677 -0.004464 0.004732 0.002157 -0.004913 0.000694 -0.002788 -0.006866 0.000627 -0.001212 0.003028 0.002800 -0.005383 -0.000554 -0.002443 0.002884 -0.004487 0.000310 0.005356 0.001392 -0.005216 -0.003582 -0.006331 0.003695 -0.006031 -0.003689 0.000574 -0.004079 -0.001741 0.002127 -0.004612 -0.001964 -0.000457 -0.003895 -0.004967 -0.003345 -0.002423 -0.003073 -0.006249 0.001247 0.002258
Sepal_Width_3.6_value -0.000055 0.000406 0.000208 -0.003674 -0.001547 -0.001370 -0.002728 -0.004614 0.004170 -0.001524 -0.003195 0.003488 0.000179 0.003256 0.002715 -0.003750 0.000112 -0.001486 0.001657 0.002834 -0.002133 -0.000751 0.003818 0.002808 -0.002017 0.002309 -0.004583 0.000598 -0.004599 -0.003880 0.003194 0.001809 -0.000520 -0.001105 0.003878 -0.002693 -0.001149 -0.003534 0.001749 -0.003333 0.005018 0.004556 -0.004452 -0.004388 -0.002486 -0.001863 0.003168 0.002650 -0.002950 0.002447 -0.001233 -0.001953 -0.003022 0.000500 0.000179 0.004166 -0.003459 -0.004886 -0.003555 -0.004540 0.000756 0.002750 0.004652 0.003445 -0.003344 0.004884 0.000806 0.003223 -0.004890 -0.003095 0.004221 -0.002631 0.000558 0.002031 -0.004075 0.000913 -0.002854 -0.001502 -0.000567 0.002658 0.004259 0.004801 -0.001255 -0.002373 -0.002146 0.002619 0.003521 -0.003335 -0.004744 0.003515 -0.003457 0.004527 0.004670 0.000819 -0.000046 -0.001545 0.001533 -0.000934 -0.000762 0.001361
Sepal_Length_4.4_value 0.002178 0.000475 -0.001497 0.002185 0.004658 0.000308 0.001477 0.005761 -0.004599 -0.002501 0.003064 0.006396 -0.004043 -0.000013 -0.003909 -0.001466 0.000543 -0.000333 0.003888 0.003835 -0.009448 -0.001175 0.004181 -0.004900 -0.007017 0.002127 0.001551 -0.004165 0.000401 -0.001584 0.003527 -0.002401 -0.008130 -0.001322 -0.002969 0.000794 -0.003435 -0.002937 -0.002081 0.004272 -0.008141 -0.006063 -0.000745 0.009764 0.005873 0.004208 -0.002599 0.001592 -0.003836 -0.004884 0.003546 0.004154 0.003923 -0.004031 0.003324 0.001906 -0.003309 -0.005691 -0.001511 -0.003342 -0.000812 0.000465 -0.001122 -0.001313 -0.000525 0.005968 -0.002749 -0.002003 0.000242 -0.003382 -0.000141 -0.007588 -0.002480 0.000951 -0.003395 -0.006741 0.002406 0.003281 -0.001312 -0.003746 0.004784 -0.006621 -0.006156 -0.001272 0.006729 0.008215 -0.001968 -0.002209 -0.001908 0.004450 -0.007835 0.000875 -0.003229 -0.010842 0.004906 0.006921 -0.004426 -0.003631 0.006428 -0.004417
Sepal_Width_3.7_value 0.004151 0.002686 -0.004325 0.004714 -0.003241 -0.002556 -0.003453 -0.002100 -0.001721 0.004584 -0.004044 0.000935 -0.000302 0.000721 -0.004121 -0.001619 -0.004065 0.000327 0.003486 0.003098 0.003335 -0.000879 0.000008 -0.002185 0.001298 -0.000437 0.000529 0.000308 0.000189 -0.000806 0.002734 -0.001200 -0.004477 0.003004 0.000007 -0.000704 -0.003542 -0.000614 -0.003942 -0.004738 0.004210 -0.002981 -0.004524 0.002018 -0.000831 0.001386 0.002407 0.001887 -0.001861 0.002520 -0.004110 0.002401 -0.003420 -0.001182 -0.004690 -0.003045 0.001567 0.001891 0.004351 -0.001151 0.000718 0.000221 -0.005371 -0.000743 0.001917 0.002352 -0.002312 0.003993 0.002570 0.003435 0.004621 -0.002991 0.002253 -0.005252 -0.002518 0.000147 -0.000758 -0.002755 0.001971 0.004833 -0.003097 -0.002318 -0.002705 0.001849 -0.000530 0.003303 -0.003684 -0.000148 -0.001978 0.000374 -0.004343 -0.000163 0.000393 -0.002098 0.001028 0.002128 0.001345 -0.000626 -0.004231 0.003977
Petal_Length_6.1_value -0.002559 -0.004785 0.000168 0.005148 -0.002745 -0.002771 -0.005626 -0.004855 0.000166 0.003590 0.000135 -0.001241 0.002660 0.000101 0.003016 -0.003715 -0.000308 0.003656 0.004984 0.004456 -0.000727 0.002207 0.001557 0.002349 0.000374 -0.003345 0.001593 -0.000580 -0.005230 0.000308 -0.000931 0.003583 0.000491 -0.001786 -0.003400 -0.004200 -0.000313 -0.002251 -0.000824 -0.002857 -0.003510 0.000402 -0.001574 0.002866 -0.000897 0.000088 -0.004094 -0.002888 -0.004171 0.001861 0.003376 -0.004158 -0.002873 0.002755 0.003746 -0.002027 0.002247 -0.003559 0.003939 0.001434 -0.003612 0.000941 0.003644 0.003471 0.000637 -0.003625 -0.005714 -0.000498 -0.004281 0.001209 -0.004261 -0.005665 -0.005943 -0.000798 -0.001176 0.001237 0.004535 0.003555 0.003811 -0.000128 0.004692 0.003064 -0.001497 -0.001419 0.004178 -0.000258 0.004730 -0.001715 -0.002147 -0.004071 -0.003754 -0.000453 0.004062 -0.004458 0.001072 0.005083 0.000871 0.002300 -0.002107 -0.004978
Petal_Width_50.0_percentile 0.003000 0.000938 0.004337 0.001513 -0.002672 -0.001174 -0.002218 0.005246 -0.001658 0.005046 0.000103 -0.002618 -0.005201 -0.002040 -0.003791 0.001481 -0.000828 0.005538 0.004834 -0.003297 -0.002371 -0.000539 0.000214 0.002233 -0.000584 -0.000995 -0.001988 0.004173 -0.005550 0.002878 -0.003329 0.001502 -0.002107 0.004660 -0.003938 -0.003639 0.003772 0.000459 -0.003032 -0.004171 -0.003691 -0.004177 -0.003608 0.004858 0.004528 0.002265 -0.000930 0.003143 0.000469 -0.001854 -0.001818 0.004198 -0.000767 -0.000304 -0.002707 0.003554 -0.001143 -0.002526 0.002407 -0.004277 -0.004807 0.003295 0.002670 0.000599 -0.001963 0.001729 0.000449 -0.002115 -0.004372 0.003858 -0.000017 0.002023 -0.003561 0.000849 -0.001072 -0.001905 -0.002543 -0.001487 -0.004380 -0.001942 0.003164 0.001028 0.000804 -0.005365 0.002179 0.001165 -0.002512 -0.003176 -0.002874 0.003727 0.003915 0.004093 -0.001480 0.001544 0.000868 0.003983 -0.000279 0.000907 0.003249 -0.003928
Petal_Length_5.2_value -0.000749 0.001731 0.002150 0.003149 0.001667 -0.002086 0.004850 0.002466 -0.001788 -0.002028 0.003680 -0.004641 0.002444 -0.001366 0.003690 -0.001222 0.002368 -0.003452 -0.001051 0.002468 0.000446 -0.003169 0.001528 0.003264 -0.001948 -0.000215 0.003475 0.003446 0.002748 0.001123 0.003317 0.004327 -0.003933 -0.001432 0.001068 0.002693 -0.003881 -0.000451 -0.000780 -0.001468 0.000850 0.001950 0.000428 0.000104 -0.000105 -0.000935 -0.003890 -0.002798 -0.002045 -0.003063 0.000700 0.000834 -0.000852 -0.001678 0.001824 -0.002677 -0.005075 0.003046 -0.000584 0.003177 -0.001982 -0.004037 -0.001413 0.001696 -0.004751 -0.003554 0.000704 0.001652 0.002137 -0.004299 0.000926 -0.000005 0.002854 -0.003088 0.000259 -0.002599 -0.005930 -0.001384 -0.003202 0.001899 -0.000429 0.003247 0.000156 0.005973 -0.000350 -0.001872 0.002745 0.000799 -0.001539 -0.000384 -0.001754 -0.000560 -0.004634 0.001028 -0.002802 -0.000980 -0.004499 0.001080 -0.002583 0.001010
Petal_Length_4.3_value 0.004495 -0.001784 0.001701 0.002117 0.002456 0.000365 -0.005495 -0.001541 -0.000989 -0.003632 0.000272 0.000415 -0.000304 -0.003913 -0.004571 -0.001099 0.002597 -0.004174 -0.000827 0.003536 -0.002241 0.000383 0.003365 -0.006098 -0.000040 0.004216 -0.003135 -0.002992 -0.001329 -0.001727 0.001147 -0.004470 -0.006214 0.003707 0.003482 0.003992 0.003861 -0.005453 -0.007356 -0.000684 -0.001967 0.004854 -0.000092 0.006897 -0.002449 0.004758 -0.006495 -0.006628 -0.001695 -0.001623 0.005606 -0.003036 -0.001066 -0.004728 -0.001756 -0.003771 0.001714 -0.002644 0.004891 -0.001262 0.000814 -0.003593 0.003614 -0.003672 0.005854 -0.005029 -0.008301 -0.003513 -0.000147 -0.002294 -0.003404 -0.006058 -0.005868 0.005528 -0.002807 -0.000909 -0.000020 -0.001827 -0.004606 -0.005612 0.000243 -0.000027 0.000257 -0.004471 0.001252 0.005086 0.004023 -0.000708 -0.004364 -0.004828 -0.000592 -0.004587 -0.001733 -0.006871 0.005071 0.003127 0.000335 -0.004569 0.001375 -0.006531
Sepal_Length_6.6_value -0.004357 -0.000302 0.004745 -0.001720 0.000644 0.001389 -0.004410 -0.004887 0.003598 -0.004211 -0.000766 0.003646 -0.004691 -0.006373 -0.000322 -0.002432 -0.003316 0.004505 -0.001682 0.003471 0.001127 0.003201 -0.003583 -0.004271 -0.005994 0.004330 0.003615 0.000932 -0.004285 -0.003334 0.000702 -0.002258 -0.003953 -0.002395 -0.003714 -0.000176 0.000150 -0.000629 0.003087 -0.001392 0.001635 0.003716 0.001168 0.001862 0.004217 0.003883 -0.007036 0.003266 -0.005723 -0.000146 0.001408 0.004593 -0.000425 -0.004301 0.000456 -0.005760 -0.000304 0.004602 0.004131 -0.005534 0.001601 0.002822 0.006247 -0.002906 0.001729 0.003104 -0.000785 -0.000669 0.002196 -0.002769 -0.004533 0.001109 -0.004448 -0.000192 0.001217 -0.000566 -0.001802 0.004964 -0.001065 0.000037 0.004556 -0.001015 -0.002545 -0.000726 0.000156 0.000371 0.002624 0.004488 0.000339 -0.004218 -0.000776 -0.003925 -0.005617 0.000997 -0.001658 0.004674 0.000176 -0.003951 -0.001085 -0.005985
Petal_Length_3.3_value 0.004389 -0.001393 0.000642 -0.002412 0.001465 0.000743 -0.005605 0.004529 -0.003287 0.001928 -0.000584 -0.000810 -0.006069 -0.003980 -0.002063 -0.003039 0.002949 0.002867 0.005596 0.003949 -0.006441 -0.003559 -0.003899 -0.003677 -0.006057 0.001059 0.004875 0.002482 -0.005540 -0.004647 -0.002010 0.004572 -0.004705 0.003956 0.000794 0.000416 -0.001155 -0.004525 0.001325 -0.001304 -0.004861 -0.001102 0.003525 0.005852 -0.001447 -0.002496 0.000409 0.001131 -0.005589 0.002017 0.001708 0.000729 0.003193 -0.004959 -0.002456 -0.005921 0.003029 -0.001957 0.000113 -0.005667 0.000358 -0.004791 0.000294 0.000567 0.004910 0.000983 -0.001379 -0.006703 -0.001546 -0.004097 0.000753 0.002636 -0.008525 0.000743 -0.004633 -0.001994 -0.000999 0.004965 -0.003169 0.000898 -0.002205 -0.003778 -0.004827 0.000028 0.001032 0.005957 -0.003577 0.000633 0.003443 0.004638 -0.000955 -0.005197 0.001286 -0.007636 0.003952 0.006362 0.000539 -0.002494 0.005598 -0.006813
Petal_Length_5.3_value -0.002438 -0.004522 -0.004050 -0.003043 0.000382 -0.002718 0.003348 -0.004982 0.002536 0.004665 -0.002292 0.001267 0.002165 -0.001723 -0.000714 0.002316 -0.003664 -0.003708 -0.001280 -0.002725 -0.001775 -0.003476 -0.003962 0.004179 -0.001601 0.000655 0.000402 -0.000508 0.002484 -0.001588 0.003934 -0.004310 0.000806 -0.001532 -0.001420 -0.001903 0.001065 -0.002612 -0.001979 -0.002170 -0.004897 -0.001129 -0.004458 0.003717 0.002109 0.000926 0.002479 0.003960 0.001818 0.000925 -0.003760 -0.000946 0.000730 0.001041 0.004599 -0.002960 0.001659 -0.002353 -0.000848 0.004802 -0.001620 -0.001357 -0.000547 -0.004645 -0.001095 0.001090 0.000831 0.003735 0.001397 0.000565 0.001392 -0.004451 0.005052 -0.003410 -0.000800 -0.002025 0.000667 0.000504 -0.001396 0.004641 0.002426 0.003868 -0.000296 0.000966 -0.000904 -0.002143 0.000273 -0.003050 -0.002874 0.000033 -0.004730 -0.000557 0.004876 0.003306 -0.004209 0.001476 -0.002749 -0.003866 -0.001533 0.001674
